[ -1.14266312e+00   8.07037771e-01  -9.71619904e-01   2.08311915e-01
   3.80275309e-01   2.05158162e+00   6.34381294e-01   7.91003346e-01
  -9.67718720e-01   1.89152801e+00  -1.64332390e+00   1.13544381e+00
  -9.60608184e-01   7.29362011e-01   8.38819921e-01   3.68781209e-01
   5.33338666e-01  -9.33551013e-01  -1.07889893e-02   1.26323390e+00
   2.07674176e-01   1.20754525e-01  -4.20074075e-01   3.19365889e-01
  -8.96862805e-01  -1.41091144e+00  -1.46302149e-01  -1.20114788e-01
   6.41545177e-01   8.63053918e-01  -6.77440524e-01   7.76870608e-01
   6.15235090e-01  -1.02916539e+00  -2.00048804e+00  -6.72084272e-01
   9.54614878e-01  -6.85297623e-02   3.63303721e-01   1.71379775e-01
   1.44689786e+00   8.25578332e-01  -1.69259083e+00   7.06887722e-01
  -1.23356283e+00   3.24460268e-01  -1.32224083e-01  -9.85647261e-01
  -1.07317358e-01  -1.29262328e+00   3.63442302e-02   8.16707134e-01
   7.97591209e-01  -6.24168098e-01  -1.03931224e+00  -1.93057585e+00
   1.30176938e+00  -1.36812544e+00   8.02686512e-01  -1.63648283e+00
   6.07060552e-01  -1.20781742e-01  -8.49683940e-01   9.16609049e-01
   7.24951744e-01  -8.89604509e-01  -3.43706816e-01  -4.31646913e-01
   1.64926076e+00  -8.41167212e-01   1.80234873e+00  -2.54040170e+00
  -2.61468601e+00   5.34244299e-01   1.76971447e+00   1.14091015e+00
  -2.81996131e+00   2.17269611e+00   1.73597896e+00  -4.80162770e-01
  -1.03941762e+00  -3.45445812e-01  -7.42482483e-01  -3.81915033e-01
  -1.29008758e+00  -7.71269262e-01  -1.21308362e+00  -1.76604605e+00
  -1.26042116e+00   9.72387493e-01   1.41793251e-01   3.31527233e-01
  -1.36131775e+00  -8.60282779e-01  -2.04369128e-01   1.02984607e+00
   8.23937476e-01   8.22024167e-01  -8.67674053e-01   4.68491912e-01
   4.93197739e-02   5.34725666e-01  -3.63479197e-01  -6.08631730e-01
  -1.45271337e+00   8.90885234e-01   6.39547646e-01  -6.25440836e-01
  -1.89426553e+00   2.80417919e-01  -4.20118451e-01  -1.86662817e+00
  -6.19507372e-01  -2.17865515e+00   1.65116131e-01  -8.80520821e-01
  -1.65743679e-01  -2.92787403e-01  -2.54206121e-01  -4.85787153e-01
   7.19559133e-01  -8.99459839e-01  -7.38507509e-01  -1.00918281e+00
   1.81417120e+00   2.19799805e+00   8.77361000e-01  -7.84935206e-02
   1.45881379e+00   2.39650026e-01   1.38387576e-01   2.92553037e-01
   1.62669694e+00   7.94965923e-01   1.61982521e-01  -3.73441815e-01
   1.53321564e+00  -4.61076498e-01   1.91307977e-01   1.12895496e-01
  -1.09031224e+00   1.95810676e-01  -7.72255898e-01   1.85067311e-01
   1.60304272e+00   4.34806168e-01  -1.47834465e-01  -9.95893419e-01
   3.89120847e-01   2.05894899e+00   1.20107543e+00   7.44217157e-01
  -1.89010942e+00   4.11645710e-01   1.41427949e-01  -2.83095658e-01
  -1.10201374e-01   1.88411921e-02  -4.03606504e-01  -8.68947089e-01
   5.49285948e-01   2.24470806e+00  -4.16613579e-01   1.33223367e+00
   2.42366239e-01  -1.14863884e+00   3.76872897e-01  -2.56372333e+00
  -8.08005333e-01  -1.22270954e+00   2.50838661e+00   5.04070640e-01
   2.41546273e+00  -7.36924112e-01   1.11323714e+00   4.59321052e-01
   2.26053044e-01   8.54620457e-01  -1.42804539e+00  -1.83156192e+00
  -8.49608779e-02  -1.45933330e+00  -8.20813328e-02   8.72191966e-01
  -3.54542822e-01  -9.01517391e-01  -8.71111393e-01  -7.98328161e-01
   1.22118711e+00  -8.76919925e-02   1.78850532e+00   1.90044731e-01
  -4.11766708e-01   7.03998923e-01   5.46439826e-01  -8.99322331e-01
   2.91758776e+00   3.10987353e-01   3.52536589e-01   2.34640509e-01
  -2.15341854e+00  -6.61425963e-02  -1.92903066e+00  -4.98395711e-01
  -3.64332139e-01   9.20626223e-01   9.02086914e-01   6.81639493e-01
  -2.21422002e-01   1.82034326e+00   2.49670029e-01  -2.19802594e+00
   4.89794612e-01   3.38140517e-01   1.73357159e-01   4.14657444e-02
   8.90624881e-01  -1.56146336e+00  -1.44859374e+00  -4.28778827e-01
   1.18872762e+00  -1.33607662e+00   3.28581870e-01  -1.65551281e+00
   5.06414354e-01   5.71520507e-01  -8.53464961e-01  -1.49168289e+00
   4.83855069e-01  -8.51109385e-01  -1.14929366e+00  -1.46071196e+00
   2.78447062e-01  -1.62938976e+00   8.99503350e-01  -6.60826504e-01
   6.40685856e-01  -8.17082897e-02  -4.33806270e-01   6.77968681e-01
  -3.28834563e-01  -5.31420827e-01  -1.15186977e+00  -4.89555031e-01
  -7.30176717e-02   9.39549923e-01  -2.13709593e-01   2.79390235e-02
   6.72183692e-01  -1.21535718e+00  -4.63912845e-01   1.35585809e+00
   2.43026972e-01  -1.85071266e+00   5.18448770e-01   4.61090773e-01
   1.11911595e+00  -8.88086855e-01   6.86426103e-01   5.88987172e-01
   9.08909068e-02  -2.77444031e-02  -6.96796834e-01  -1.58341670e+00
   7.41676390e-01  -7.80099988e-01   1.65195718e-01  -4.46084529e-01
   1.14251085e-01  -9.69003737e-01  -8.08135122e-02  -1.42069876e+00
  -2.68013805e-01   1.80423170e-01  -1.13566375e+00   3.09813231e-01
   1.58207142e+00  -5.46647072e-01   1.13630079e-01  -7.59064376e-01
  -4.30658638e-01   2.06580305e+00  -1.10460842e+00  -4.10188228e-01
  -1.02708787e-01   1.03124034e+00  -3.04449707e-01  -1.43306887e+00
   1.37443233e+00   8.85775506e-01  -2.35910162e-01   8.52310479e-01
   2.05340371e-01  -9.72838640e-01   4.23377991e-01  -4.42688584e-01
  -2.06875429e-01  -1.13828003e+00   1.81421006e+00   8.80886376e-01
  -1.33575499e+00   5.16373813e-01   3.66139472e-01  -6.94805145e-01
   1.99081004e+00  -3.11994791e-01  -3.60472351e-01  -1.20308423e+00
  -6.91431820e-01   1.37493706e+00  -5.06195724e-02  -1.55815649e+00
   1.66673732e+00   4.85226840e-01   3.67244035e-01   7.32147574e-01
  -2.00979814e-01   1.11241865e+00  -1.77298784e+00  -7.43220627e-01
   5.64658821e-01  -2.95746922e-01  -3.78331155e-01  -3.95329222e-02
  -7.54360735e-01   2.80469036e+00  -5.20667315e-01  -1.04712453e-02
   3.47340107e-01   1.01928508e+00  -1.35923851e+00   2.45828386e-02
   8.81002963e-01  -1.19596350e+00   3.57795477e-01  -5.47166467e-01
   1.17287290e+00   7.09737539e-01   1.74814150e-01  -1.97472647e-01
   7.56971478e-01   1.17104089e+00   1.39108479e-01  -4.44290727e-01
  -2.27229834e-01  -5.54217100e-01  -7.51956880e-01  -4.36756700e-01
   1.12927668e-01  -2.60523736e-01  -3.33326966e-01  -1.86389700e-01
  -3.44526738e-01  -1.15990770e+00   6.03995383e-01  -2.12453753e-02
   8.21846545e-01  -6.80410504e-01   4.05252576e-01   1.75212920e+00
  -4.33997482e-01  -1.64976925e-01  -1.94980979e+00   2.09914986e-02
  -5.51571012e-01  -5.22947192e-01  -7.65316904e-01   2.18504429e+00
   8.28829315e-03   3.85549277e-01   2.41480112e+00   3.36368620e-01
   2.55254686e-01  -6.29102170e-01   4.78174090e-01  -4.88572955e-01
  -5.16202927e-01  -5.21906614e-01  -6.98539317e-01   3.23551583e+00
   2.55120784e-01   7.93438613e-01  -2.83465296e-01  -6.52582049e-01
  -9.70667452e-02  -1.46868241e+00  -1.08423376e+00   9.06873763e-01
   5.41753769e-01  -1.83259714e+00   1.96600938e+00   3.40764791e-01
  -1.56588361e-01  -5.07616162e-01  -1.70147264e+00   3.49902391e-01
  -7.62253940e-01   1.00907519e-01  -5.06794229e-02   6.72648251e-01
   2.49134943e-01   1.49180532e+00  -1.77321100e+00  -3.83422613e-01
   2.22848725e+00   8.97599757e-01  -1.33113062e+00   2.45776743e-01
  -8.70646298e-01  -6.94830656e-01  -3.40739302e-02  -1.49271870e+00
  -1.02972716e-01   6.05244078e-02   1.01076877e-02  -2.52552450e-01
   8.62695393e-04   8.63103330e-01  -1.00107145e+00  -1.61446989e+00
  -5.60902596e-01  -2.32090965e-01   7.33324230e-01  -8.72951508e-01
  -4.49434102e-01   1.00192750e+00  -2.46387750e-01  -3.47093374e-01
  -8.24703634e-01   4.33534920e-01   8.37474167e-01   1.95953548e-01
  -8.90282094e-01   8.74911070e-01   5.24340987e-01   1.25290859e+00
   1.14728045e+00   1.46720958e+00  -1.14718604e+00  -9.74945068e-01
  -1.60693300e+00   2.05743968e-01  -2.26951981e+00   4.01629120e-01
   5.56636453e-01   7.01334119e-01  -4.13516462e-01   1.10560358e+00
   3.04186344e-01  -1.14164424e+00   6.45184219e-01   2.70326436e-01
   3.03319216e-01  -4.43448424e-01   4.03638899e-01  -1.30090845e+00
   1.44368395e-01  -2.40612864e-01  -4.20121223e-01  -2.92547733e-01
   5.30569814e-03  -7.74037391e-02   7.72580564e-01  -1.14466345e+00
   2.36333418e+00   1.82077074e+00  -5.57377219e-01   3.35902542e-01
  -2.09557581e+00   6.73852444e-01  -5.42842984e-01  -1.07114184e+00
  -1.94084907e+00  -1.07277560e+00  -1.25952363e+00   1.10713887e+00
  -1.39608002e+00  -1.41413033e+00  -4.62313473e-01   9.18430567e-01
  -1.09903383e+00   4.62251782e-01  -4.77003187e-01  -4.11302090e-01
  -7.21307218e-01  -8.32032919e-01  -4.88724113e-01   1.43519402e+00
  -1.76008642e+00  -6.38761044e-01   7.09757864e-01   6.89040482e-01
  -1.56655574e+00   1.57322669e+00  -5.45818508e-01  -1.74789175e-01
  -1.32220840e+00   1.19814038e+00   1.48466825e+00   3.31407636e-01
   3.88296813e-01  -4.91002023e-01  -2.55460411e-01   1.05631006e+00
   5.07621646e-01   4.59941179e-01   9.60323095e-01   1.55743468e+00
  -5.01666963e-01  -2.10293427e-01   2.44976610e-01   1.26846588e+00
  -7.92963803e-02  -2.00609660e+00  -1.18013990e+00   1.75327718e+00
  -2.18170449e-01   5.66824019e-01  -1.47457731e+00   3.46175623e+00
   2.62959003e-01  -8.01174283e-01   1.68497670e+00   6.42351329e-01
  -3.47232133e-01  -1.13464653e+00  -4.12421674e-01   9.98401165e-01
  -3.16660225e-01   7.25360811e-01   7.33760595e-02   2.63183624e-01
  -7.58865118e-01  -1.54162049e+00   1.71248138e+00   7.56631851e-01
   2.41048019e-02   4.12783206e-01  -2.67267483e-03  -3.51405174e-01
   9.27219726e-03  -6.32673562e-01  -4.15282696e-01  -6.16144657e-01
  -3.85512024e-01   8.89428258e-01   1.06349695e+00   1.51874864e+00
   6.44296229e-01  -1.19336352e-01   2.01732564e+00   1.21357843e-01
  -1.20373416e+00   4.00188297e-01   1.46700472e-01  -3.92805606e-01
  -4.35046405e-01  -1.06838077e-01   1.18442845e+00   1.60671193e-02
   1.05847609e+00   1.74724746e+00   7.80583739e-01   3.47760320e-01
  -1.23358476e+00  -6.32598400e-01   1.33581370e-01  -1.65863499e-01
  -4.63610739e-01   1.83371437e+00  -1.52869654e+00  -9.01317656e-01
  -6.05094135e-01   6.88696146e-01  -5.31639695e-01  -3.34025800e-01
   6.50347412e-01  -5.54558992e-01  -4.19968128e-01  -5.27526855e-01
  -7.64964998e-01   1.22595954e+00  -1.83286980e-01   4.62936610e-01
   5.61552763e-01  -1.95445776e+00  -1.46799994e+00  -3.04130703e-01
  -3.33813041e-01  -2.58662075e-01  -2.91212827e-01  -5.05581021e-01
   5.59332907e-01   2.61780143e-01   7.38750160e-01  -1.20478785e+00
  -1.23410535e+00  -1.26298472e-01   6.27771258e-01   5.90337850e-02
  -1.84323180e+00   2.89420784e-01  -2.06646204e+00  -1.42844808e+00
  -2.56504774e-01   2.55516022e-01   1.35226452e+00  -3.88813049e-01
  -6.63800836e-01   3.02475154e-01  -9.19101894e-01   2.32576728e-01
  -2.08251858e+00   8.40524316e-01   5.77006757e-01  -3.25711876e-01
   4.34233785e-01  -1.17673802e+00  -2.88499981e-01   1.21437572e-01
  -1.71387255e-01  -7.99496174e-01   4.57282275e-01  -1.96219718e+00
  -6.91879332e-01  -1.48640263e+00  -9.25022900e-01  -3.52821559e-01
   5.40560603e-01   9.67194438e-01   1.22374818e-01  -2.02649546e+00
  -1.86900079e+00   4.12501134e-02   7.31207550e-01  -9.38436925e-01
   1.54875553e+00   1.10852405e-01  -6.40461817e-02   2.57933885e-01
   6.28319800e-01   1.25962734e+00  -1.25008810e+00  -1.94512665e-01
  -1.54298556e+00  -1.39209831e+00  -5.20148695e-01  -3.42954576e-01
   5.10082603e-01   1.20195127e+00   1.93790361e-01   9.97996807e-01
  -8.16677570e-01  -1.64492890e-01  -7.93698490e-01  -5.07388234e-01
   1.17506838e+00  -8.69133651e-01   1.94563377e+00  -2.13189274e-01
  -1.26816034e+00   5.90358138e-01   5.77429295e-01   2.16179639e-01
   7.17713088e-02   9.18842137e-01  -1.23344302e+00  -1.50911048e-01
   1.55504525e-01  -1.17332824e-01   1.44998550e-01  -1.03731132e+00
  -3.17146540e-01   1.02731019e-01   4.38619591e-02   1.37644482e+00
  -2.29359642e-02   1.29115954e-01   2.08688647e-01   2.55131841e+00
  -7.04105854e-01  -4.24687505e-01   2.14728498e+00  -1.37549698e+00
  -1.65199602e+00  -1.43537366e+00   7.88025320e-01  -1.44582140e+00
  -1.39026749e+00  -7.38093734e-01  -6.32496260e-04  -1.24982083e+00
  -1.15829408e+00   1.32094398e-01   9.18963671e-01  -2.47222281e+00
  -1.71648026e+00   6.92327023e-01   1.00407851e+00  -3.39047462e-01
   1.37041056e+00   2.26720661e-01  -2.01840222e-01  -3.92937988e-01
   1.20434344e+00  -3.69228810e-01  -3.96883905e-01  -3.17649208e-02
   7.53472805e-01   2.86396503e-01  -1.15734637e+00  -8.19315910e-01
  -1.68641591e+00  -4.52593535e-01   8.53791714e-01   3.79540473e-02
   1.24529159e+00   2.58173645e-01  -1.15560007e+00  -5.28028905e-01
  -1.75110376e+00   1.27789259e-01   1.68141931e-01   6.26110554e-01
  -2.04133701e+00   1.38264704e+00   8.16973746e-01   3.83515686e-01
   8.59038174e-01  -7.88327575e-01  -1.30244315e+00  -1.37068674e-01
   1.49328983e+00  -3.37677908e+00   1.30637586e-01   1.58453083e+00
   6.64687008e-02   1.05896425e+00  -1.13614357e+00  -1.76130593e-01
  -2.00699282e+00   8.30676258e-01   8.99712861e-01   2.53857393e-02
  -9.15272295e-01   3.41988325e-01  -4.16752957e-02  -7.26687955e-03
   1.29247701e+00  -7.45381474e-01   1.03484893e+00  -6.25553787e-01
   9.29507136e-01   2.00303853e-01   1.84709764e+00   1.31841004e+00
  -5.84475100e-01   1.12651028e-01   7.57379770e-01  -6.65470660e-01
   4.64313298e-01   3.18688862e-02  -8.98197174e-01  -5.59518218e-01
   8.65405023e-01  -4.92836684e-01  -2.34730437e-01   2.23209763e+00
  -1.68753490e-01   4.14190650e-01  -3.47602397e-01  -3.08174300e+00
   1.13971233e+00   1.03729999e+00  -5.13116419e-01   1.05429161e+00
  -3.81183892e-01   1.27115166e+00   2.44591475e-01  -8.38703394e-01
   3.08750963e+00   4.51812744e-01  -1.04641378e-01  -3.98978978e-01
  -1.35681212e+00  -1.97972625e-01  -8.05796012e-02   1.39432144e+00
   1.06134582e+00   1.70250726e+00  -3.47796082e-01   1.46056747e+00
  -5.07682681e-01   5.42189121e-01   1.66634345e+00   1.60834205e+00
   3.07438970e-01  -7.73051918e-01  -2.54443794e-01   8.59168351e-01
  -4.32397455e-01   1.06453347e+00   3.76230925e-01   1.14386487e+00
  -8.10446024e-01   2.97042370e-01   1.02731621e+00   1.33066070e+00
  -3.50319505e-01   1.38263917e+00  -2.41332158e-01   9.27359521e-01
   9.37168777e-01  -4.77791280e-01   1.27001822e+00   1.09434474e+00
   2.55428348e-02  -1.44494295e-01  -7.26374090e-01  -1.59865415e+00
   7.36228585e-01   1.41258979e+00  -8.94149244e-01  -2.47781187e-01
   2.19811511e+00  -1.15663409e+00   5.07074296e-01   9.36600566e-01
   3.80687654e-01   3.62527929e-02   1.39175260e+00  -2.36400080e+00
   1.77213654e-01  -1.68113446e+00  -8.10600698e-01   4.32010800e-01
   2.29705906e+00  -8.63892317e-01  -2.39660367e-01  -5.08943379e-01
  -9.45356488e-01  -2.09230945e-01   3.48606944e-01  -9.37044621e-01
  -8.66471469e-01   2.96940565e-01   1.25585115e+00   1.20382845e+00
  -1.88376352e-01   4.91170496e-01   1.91559112e+00   9.56547618e-01
  -7.04867244e-01   1.88312340e+00   4.14758772e-01   6.63436830e-01
  -8.99555087e-01  -2.18507648e-01  -8.70461106e-01   1.97724625e-01
   7.54182339e-01  -8.31335485e-02  -2.91830420e+00   3.34713936e-01
   7.55485237e-01   1.58787978e+00  -2.08971620e+00   4.10928242e-02
   5.00361323e-01  -8.25815916e-01   4.90729451e-01   1.73247755e+00
  -5.25088549e-01   3.59591573e-01   8.11334729e-01   6.11790597e-01
  -2.87329495e-01   6.28175437e-01  -1.90181470e+00  -6.64195836e-01
  -1.71161401e+00  -2.68243581e-01   1.34919286e-01  -5.69772243e-01
   1.41965282e+00   1.04857647e+00   9.23877954e-01  -1.65322614e+00
  -6.05674386e-01  -5.38118005e-01   6.41316831e-01  -1.27610743e+00
   3.34542654e-02  -4.79960963e-02   4.82378155e-01   4.51515943e-01
   9.73121583e-01   1.33424008e+00  -1.14984238e+00  -1.58954442e+00
  -8.37767363e-01   1.19993782e+00  -3.73301178e-01   1.27737117e+00
   2.67782032e-01  -9.62743223e-01   1.35660446e+00  -4.71410006e-01
  -5.20174026e-01  -8.73373628e-01  -4.05102581e-01   8.82807851e-01
  -3.08323801e-01  -1.75968647e+00   2.43720964e-01   1.66481093e-01
   1.47935557e+00   1.79342544e+00  -3.09937000e-01  -2.53443062e-01
  -8.76564741e-01   7.21569538e-01  -6.22709155e-01   9.05712426e-01
   2.34457567e-01  -1.14395328e-01   8.12727630e-01   2.13164285e-01
   9.43971455e-01  -5.18940926e-01   5.58289528e-01  -1.23526543e-01
  -1.24159408e+00  -2.80384034e-01   1.85239196e+00   1.19088197e+00
  -1.80249119e+00   2.28398061e+00   2.96130478e-01   3.34190503e-02
   1.54360598e-02  -2.83839196e-01  -6.77904606e-01   7.29323685e-01
  -5.75547040e-01   7.48379648e-01   8.30283284e-01  -2.04078004e-01
  -1.12092006e+00  -7.30498135e-01  -6.08725011e-01   3.35331708e-01
   9.59194899e-02  -6.24377429e-01   7.31997311e-01  -6.58138931e-01
  -2.85410464e-01   6.24775112e-01   9.62201133e-02   9.24959332e-02
  -1.70712382e-01  -1.52627468e+00   7.03668296e-01  -8.28320861e-01
   1.08471251e+00   4.07138318e-01  -7.85300672e-01  -1.74020797e-01
  -1.85334921e-01  -6.64959490e-01   2.58680314e-01   1.12288082e+00
   6.42306447e-01  -1.13464558e+00  -5.17169416e-01   6.31521761e-01
   9.83860373e-01   2.28505850e+00  -1.08452106e+00   8.52362812e-01
   4.55943733e-01  -1.98166549e-01  -2.35023603e-01   5.87665617e-01
  -1.85574925e+00   1.25199223e+00   1.92600274e+00   1.67501020e+00
  -2.51136398e+00  -6.92141950e-01   2.36022377e+00   1.07710242e+00
  -1.25061440e+00  -1.04762942e-01  -1.72579753e+00   2.55120897e+00
   7.46676803e-01  -6.72056437e-01   7.80811965e-01   1.41750216e+00
  -2.20304027e-01  -3.15125251e+00  -1.90822887e+00   5.09838462e-01
  -4.23280954e-01  -1.27636218e+00   1.45891905e+00   1.03455257e+00
  -5.98399699e-01  -7.53712833e-01  -7.22626865e-01  -1.06413209e+00
   2.24345490e-01  -6.84493780e-01   6.42707884e-01   3.35335791e-01
  -5.70771277e-01   4.52267647e-01  -1.02470720e+00   2.41158456e-01
  -1.29753441e-01  -4.26094718e-02   9.62998807e-01  -4.72410917e-01]
