[[[[  7.52788424e-01  -1.06110644e+00   7.83610404e-01  -2.34444752e-01
     -8.69922638e-01   2.60898679e-01   7.26083219e-01   5.59646487e-01
     -3.76444459e-01   1.03324831e+00   1.75473496e-01   3.76635455e-02
     -1.30289412e+00  -1.36797166e+00  -1.61821699e+00  -1.65399480e+00
     -2.59667113e-02  -1.80798542e+00   2.85746753e-01  -1.58754721e-01
      7.39735663e-01   2.09601223e-01   3.42313826e-01  -9.02237356e-01
      8.16229701e-01   7.87739933e-01  -1.08150446e+00  -3.89376909e-01
      6.22957766e-01   3.19309950e+00  -2.18926504e-01  -8.92067134e-01
     -8.46508980e-01   8.80214036e-01   9.80898917e-01   1.10756135e+00
     -1.81613535e-01  -4.56303328e-01   5.58764219e-01  -8.19122136e-01
      8.04889500e-01   7.49907672e-01   1.19947600e+00   9.88864660e-01
     -1.43075216e+00   2.41067123e+00  -4.90750223e-02   9.35023248e-01
      7.20034003e-01   3.46873134e-01   4.61980641e-01  -3.70105356e-02
      8.78846720e-02  -1.45009172e+00   6.78503215e-02  -1.99114752e+00
      8.11290324e-01  -4.36116040e-01   1.51244307e+00  -2.77428722e+00
     -1.47604346e+00  -4.78558719e-01  -1.12405926e-01   9.27395001e-02]
   [  2.72538036e-01   9.62737739e-01   7.99199641e-01   8.20950925e-01
     -8.30640912e-01  -3.85675550e-01  -3.13426435e-01   7.53327966e-01
      8.65662336e-01  -2.03212097e-01  -1.02769172e+00  -5.02156079e-01
      1.39056373e+00  -1.99201226e-01  -3.77180278e-01  -8.28712583e-01
      1.12772048e-01   1.98737895e+00  -2.29986906e+00   1.40861249e+00
      1.14657140e+00   1.28308606e+00  -4.91472274e-01  -1.89920390e+00
     -1.55428600e+00   1.57626915e+00   3.12151462e-01   5.91455698e-01
      6.20678723e-01  -1.51019558e-01   4.20618683e-01  -9.57928300e-01
      7.25048125e-01   2.68320471e-01   4.41224813e-01  -7.46488988e-01
     -4.98323172e-01  -5.42309940e-01   1.43741119e+00  -7.22356915e-01
      4.35417034e-02  -5.78998983e-01   7.19590247e-01   9.33552682e-01
     -2.09886774e-01  -1.31408823e+00   8.24575841e-01  -2.97086015e-02
     -8.09659898e-01  -4.75671649e-01   3.75611693e-01   9.54191506e-01
     -4.18953776e-01  -6.86174393e-01  -1.11487865e+00   1.19686818e+00
      1.51452601e-01  -2.54596137e-02   5.80927491e-01  -8.45158637e-01
     -1.03485298e+00   3.23493242e-01  -7.38459587e-01   6.20743155e-01]
   [  2.13279426e-01  -1.42637682e+00   1.78453064e+00  -7.76640832e-01
     -2.69100726e-01  -8.21251795e-02   6.11103326e-02   5.72374880e-01
     -1.43675792e+00   3.43277566e-02  -1.01886117e+00  -5.13104871e-02
      6.60115838e-01   1.57859194e+00   2.41544914e+00   8.75216186e-01
     -6.45824611e-01  -1.11654437e+00   1.66137290e+00  -3.42326105e-01
      1.53183699e+00  -7.29094505e-01   1.47504854e+00  -3.39820862e-01
     -1.32058239e+00   1.13978080e-01  -5.22548914e-01   1.85189629e+00
      8.41944396e-01   9.75992441e-01   8.34224105e-01  -9.43286061e-01
      6.09123290e-01  -3.30283046e-02   2.42499277e-01   8.99180055e-01
      6.97717369e-01  -2.35024124e-01  -1.82784438e+00   1.72353733e+00
      1.62595439e+00  -4.29239916e-03   3.73067617e-01   9.91691053e-01
     -1.22197676e+00   2.07614923e+00  -2.06895614e+00   4.51306134e-01
      8.47515225e-01   2.73189873e-01  -1.32859752e-01  -4.43014264e-01
     -1.51246476e+00   3.62696975e-01  -9.29986775e-01   1.89043868e+00
     -2.19765246e-01   7.57108212e-01   2.03915425e-02   3.30490112e-01
     -1.80049598e-01   5.26659966e-01   7.32358932e-01   6.35310709e-01]
   [ -4.52190280e-01   4.62844878e-01  -9.35851261e-02   4.30085689e-01
      5.07894158e-01   1.23739004e+00  -1.72382736e+00  -9.01135802e-01
      1.75048590e+00  -6.90912247e-01  -2.88195103e-01  -1.16910493e+00
     -5.24863340e-02   4.62288380e-01   4.16599512e-01   1.21586144e+00
      5.32193720e-01  -8.78196284e-02   4.44205642e-01   3.86469334e-01
     -5.08334264e-02   1.42181194e+00  -4.68819916e-01  -1.57650873e-01
     -1.65048516e+00  -2.38051146e-01  -2.71939605e-01  -4.03771490e-01
      4.39946681e-01  -7.34854862e-02   7.71340609e-01   9.16516185e-02
     -2.19525576e+00   5.30691445e-01   4.29987729e-01  -4.04580623e-01
      1.36328125e+00  -1.23906362e+00   9.73518610e-01  -1.34254539e+00
      8.95577550e-01  -3.55918217e+00  -4.40025657e-01  -3.88351470e-01
      4.16215539e-01   1.39703381e+00   7.85962880e-01   1.21677625e+00
     -2.70540237e-01   1.26778567e+00  -7.10368931e-01  -4.68722820e-01
      9.57230806e-01  -6.24345660e-01   1.94027662e+00  -1.30925596e-01
     -1.03496611e+00   1.26506793e+00   5.83843291e-01  -3.78016144e-01
     -1.91605175e+00  -2.19900087e-01   3.21569175e-01  -9.44584846e-01]
   [ -9.79834974e-01  -1.51542857e-01   2.04247117e-01  -1.80137083e-01
      6.82990789e-01   1.35789645e+00  -1.15103209e+00  -1.03465939e+00
      2.40408123e-01   2.26148963e+00  -5.94824493e-01  -6.17510676e-01
     -1.75111648e-02  -2.40744829e+00  -6.28332555e-01   3.25196356e-01
     -3.25893879e-01  -4.50194776e-01  -1.82334870e-01   1.18608665e+00
     -1.39612883e-01  -1.32978332e+00   6.90936148e-01   1.49344411e-02
     -1.37604225e+00   3.80110472e-01   1.10031307e+00   1.51807451e+00
      1.07955754e+00  -1.93742239e+00  -1.27719724e+00  -1.27965617e+00
      3.07434440e-01  -7.98939407e-01  -1.38983440e+00   2.00147963e+00
      7.21122324e-01  -9.21262503e-01   1.81799304e+00   1.17962050e+00
     -4.53665793e-01   2.47200394e+00  -1.55915368e+00   4.64660496e-01
     -1.54728413e+00   4.04843718e-01   1.58774829e+00   9.54361260e-01
     -1.95155829e-01   9.69722196e-02   1.13653231e+00  -2.48853505e-01
      8.97458375e-01  -1.32943678e+00  -2.87932009e-01   1.58684742e+00
      5.42324483e-01   8.91668200e-02   8.83442998e-01   9.34645176e-01
      6.30340934e-01   3.57009381e-01   1.24562144e+00  -3.93084258e-01]
   [ -9.40377533e-01  -4.86018151e-01  -1.36990523e+00   1.11317730e+00
      6.54439509e-01  -2.12998867e+00  -1.07395613e+00   3.51835489e-02
     -5.75236976e-01  -7.72597566e-02   7.14270234e-01  -1.30556822e+00
      3.80986035e-01  -7.36695409e-01   9.60532248e-01   2.22589231e+00
     -2.58367157e+00  -8.98041844e-01   2.58226305e-01  -9.91585553e-02
      1.06686139e+00  -1.87129962e+00   1.01399265e-01   5.37974350e-02
      6.25421524e-01  -6.44750357e-01  -4.25179861e-02   3.91170859e-01
     -3.74126047e-01  -9.10580099e-01  -6.38480783e-01  -8.22985098e-02
      1.16030562e+00  -6.00212552e-02  -7.36580133e-01   2.55201012e-01
      3.22299570e-01   1.16447628e+00  -1.77797675e-01  -1.93015623e+00
      3.75099480e-01  -2.61337250e-01  -1.64581156e+00   3.75365704e-01
     -3.08569968e-01   1.96264350e+00   3.75319012e-02   6.97298110e-01
     -4.53700155e-01   8.09849381e-01  -1.34970224e+00  -5.80207482e-02
     -1.09118271e+00  -6.77521527e-01  -1.10862434e+00  -1.16743481e+00
      1.26584768e-01   7.67948925e-01  -3.58796924e-01   3.26751053e-01
     -2.56636202e-01  -9.94090065e-02  -2.27982903e+00  -1.35735524e+00]
   [ -4.41227645e-01   1.26561332e+00   1.94572598e-01  -1.20667434e+00
     -1.26645076e+00  -2.75434971e+00  -1.92025676e-01  -8.00353289e-01
      7.74373531e-01  -9.49476838e-01   5.19517303e-01  -2.17557549e+00
      6.19751573e-01  -7.82303512e-01   1.63688350e+00   4.46046412e-01
     -3.28443684e-02   8.31788599e-01   1.15501070e+00  -2.29541206e+00
     -5.65092206e-01   1.17409837e+00  -1.37719941e+00   9.98429716e-01
      4.69773531e-01  -2.65400618e-01  -1.41385782e+00   4.78478014e-01
      2.57159650e-01   3.47611785e-01  -6.38986379e-02   1.82074714e+00
     -7.30214298e-01   6.81167841e-02   2.35826075e-02  -1.73375797e+00
      1.21170318e+00   2.05333853e+00  -4.43005860e-01   1.19000740e-01
      5.59955053e-02   1.76369920e-01  -1.23029447e+00  -8.25394750e-01
     -4.63338554e-01  -1.47114247e-01  -8.00888091e-02  -2.79754102e-01
     -7.21191615e-02  -1.46038568e+00   9.33593586e-02  -8.67969632e-01
     -8.14391375e-02   4.81785685e-02   8.80415559e-01   1.17781854e+00
      7.81219244e-01  -3.68195862e-01  -1.42982757e+00   3.55959207e-01
     -8.30832198e-02   1.79939628e-01  -5.74886441e-01  -1.24642685e-01]
   [ -8.34132969e-01  -1.31778693e+00   4.57812488e-01  -1.32579231e+00
      6.68146014e-01   6.00252748e-01  -1.51067066e+00   3.90512682e-02
      9.61532116e-01  -1.07323304e-01  -1.71440855e-01  -9.82475340e-01
      3.94344389e-01   2.55295515e-01  -1.06745374e+00  -7.68888533e-01
     -1.28222835e+00   1.05851376e+00   1.79180622e-01   3.57535422e-01
     -5.96701443e-01  -7.26070344e-01  -1.82305515e-01  -3.63779396e-01
     -2.24785715e-01   6.48343265e-01   4.47990298e-01   1.03530097e+00
      1.31860209e+00   6.65995836e-01   7.58605480e-01  -3.65246594e-01
      6.59348071e-01   1.44086528e+00  -1.19092321e+00  -3.24985117e-01
     -1.09345126e+00   1.27230084e+00   2.29350042e+00  -1.89524561e-01
     -8.03021252e-01  -7.04025328e-01   1.03510010e+00  -4.39333975e-01
      5.49053371e-01  -8.16651464e-01   3.33618551e-01  -8.57769310e-01
      3.64704132e-01  -1.92253128e-01   1.89508989e-01   8.50049794e-01
      2.82139570e-01  -1.86448425e-01  -5.74918151e-01  -1.48466781e-01
      2.01422071e+00   1.44052446e+00  -3.79784405e-01   9.58900724e-04
     -1.48412168e+00  -2.83516550e+00  -8.87615442e-01  -1.11567307e+00]
   [ -1.13654332e-02  -3.78714412e-01  -9.78800952e-01   1.53160319e-01
      3.11419576e-01  -2.00044489e+00   1.11090052e+00   5.64470708e-01
     -5.63706517e-01  -1.16039479e+00   5.64353764e-01   9.05056477e-01
     -5.76105654e-01  -5.87344244e-02  -1.77138615e+00   1.16031873e+00
     -1.81981221e-01   4.94002730e-01  -3.22616369e-01   4.31975961e-01
     -4.63356495e-01  -2.19845271e+00  -2.08675146e+00  -1.81493193e-01
      2.27209732e-01  -1.93376571e-01  -7.27038145e-01  -1.77313581e-01
     -5.21282792e-01  -2.52424210e-01  -1.99159801e+00   2.78897786e+00
     -1.20593190e-01  -1.00974560e+00  -1.61519095e-01  -5.87106764e-01
      2.48131201e-01  -6.34154677e-02  -1.08662236e+00   4.70394254e-01
      4.66865271e-01   5.73123991e-01   1.72944117e+00  -1.83589900e+00
      4.03028071e-01   1.25544834e+00   5.00002354e-02  -4.36808407e-01
      1.00875819e+00   1.14512336e+00   1.80995151e-01  -1.26794589e+00
      3.24060112e-01   5.08020937e-01   7.35617161e-01  -1.61052299e+00
      8.51079941e-01  -4.48957205e-01   2.43053243e-01   4.02127206e-03
     -9.83167768e-01  -1.58953321e+00   1.97988927e+00   1.55283064e-01]
   [ -1.93677247e-01   6.70481443e-01  -1.30434990e-01   8.38675439e-01
     -3.26270789e-01  -2.15484548e+00   2.21328259e+00   3.33685935e-01
     -4.21689391e-01  -3.47590357e-01  -2.69697547e+00   1.15337658e+00
     -7.67531574e-01   4.29375380e-01   7.32140303e-01   8.29853714e-01
     -6.75480589e-02   1.74134946e+00   5.54063737e-01  -9.35416222e-02
      1.20961499e+00   1.57099199e+00  -1.50338149e+00   5.08808792e-01
     -1.59349513e+00  -5.04583381e-02   9.60120380e-01   4.26160485e-01
     -9.29944038e-01  -4.64193560e-02  -9.45179105e-01   6.24947011e-01
      1.55793443e-01  -1.72642505e+00   4.17068988e-01   1.01151502e+00
     -4.45665389e-01   5.83919324e-02   2.56382953e-02  -1.14367343e-01
     -3.54283065e-01  -4.73041832e-01  -3.43765450e+00   2.62203127e-01
     -1.14157295e+00   5.77143908e-01   9.25940797e-02  -1.21316338e+00
     -7.20960379e-01  -1.59051031e-01   3.75981778e-01   8.67758319e-03
      5.54545045e-01   4.06478137e-01   4.53587443e-01   6.12789154e-01
      8.60342503e-01   5.89801133e-01   8.16266119e-01  -8.06717515e-01
     -8.83130848e-01  -1.77208975e-01  -1.65007520e+00  -2.45558214e+00]
   [ -1.39147669e-01   1.08401489e+00   5.02881587e-01   1.61098325e+00
      6.53559923e-01   2.53052950e+00   5.36908954e-03  -2.18398988e-01
      5.80467463e-01  -8.29412580e-01  -7.22308978e-02  -1.02015162e+00
     -1.77437449e+00   2.47690186e-01   2.86020947e+00   3.43871474e-01
     -9.19592857e-01   2.06784401e-02  -6.41614854e-01   1.50239015e+00
      7.91518241e-02  -1.02947783e+00  -1.44869947e+00  -1.04863949e-01
      1.21782506e+00   1.80648935e+00  -4.54130620e-01   2.49538398e+00
      4.19708043e-01  -3.26063067e-01  -1.03962088e+00   1.61976743e+00
     -1.03980446e+00   5.16511619e-01  -2.30469927e-01   1.25864521e-01
     -1.28475055e-01   1.10689116e+00   3.05126995e-01   1.03459179e+00
      1.25825286e+00   1.98562071e-01   1.45288599e+00  -8.90940428e-02
      5.11774302e-01  -1.22607303e+00   6.31364435e-02   1.13206768e+00
     -1.82883608e+00  -1.31693375e+00  -1.46831429e+00   1.10661888e+00
      1.97986335e-01   4.68681127e-01   1.11742520e+00   1.31000817e-01
     -7.20544159e-01   1.78374186e-01   1.06421697e+00   1.81300744e-01
      4.18490916e-01   1.84474695e+00   8.94367218e-01   7.97706425e-01]
   [  1.35957217e+00  -4.63066667e-01  -1.32954788e+00   1.37083077e+00
      5.84708273e-01  -1.44308507e-01  -1.26056516e+00   8.01436245e-01
     -6.79510415e-01  -8.33217323e-01  -6.09033406e-01   7.03579962e-01
     -9.74160135e-02   4.47759807e-01   1.69606432e-02  -2.43093427e-02
     -1.08517575e+00  -4.12922680e-01   4.21484798e-01  -1.05590656e-01
      1.11495352e+00  -1.67277217e-01   2.09436011e+00  -6.54834211e-02
      7.60389268e-01  -3.75269234e-01  -7.92656720e-01   9.78830814e-01
      4.63399678e-01  -6.25681520e-01  -8.45028162e-01   5.93006134e-01
     -4.80897546e-01   8.16311240e-01  -1.87052476e+00  -1.51637018e-01
      2.44096562e-01   1.15459330e-01  -1.45023480e-01  -8.68129015e-01
      1.21161006e-01   7.99025953e-01  -6.48200035e-01   3.65519494e-01
      7.66582042e-03  -1.21519387e-01  -1.31249583e+00   8.18535805e-01
     -4.51225460e-01   1.30904078e-01  -1.74925184e+00   6.77568913e-01
     -2.19799376e+00   1.03358483e+00   5.46292603e-01  -1.99380666e-01
     -3.43395442e-01   8.69176805e-01  -1.00561190e+00  -2.75238771e-02
      1.72023702e+00  -1.29547822e+00  -5.17214835e-01   4.93858635e-01]
   [  1.04685068e+00  -5.81666648e-01  -8.55748877e-02  -9.22088981e-01
      8.97323936e-02   1.05194604e+00  -2.36591280e-01  -1.13186431e+00
      1.12390435e+00   3.06767076e-01  -6.02929771e-01   1.69344330e+00
      7.31562823e-02  -1.38793392e-02   7.51795590e-01   5.29208243e-01
      1.50982702e+00  -3.55345702e+00   1.06443834e+00   1.84548810e-01
     -6.43070042e-01  -1.34623599e+00   3.79895478e-01   7.29484618e-01
      4.10974890e-01   1.12724411e+00  -4.58495319e-01   1.18988740e+00
      1.05476305e-01  -2.22781372e+00  -8.47044051e-01   8.88705671e-01
     -9.23048735e-01  -3.29088181e-01  -1.08942255e-01  -2.99274176e-01
     -7.69534290e-01  -1.21497166e+00  -1.83380294e+00   1.13440692e+00
      6.60459042e-01   3.69126976e-01  -1.16677332e+00  -6.10857248e-01
     -1.17030084e+00  -2.88460255e-01   3.64322484e-01   8.75144720e-01
     -1.89362958e-01   2.89356679e-01  -6.93982244e-01  -4.78669077e-01
      1.15734816e+00  -4.15179789e-01  -9.39081728e-01  -9.95942831e-01
     -3.14001560e-01   1.59409332e+00  -1.13150585e+00   1.08322704e+00
     -1.41129911e+00   1.08627629e+00  -1.15644380e-01  -8.87840390e-02]
   [  5.30512333e-01   1.64768791e+00  -1.11867391e-01  -7.03480422e-01
     -1.34649062e+00   1.61272800e+00   1.23513567e+00  -1.65903652e+00
     -8.21615160e-01   5.95334470e-01  -1.43258739e+00  -6.01859391e-01
     -5.73986053e-01  -9.41030830e-02  -1.60012484e+00   2.69358866e-02
      1.22104955e+00  -4.68800575e-01   3.09234917e-01  -3.55587512e-01
     -3.80181551e-01   5.29922068e-01  -2.50970036e-01   1.82503045e+00
     -3.59621406e-01   6.56064928e-01   1.75095797e-01   1.82536662e+00
     -1.61780059e-01   3.90495181e-01  -6.45104170e-01   3.21751058e-01
      1.24609566e+00  -3.61407369e-01   3.97296786e-01   1.74480557e+00
     -1.16587567e+00   4.01277125e-01   1.73490429e+00   1.08825302e+00
     -2.12422919e+00  -1.61790237e-01   7.54530668e-01   2.05064130e+00
     -4.22391325e-01  -1.06192023e-01  -2.19712114e+00   1.16833472e+00
      3.41315985e-01  -1.05427933e+00  -2.86112338e-01  -1.26604247e+00
     -2.05235386e+00  -1.19609845e+00   1.19552207e+00   8.88635889e-02
     -1.63174593e+00   1.92011309e+00   3.56185846e-02  -7.32236743e-01
     -6.28205061e-01   1.02494657e-01  -1.17468381e+00   1.28083169e-01]
   [ -1.70456004e+00  -6.89562500e-01  -5.18844187e-01  -5.74550867e-01
     -8.82237703e-02  -5.79098344e-01   2.16931009e+00  -1.75225228e-01
      3.26269001e-01   2.24300474e-01   1.66468275e+00   1.37778068e+00
      9.19443786e-01  -5.51695406e-01   6.71326697e-01   1.16600561e+00
      1.29732299e+00   8.54774654e-01  -1.15646072e-01  -8.08240950e-01
      4.46289450e-01   7.24889874e-01  -1.22309089e+00   6.27686203e-01
     -1.02012552e-01   2.72852629e-01  -6.91681623e-01   1.34087837e+00
     -7.21485019e-01  -7.42115617e-01  -1.75505221e+00   2.40136638e-01
     -8.20922017e-01  -3.01929116e-01  -3.57653573e-02   1.53163981e+00
      1.53308168e-01   9.78009045e-01   1.30108762e+00   4.30800676e-01
      1.03869653e+00  -3.43815833e-01   1.43140936e+00  -1.01437593e+00
     -1.25176704e+00   7.06445873e-01  -1.70467138e-01  -3.92150313e-01
      2.06084102e-01  -1.00317812e+00   9.22584116e-01   5.26135206e-01
      8.32319379e-01  -1.50168836e+00   1.17389548e+00  -1.19270563e+00
     -1.72115088e+00   1.09655762e+00   8.39778721e-01   7.14079857e-01
      6.15916491e-01   1.43066382e+00   4.03322786e-01  -4.23518032e-01]
   [ -7.07677543e-01  -3.58842671e-01   4.16454487e-02   9.94718075e-02
      2.52414346e-01  -3.91056150e-01  -1.31777334e+00  -1.34825611e+00
     -1.34055102e+00   1.29768717e+00   5.89314640e-01  -9.53463674e-01
      1.16773820e+00   1.22326815e+00   1.05729043e-01  -2.08720088e-01
      8.43735933e-01   7.24336505e-01  -9.07325268e-01  -1.63102508e+00
     -3.03080976e-01  -6.71357214e-01   3.40466917e-01   8.60925689e-02
      1.32500142e-01  -1.50059986e+00  -2.02964997e+00  -1.29211426e+00
     -1.58906269e+00   2.40727037e-01  -2.31277972e-01   2.28371859e+00
     -1.16878271e+00   3.75701636e-01  -3.48603666e-01  -8.73775244e-01
     -1.78989911e+00   3.29711348e-01   1.16023064e+00   1.69406459e-01
      4.61289465e-01   6.32786155e-01  -3.97201777e-01  -1.77401721e+00
     -6.35894954e-01  -3.83126326e-02   1.39660048e+00  -1.34091318e-01
     -1.53808010e+00  -8.28936577e-01  -6.78534567e-01  -1.31502604e+00
     -1.41728151e+00  -7.04990387e-01   9.03400421e-01   1.46419930e+00
      1.88945520e+00  -2.99134433e-01   8.39462161e-01  -2.03372106e-01
      1.19235003e+00  -4.13991399e-02   2.54221678e-01  -5.45977950e-01]
   [ -2.80138642e-01  -9.84283030e-01   1.21980643e+00  -1.49255300e+00
     -3.37876022e-01  -2.98625857e-01  -1.09321213e+00  -5.27783155e-01
      7.98710465e-01   2.25124300e-01   9.88589346e-01   5.38250446e-01
     -3.80261958e-01   6.03854775e-01  -4.21318322e-01  -2.11378002e+00
     -1.45109820e+00  -1.51626551e+00   9.33936357e-01   1.46750140e+00
      4.25092459e-01   2.97912538e-01   6.03818536e-01  -6.33465424e-02
     -4.68338370e-01   8.48219931e-01   1.77615404e+00  -3.15290004e-01
      1.37937054e-01   2.66975105e-01  -6.00527585e-01   3.77288073e-01
      6.65089130e-01  -5.47536612e-01  -7.94619787e-03   1.16096222e+00
     -1.49022371e-01  -1.01217699e+00   2.42649466e-01  -1.24092054e+00
     -5.52341104e-01  -1.11758435e+00  -1.40633547e+00   3.48406732e-02
      1.44239461e+00  -7.44746998e-02   5.44392653e-02  -9.76130843e-01
      1.62156940e-01  -6.19824708e-01  -7.68134356e-01   9.64683354e-01
      1.92160949e-01  -1.30396709e-01  -4.67242777e-01  -3.31296086e-01
     -3.52468751e-02  -1.31540346e+00   4.42414373e-01   2.68490881e-01
      5.82183421e-01   1.13802314e+00  -6.99598610e-01   1.46540332e+00]
   [ -3.85018617e-01   1.41170692e+00   2.86595020e-02  -7.82927275e-02
     -9.50609624e-01   7.98182130e-01  -2.53408253e-01  -1.11047506e-01
      5.72063446e-01  -2.05787849e+00  -1.02537975e-01  -1.11528374e-01
      3.27639550e-01   3.95916969e-01   1.04455686e+00  -2.57752389e-01
     -4.46163684e-01  -2.46891797e-01   4.11971569e-01   1.20888126e+00
     -8.54121149e-01   1.46336758e+00   5.73546775e-02  -8.53008747e-01
      3.71288896e-01   3.63962591e-01  -3.69040608e-01   9.00937378e-01
      6.47737026e-01  -1.19851923e+00  -1.63178337e+00  -1.07304239e+00
     -2.38963580e+00  -1.97583422e-01   4.26189750e-02   1.44051492e+00
     -1.64453685e+00   1.08949792e+00   1.93206638e-01  -4.41951275e-01
     -3.36814427e+00  -4.35093910e-01  -1.28301859e+00  -1.24281019e-01
      9.07592177e-02   1.05034852e+00  -4.65488493e-01   1.14063370e+00
     -6.73470616e-01  -2.31554842e+00  -9.36543882e-01   1.37287891e+00
     -7.52647743e-02  -8.63814771e-01  -1.68299687e+00   4.35870796e-01
      8.82436693e-01   7.30081856e-01  -6.61893666e-01  -1.07032967e+00
     -1.95424259e+00   3.40179145e-01  -8.60743940e-01   7.13004917e-02]
   [  2.09637594e+00  -1.26761568e+00  -1.41106415e+00   6.00409657e-02
      6.29508078e-01   2.14490592e-01  -4.88332808e-01  -5.89839742e-02
     -2.60321766e-01   1.84680559e-02  -1.04660404e+00  -1.75634408e+00
     -6.99149787e-01  -1.25551328e-01   7.40781426e-01  -4.63017076e-01
     -1.10096157e-01  -1.84257746e-01  -7.15935230e-01  -3.97067517e-02
     -9.58882451e-01   5.66661835e-01   6.26615226e-01   2.56959826e-01
      1.57028258e+00   9.61204767e-01  -6.41285777e-01  -4.42788780e-01
      5.27274370e-01   6.11212313e-01  -3.59696895e-01  -2.23684803e-01
      3.44202816e-01   2.70256563e-03  -6.18714392e-01  -1.69517294e-01
     -1.15066993e+00   1.24874842e+00   5.15701175e-01   6.64716363e-01
     -1.55675185e+00  -7.01816201e-01  -4.36223388e-01  -1.98438358e+00
      2.16040397e+00   1.42068401e-01   1.00343490e+00   5.81171334e-01
      1.17276073e+00  -4.46966052e-01  -9.68933582e-01   1.11366761e+00
     -1.10068512e+00  -1.70865595e-01   1.67451411e-01  -1.07635808e+00
      9.10743594e-01  -1.29295731e+00   2.51528931e+00  -4.58083689e-01
     -8.47472131e-01   1.10585856e+00   1.24962533e+00   2.11666346e-01]
   [  1.80448055e-01  -1.57495999e+00   1.13798356e+00  -2.35327411e+00
      1.68429241e-01   3.43178958e-01   5.71310818e-01   3.78896415e-01
     -6.81234151e-02   1.06128603e-01   1.03165340e+00  -5.03659904e-01
     -1.74154735e+00  -5.29986382e-01   1.21419156e+00   2.77947545e-01
      6.33706808e-01   1.67995930e-01  -6.06111526e-01  -3.98698717e-01
     -9.83885467e-01   2.73855716e-01   1.55833408e-01  -6.26681447e-01
      7.16043174e-01  -2.46879864e+00   1.79857481e+00  -1.19376063e+00
     -5.96292138e-01   1.23432851e+00  -8.64406228e-01   3.07219177e-01
      3.10725987e-01   5.78030534e-02   6.29754484e-01   6.82643414e-01
     -5.82952142e-01  -3.78707021e-01  -7.35774934e-01   1.67387617e+00
     -1.21507406e+00  -6.24375999e-01   1.32056028e-01  -3.90516132e-01
     -5.90853095e-01  -1.58129370e+00  -3.55066434e-02   2.75276173e-02
      1.55893159e+00   9.66434479e-01  -1.18805110e+00  -2.07954955e+00
     -9.01900947e-01   3.35050523e-01   2.46610761e-01   6.02706075e-01
      7.61021614e-01  -3.78229827e-01  -4.34229702e-01  -6.02236748e-01
     -7.33054504e-02   3.97986695e-02   6.71423316e-01   2.36649692e-01]
   [  1.14392900e+00   6.90981388e-01  -5.32224253e-02  -1.77058846e-01
     -1.44384253e+00   7.98451960e-01   9.65555236e-02   1.52529216e+00
      8.51464629e-01  -4.37303066e-01   5.38408518e-01   3.87136668e-01
      3.46662812e-02   3.58503461e-02   4.25842285e-01   8.95426869e-01
      7.91024566e-01  -3.54836285e-01   2.56873369e-01  -1.60473776e+00
     -5.16899645e-01  -1.12852305e-01   6.45732343e-01   1.61427438e+00
      3.21665525e-01  -7.45245993e-01   1.32882786e+00  -2.71765649e-01
      7.42458105e-01   1.33348024e+00  -3.75168741e-01  -1.09133732e+00
     -5.46415269e-01   1.08064008e+00  -1.23892021e+00   1.17694831e+00
     -4.65321004e-01   2.40698934e+00   2.66536176e-01  -8.49150002e-01
      1.79374552e+00  -1.37299812e+00  -1.12732255e+00  -7.49134226e-03
     -5.44112384e-01   6.02120578e-01   1.81304693e+00  -5.25483131e-01
     -8.42204273e-01  -3.14446926e-01   2.02788502e-01   2.90252328e-01
      1.06871569e+00   4.49666202e-01  -1.14580572e+00   2.27930903e-01
     -1.09135103e+00  -1.30236459e+00   6.84693217e-01   2.32836747e+00
     -2.91701108e-01  -4.00076151e-01   1.18324518e-01  -1.73252881e+00]
   [  1.35322249e+00  -5.54666698e-01   1.89211273e+00   1.32133234e+00
      3.72144282e-01  -9.97366726e-01   5.58726966e-01  -8.85320067e-01
     -3.26525956e-01  -6.77101493e-01   9.05322611e-01   2.25961551e-01
     -1.04351020e+00   1.01445735e+00   6.71309352e-01  -1.56923819e+00
     -3.35474312e-01  -1.06298709e+00   2.00372958e+00   9.85818267e-01
      2.60434842e+00  -9.41674888e-01   7.50392139e-01  -4.89048928e-01
      1.39903948e-02   1.44731498e+00  -7.09336162e-01   1.94710314e-01
      5.00885963e-01   1.30796611e+00  -3.98431361e-01  -9.06751931e-01
      6.90661073e-01  -8.93450618e-01   9.63317692e-01   7.75050446e-02
     -1.45596802e+00   4.14699286e-01  -1.68224871e+00   3.52541469e-02
      2.15816319e-01   3.39852363e-01  -9.73985717e-02   3.38947207e-01
     -2.92124152e-01   2.25027045e-03   6.67621374e-01  -1.71868432e+00
     -6.28384233e-01  -7.29753971e-01   9.00495291e-01   1.30277061e+00
     -9.84973192e-01  -9.66309130e-01   7.81864285e-01   2.42148206e-01
      1.10630274e+00   1.30188751e+00   1.85984358e-01  -6.95347428e-01
      1.27482605e+00   6.68030262e-01   1.30792297e-02  -7.12294579e-01]
   [ -1.52993798e-01   8.63808572e-01  -5.99902809e-01   2.20086649e-01
     -1.06279075e+00  -4.82659578e-01  -1.34164780e-01   3.99046451e-01
     -1.51869977e+00  -1.49764013e+00  -8.38720679e-01   8.56860101e-01
     -8.53704512e-01  -7.63129592e-01   4.19230014e-01  -8.85308027e-01
      1.48347700e+00  -9.27577913e-01  -2.88699299e-01   2.54651189e+00
      1.04435988e-01   8.58068168e-01   1.10610604e+00  -7.26668760e-02
     -2.74387449e-01  -9.39850271e-01  -4.50817019e-01  -1.39296517e-01
      1.48534149e-01   1.81722000e-01  -2.51968294e-01  -1.67168736e+00
     -1.72224760e+00   7.52190292e-01   4.27531898e-01   9.43730116e-01
     -7.82185912e-01   2.55680323e-01   9.16880190e-01   1.01837373e+00
      1.23887584e-02   5.92838049e-01  -1.53044915e+00   2.47559220e-01
     -8.74311388e-01   3.65131348e-01   1.54906118e+00  -1.62889338e+00
      5.08997023e-01   1.68680978e+00  -8.99503946e-01   1.01963186e+00
      3.85771245e-01   1.26293421e+00   4.21139061e-01   6.12481773e-01
     -8.39213371e-01  -2.16899142e-01  -1.16631913e+00  -1.32423270e+00
     -3.33314747e-01   1.20074832e+00  -7.42795587e-01  -1.25709975e+00]
   [  7.09572852e-01  -8.32899213e-01   3.37158918e-01  -5.57918213e-02
      3.93642366e-01   1.50064147e+00   1.17651963e+00  -2.98784733e-01
      7.42986619e-01   9.06486273e-01  -3.85238677e-01   5.11417687e-01
      1.28374863e+00  -2.61127263e-01  -2.82404828e+00  -6.79839790e-01
     -7.74288654e-01  -2.60697341e+00  -1.19531977e+00   1.26732993e+00
      1.09305754e-01   6.93367541e-01   9.31268215e-01  -1.20267913e-01
      1.58815706e+00   6.05490804e-01  -6.79938197e-02  -1.89299333e+00
     -6.34655416e-01   4.77211595e-01  -2.68934220e-01  -7.41022229e-01
      9.01679099e-01   1.50603414e-01   3.70008528e-01  -4.25052762e-01
     -1.14509463e+00   1.22919905e+00   1.19510019e+00   2.55280554e-01
     -1.32278740e+00  -8.71367931e-01  -1.59434915e+00  -1.59942746e+00
     -4.43168372e-01  -1.23632967e+00  -8.82953584e-01   7.30858266e-01
      8.32098365e-01   1.18472748e-01   1.07179558e+00  -4.15791124e-01
     -4.91231143e-01   6.26521230e-01  -1.55729830e-01   5.92347905e-02
     -6.12618327e-01   4.27580148e-01  -7.51734555e-01   1.30144237e-02
      6.60958409e-01   1.02054320e-01   2.19938830e-01  -3.63216966e-01]
   [ -2.40773842e-01  -2.79036999e-01   8.04506421e-01   8.95174265e-01
     -1.00414741e+00   1.00976694e+00   7.55220890e-01   1.77832469e-01
     -1.12177467e+00   3.14422429e-01  -2.89913416e-01  -9.32009876e-01
      4.08963561e-01   2.15443754e+00   1.70950544e+00  -5.08479416e-01
      2.25374389e+00   3.67957979e-01   1.18866134e+00   1.52152133e+00
     -9.43780839e-01  -1.81913757e+00  -1.60507008e-01  -1.55086315e+00
     -2.90984571e-01  -2.76030432e-02   5.30781567e-01   8.18383973e-03
      6.82532966e-01  -3.78184557e-01  -9.74892154e-02  -6.33224666e-01
     -1.37195039e+00   9.53776538e-01  -4.26954687e-01  -6.17765784e-01
      6.92197144e-01  -1.51737475e+00  -1.88336456e+00  -8.81865621e-01
      3.14747423e-01   1.88407171e+00   9.35317159e-01   8.14257562e-01
      4.68367375e-02   8.92251909e-01   6.81308210e-01   1.73302305e+00
      6.48635030e-01   5.06400526e-01   1.28052843e+00  -1.10519779e+00
     -1.26890910e+00  -9.21954632e-01  -8.39759290e-01  -7.72251904e-01
     -3.82623643e-01   6.56727135e-01   5.16196430e-01   1.01486588e+00
     -1.57342970e-01  -4.92992252e-01   9.44019258e-02  -9.44531620e-01]
   [  6.02832258e-01   1.75222248e-01  -1.21545732e+00  -8.05343807e-01
      4.31173921e-01  -6.26055121e-01   5.83421230e-01  -1.77621484e+00
     -4.97837700e-02   8.97360027e-01   7.79691398e-01   5.09987473e-01
     -6.39683366e-01  -1.96172011e+00  -1.85300082e-01   2.77475834e-01
      9.28057730e-01   6.60966814e-01   1.07976604e+00  -2.02531910e+00
     -5.42952955e-01  -8.03115308e-01   5.57343721e-01  -1.21329212e+00
      7.93827772e-01   1.26428449e+00   1.74772418e+00  -2.02085567e+00
     -1.65229535e+00   7.44755626e-01  -1.05151141e+00  -5.55273473e-01
     -9.40610111e-01  -8.55081141e-01   1.63543686e-01  -9.28199351e-01
     -2.34546232e+00  -2.36138797e+00  -1.47649992e+00   4.28194135e-01
      4.13608372e-01   4.58525598e-01   6.83421552e-01  -1.42400968e+00
     -1.06626761e+00   9.07240927e-01   1.72914040e+00  -2.73029894e-01
     -7.75904581e-02   1.51199198e+00  -1.10761559e+00  -9.62496400e-01
      2.06746161e-01  -2.21945241e-01  -1.19188130e+00   5.66532135e-01
     -4.73992020e-01   9.69695628e-01  -1.47698835e-01   5.88633597e-01
     -3.66737455e-01   2.69785404e-01  -3.59225422e-01   6.88257277e-01]
   [  6.78228378e-01   1.20781744e+00   7.24508643e-01   2.15609121e+00
     -2.75411457e-01   2.72372246e-01  -1.29616642e+00   1.74446151e-01
      8.13316226e-01  -5.80886245e-01  -9.32829916e-01   3.97288978e-01
     -2.08179164e+00  -6.66740298e-01  -4.29403961e-01  -4.00972158e-01
      6.41399860e-01   5.29329658e-01  -3.59633923e-01   1.40904840e-02
     -7.87046015e-01   5.14397264e-01  -1.72032166e+00   2.08652616e+00
     -7.84442604e-01  -7.16889262e-01   5.82443833e-01  -2.57904112e-01
     -4.64568496e-01  -1.17968047e+00  -5.25183715e-02  -3.08463603e-01
     -1.43396156e-02  -9.69352484e-01   1.11721110e+00   1.38535106e+00
     -9.31920409e-01  -7.10785151e-01   1.53084934e-01  -1.30462599e+00
      1.06095374e+00   4.56661552e-01  -8.73824716e-01   1.42349589e+00
      9.84290540e-01   1.82720017e+00   7.20723212e-01   7.49838874e-02
      3.00671995e-01  -5.74789643e-01   1.84128201e+00  -5.32847464e-01
     -4.03202862e-01   1.21806681e+00  -2.12591916e-01  -1.72397864e+00
      2.29088455e-01  -1.06605589e+00   2.01987639e-01  -1.74984112e-01
     -1.21066558e+00  -3.30874234e-01  -4.72112715e-01   5.71287461e-02]
   [  3.56787115e-01   3.20888800e-03  -7.54570782e-01   3.77612680e-01
     -6.06660962e-01  -2.66056269e-01   1.83200225e-01   5.62517703e-01
      2.84457058e-01  -4.88334537e-01  -8.82679939e-01  -3.75256956e-01
      1.35145292e-01   3.05085152e-01   1.28121212e-01  -1.02611160e+00
     -1.25617874e+00  -9.21886787e-02   9.24589336e-02  -1.05479658e+00
      9.00394619e-02   6.08088791e-01  -1.15041316e+00  -2.89057970e-01
     -8.75955164e-01  -1.55376327e+00   7.87068069e-01   7.49512792e-01
      3.74247581e-01  -6.06880009e-01   6.94251120e-01  -9.74578932e-02
      2.16968030e-01  -2.67560203e-02   2.19731808e+00  -1.01142418e+00
     -2.05746889e+00   1.93162000e+00  -5.50304711e-01   9.07662094e-01
      3.45987946e-01   3.97688486e-02   2.90926635e-01  -3.69968683e-01
      6.84228659e-01  -7.39869833e-01  -3.23703408e-01  -1.22814369e+00
     -6.96512282e-01  -2.95549631e-01   4.79530543e-01   1.14359654e-01
      1.46025920e+00   1.61949706e+00  -3.87495786e-01  -4.18365180e-01
      7.50415027e-01  -3.34531844e-01  -8.35615575e-01  -5.52869022e-01
      1.20106101e+00   3.99290770e-01  -7.92088091e-01  -1.44410288e+00]
   [  7.45754898e-01   4.29020315e-01   4.81446050e-02  -1.88280869e+00
     -1.24422228e+00   3.13994586e-01   5.19030774e-03   6.45450711e-01
      4.41324621e-01  -5.78923106e-01   5.27209759e-01   1.84708250e+00
      9.99520570e-02  -2.89577454e-01  -1.47221410e+00  -5.77268183e-01
     -1.26599061e+00   3.98179889e-01  -3.72099906e-01  -1.76427948e+00
     -8.84186685e-01   7.25895762e-01   1.14776576e+00  -5.65945387e-01
      4.56787646e-01  -2.06940830e-01  -5.14296830e-01  -7.05498636e-01
      2.00045347e-01   4.97984171e-01  -7.85202861e-01  -6.04862332e-01
      1.19646895e+00   6.82286203e-01  -6.22630239e-01  -2.27106795e-01
     -6.74978554e-01   1.29270160e+00  -1.46156108e+00   2.01196969e-01
     -1.43909574e+00  -2.60359168e-01   2.18548059e+00   1.18403398e-01
      4.82422471e-01   5.73062062e-01   1.98381352e+00  -1.41735673e+00
     -1.32085472e-01  -1.05221701e+00   1.18346691e+00   6.58600926e-01
     -1.25978673e+00  -5.68208992e-01   3.92119110e-01   2.33479664e-01
     -5.88270903e-01   2.99702466e-01   1.13335323e+00   2.27257252e+00
     -1.22713006e+00  -1.37896347e+00  -1.27131379e+00   6.69760406e-01]
   [ -3.97402287e-01  -1.31619048e+00  -1.55657351e+00   5.06734848e-01
     -1.07867587e+00  -9.13164020e-01  -4.51944530e-01   3.15202564e-01
     -5.59182703e-01   6.71639979e-01   4.77768272e-01   4.16031107e-02
      2.74267823e-01  -6.14289641e-01   1.21215332e+00  -9.35627818e-01
      3.01597625e-01   3.03446323e-01  -9.18391645e-01   5.35360813e-01
     -2.17894558e-02   1.55395889e+00   9.03861284e-01   1.20481992e+00
     -9.22309160e-01  -1.10063219e+00  -2.26783112e-01  -2.01470137e+00
      1.30234289e+00   5.14085531e-01   2.79727101e-01   1.10092843e+00
     -7.14386046e-01  -3.78270410e-02  -8.25502813e-01  -4.32796568e-01
      1.43558478e+00  -3.09314996e-01  -4.92078304e-01  -1.09058514e-01
      4.13278759e-01   1.21746862e+00   7.14104176e-01   9.00144398e-01
     -7.53862262e-01   8.33458364e-01   4.72440720e-01   1.60880697e+00
      1.95150912e-01   2.99138933e-01  -8.16745162e-02   5.09321950e-02
     -6.05348349e-01   3.94873619e-01  -1.23253453e+00  -8.08634520e-01
      4.70786840e-01   1.00863822e-01  -9.32054996e-01  -4.49184984e-01
      7.63791978e-01  -7.40315244e-02   3.63314420e-01  -1.54539073e+00]
   [ -8.32650345e-04  -6.35886729e-01  -1.06784105e+00   4.95731980e-01
      7.53346622e-01   3.02674413e-01   1.68591604e-01   8.17784667e-01
     -1.90830076e+00   8.73296410e-02  -4.47072566e-01   8.17214251e-01
      1.80407003e-01  -1.25189340e+00   2.19261810e-01   2.29388952e+00
     -2.21042013e+00   3.31551701e-01  -4.04233932e-01   1.30262089e+00
     -7.38043547e-01   6.98984265e-01  -8.07024017e-02  -6.78824067e-01
      1.56904876e-01  -1.10335994e+00  -4.53501828e-02  -4.27985907e-01
     -8.63412261e-01  -1.27826571e+00  -9.10492301e-01   5.43887317e-01
      1.99394271e-01  -5.45131266e-01   4.12816674e-01   2.40311646e+00
     -1.03196792e-01   3.47861528e-01   1.30567038e+00   9.61031020e-01
      9.66940820e-01   2.95048445e-01  -3.37868571e-01  -4.01455492e-01
     -4.31695580e-01  -3.42834026e-01   8.99053931e-01   8.18199441e-02
      1.02240765e+00   8.32948685e-01   4.12454158e-02  -4.86798525e-01
      5.67263842e-01   1.70680845e+00  -2.11299562e+00   9.45057273e-02
     -1.03777635e+00  -4.88002628e-01   1.08412397e+00  -6.26536667e-01
      1.40117872e+00  -1.11787617e+00  -6.41875982e-01  -5.61463833e-01]
   [ -1.22863138e+00   1.74740493e+00   1.00670171e+00  -2.35314512e+00
     -1.45017064e+00  -3.38060468e-01   5.42213023e-01   3.31382483e-01
     -6.54798150e-01   3.54281776e-02  -6.48768127e-01   2.29498908e-01
     -2.67709821e-01   2.81359375e-01  -7.22786307e-01  -6.50526360e-02
      9.48582739e-02  -1.65695894e+00   1.69077885e+00   6.15935959e-02
     -2.28084970e+00   7.25791872e-01  -5.31810343e-01   1.19644725e+00
      5.84718436e-02   2.20320153e+00  -9.46195424e-01   6.10283613e-01
     -3.21721107e-01  -4.09627527e-01  -3.58166516e-01   1.04672670e+00
      1.12307918e+00  -9.33464289e-01   2.37855703e-01   1.34165093e-01
      3.87217462e-01   9.10410047e-01   9.22804624e-02  -8.34870040e-01
     -7.85637736e-01   1.93698466e+00  -4.01103467e-01  -5.41865885e-01
      7.35452771e-01   6.55560195e-01   1.61328661e+00   5.72079837e-01
     -5.15678013e-03   6.42373323e-01   3.91033411e-01  -1.11320770e+00
      6.57254636e-01   7.07130909e-01  -8.81602466e-01  -5.47922134e-01
      1.13317057e-01  -8.47592950e-01  -1.17226541e+00  -1.02756843e-02
      6.65703416e-01  -1.19955993e+00  -7.91762114e-01   1.00194335e+00]]

  [[ -5.94616115e-01  -9.77832794e-01   4.89244759e-02   3.29634637e-01
      7.76844442e-01   2.46001744e+00   6.02310359e-01  -9.40925956e-01
      3.84175301e-01   2.38249946e+00   7.14654565e-01   4.86103505e-01
      4.24579918e-01   1.43724799e+00  -1.55912328e+00   1.21957488e-01
      7.20018983e-01  -1.01016760e+00   2.65667462e+00   2.24276751e-01
      7.52851963e-01   1.58190906e-01  -2.92962849e-01   2.39061913e-03
      7.18804538e-01   1.52912664e+00   1.36524186e-01   9.70679522e-01
     -1.52107692e+00   1.55600250e+00  -2.01631355e+00  -5.95504403e-01
      2.66582817e-01  -1.87032306e+00   6.78877771e-01   1.15049171e+00
     -2.17185521e+00  -8.98062229e-01   1.24832726e+00  -7.18572378e-01
     -1.19224119e+00  -1.49639797e+00   2.38518310e+00   7.47425973e-01
     -2.36302519e+00  -1.96461236e+00   2.22448017e-02  -6.04813755e-01
      5.22335589e-01   1.08772922e+00   1.00739408e+00   4.87339765e-01
      1.25100648e+00   3.44939381e-01   7.63857961e-01   5.15934527e-01
     -8.29332173e-01   1.05489719e+00  -4.73639876e-01   5.11704922e-01
      1.68218434e+00   1.57548755e-01  -6.49131954e-01   4.69812095e-01]
   [ -1.26926911e+00  -1.54800785e+00  -1.44708073e+00   1.15589964e+00
     -8.82497370e-01  -1.79468310e+00   1.07963599e-01   1.18494594e+00
     -1.27721727e+00   9.60163772e-01   4.76649165e-01  -9.65698361e-01
     -1.65419436e+00  -7.12365746e-01   1.71080232e+00   2.18388319e+00
      2.15375876e+00   9.04327095e-01   1.67378867e+00   2.31573462e+00
      1.30440164e+00  -8.10393691e-01  -1.42387438e+00   2.09956431e+00
      7.72890389e-01  -3.35150361e-02   3.48965466e-01   1.15500176e+00
      8.93187284e-01  -1.29630101e+00   1.61938637e-01  -1.12818193e+00
     -2.01627827e+00  -1.13407946e+00   1.57339081e-01  -7.49659538e-01
      1.09124400e-01   6.26119256e-01  -1.26695883e+00  -4.18291390e-01
     -1.28989527e-02   5.05325377e-01  -6.63992465e-01   3.08797974e-02
     -5.48668087e-01  -6.36943877e-01   1.44403470e+00   1.08512664e+00
     -1.04399003e-01   1.08706272e+00   1.30316770e+00  -3.46135974e-01
     -3.45762104e-01   4.97343764e-02   7.30873704e-01   6.23544216e-01
     -1.44592810e+00  -2.33608937e+00  -1.25711119e+00  -5.74507356e-01
     -3.32027435e-01  -4.93400395e-01   1.31149411e+00  -1.03627264e+00]
   [  1.28376341e+00   8.78316462e-01   1.39200914e+00   2.77107924e-01
      2.49467683e+00   1.18606627e+00  -6.95072591e-01   1.02706635e+00
      8.20448756e-01   7.38815218e-02  -1.88880718e+00   1.51935112e+00
      3.10190439e-01  -8.42795223e-02  -3.16416740e-01   4.31689709e-01
      4.14256006e-03   1.48873642e-01  -1.14645886e+00  -5.70317328e-01
     -9.61408079e-01   1.31668532e+00   1.67432153e+00  -2.79381722e-01
     -8.89036417e-01  -1.80240441e-02  -1.20764244e+00  -9.72920835e-01
     -4.81501848e-01   5.62025011e-01  -5.74177206e-01   1.67675519e+00
     -8.20587754e-01   3.69981200e-01  -6.10267460e-01  -8.25780392e-01
      8.26749027e-01   9.37292635e-01   8.13137591e-01   3.95075798e-01
      9.34120178e-01   2.25076094e-01   1.28492057e-01  -9.84803736e-01
      6.19771719e-01  -9.27922726e-01   6.46514952e-01   1.46126354e+00
     -3.49374950e-01  -2.36863518e+00  -5.48653722e-01   5.85591197e-01
      1.12655330e+00   1.45276105e+00   9.70182568e-02   6.92200482e-01
      8.15716907e-02  -1.54789531e+00   7.04801977e-01   1.30242646e+00
      1.03536570e+00   1.08123207e+00   2.65499759e+00   2.20085740e+00]
   [  2.26770830e+00   1.46242574e-01   8.72663915e-01   1.20325434e+00
      1.51823148e-01   2.01308519e-01   1.11144948e+00  -8.21631849e-01
      5.79243064e-01  -1.09965658e+00   2.40803882e-01   1.31582255e-02
      1.21356535e+00   1.20385337e+00  -2.55255848e-01   1.06702828e+00
      8.35214078e-01  -7.35001385e-01  -8.60842764e-01  -2.39862859e-01
      1.23298025e+00   1.20652986e+00   1.89808667e-01  -1.07180250e+00
      3.62642378e-01  -2.67582679e+00  -8.32607865e-01   9.62403357e-01
     -2.40590245e-01  -9.47068185e-02   1.37236190e+00  -1.80785302e-02
      9.95111942e-01   7.75592625e-01   2.43288422e+00  -1.13276266e-01
      8.62690389e-01  -1.10307276e+00   2.36707345e-01  -6.37295306e-01
      1.33201706e+00   7.06825793e-01   2.59074420e-01  -1.28933609e+00
     -7.61716127e-01  -2.76699543e-01  -3.27823341e-01   1.84963465e+00
     -6.20785952e-01   1.25945181e-01  -9.13359165e-01  -1.10517645e+00
      7.56123841e-01   1.19009447e+00  -7.30647981e-01  -3.69230837e-01
      1.78880620e+00   1.05802357e+00   4.51765001e-01   1.76734664e-02
     -4.30855215e-01  -2.20894194e+00   2.70834476e-01  -2.16261297e-01]
   [ -2.48105884e-01   1.72886455e+00  -7.67415881e-01   1.31277546e-01
     -6.00631416e-01   1.95041597e+00   1.28436637e+00   1.02860546e+00
     -1.86356939e-02   8.25662017e-02   8.56123924e-01  -5.76227546e-01
     -9.40449357e-01  -4.07015756e-02   1.63954294e+00  -6.97782457e-01
      2.42284656e+00  -1.04862547e+00   8.73747706e-01  -8.66202116e-01
     -4.26390290e-01   2.43414617e+00   1.24503136e-01  -1.72566676e+00
      3.79369348e-01   2.44574904e-01  -3.42583656e-01   5.22410750e-01
     -2.38430643e+00  -1.58105463e-01   9.31555629e-01  -1.26676053e-01
      3.29491556e-01   9.64215621e-02   1.33228445e+00  -3.39424938e-01
     -2.20712113e+00  -2.09660149e+00  -6.49273813e-01   5.13318837e-01
      3.97309631e-01   1.59905994e+00   3.98429632e-01  -1.33297217e+00
     -2.88285524e-01   6.89521655e-02   1.25340760e-01   1.04239857e+00
      2.01959729e+00  -1.28602266e+00  -1.77262574e-01  -1.34271821e-02
     -4.70235348e-01  -8.18633676e-01  -1.55900276e+00   1.39696038e+00
      4.45031822e-01   4.68671203e-01   9.95848894e-01  -7.01661885e-01
     -8.24974895e-01  -2.71832854e-01   7.52408564e-01  -8.38712156e-01]
   [  3.04292035e+00  -1.67308956e-01  -2.10106206e+00  -1.54521599e-01
      1.08677173e+00   9.91664648e-01   1.05637920e+00  -1.99961588e-01
      7.28278533e-02   5.54120481e-01   1.06644297e+00  -1.36442280e+00
      1.67693734e+00  -1.56585574e+00  -2.28503728e+00  -1.41790450e+00
     -4.28360045e-01  -2.07764816e+00   1.37999392e+00  -7.08829820e-01
      2.32905254e-01   2.14796090e+00  -1.17562592e+00  -1.64088297e+00
     -1.74305081e+00   8.03983271e-01   1.06657219e+00   1.15191960e+00
      1.47067815e-01  -1.39497221e-01   5.66172719e-01   1.04814470e+00
     -1.69973731e+00  -1.14338183e+00   1.35181940e+00   4.46898699e-01
     -5.43012083e-01  -2.08988756e-01  -2.15629530e+00   4.59909439e-01
     -2.00415686e-01   1.28365278e+00  -1.16913110e-01   4.73523021e-01
     -2.41166670e-02   4.39939469e-01   1.03758013e+00  -4.81999516e-01
     -3.41928929e-01   9.24320281e-01   3.87076378e-01  -1.92236602e-01
     -5.61838508e-01   3.79335999e-01  -9.54690158e-01   8.48763883e-02
      1.26153266e+00  -4.27972108e-01  -7.73365736e-01   8.56936350e-02
      8.86326015e-01   6.78227723e-01   2.12299275e+00   1.92229718e-01]
   [ -1.37364939e-01   9.19093862e-02   6.57427967e-01   4.93087471e-01
     -7.54410446e-01  -5.58940232e-01  -1.63840997e+00   3.70915204e-01
      6.73318386e-01  -5.93678713e-01  -3.93989891e-01  -7.95136511e-01
     -7.36723542e-01  -7.55726159e-01  -6.85144663e-01   2.26899672e+00
     -3.87927681e-01   8.67748022e-01  -1.26467574e+00   2.00052753e-01
      6.73785210e-01   7.50212446e-02  -7.26697862e-01  -1.12521696e+00
     -3.26060265e-01   2.00628445e-01  -9.95829225e-01   3.97117585e-01
      7.65404344e-01   7.30792522e-01  -8.85207832e-01   1.39559284e-01
      2.34099999e-01  -7.88596213e-01  -3.76119256e-01  -2.05080605e+00
     -3.14886308e+00   1.04214323e+00  -1.13987699e-01  -6.26248300e-01
     -1.47508025e-01   9.29984510e-01  -7.07591623e-02   2.71628499e+00
     -1.17215002e+00  -7.59334922e-01   1.75134385e+00   1.27516818e+00
      7.98338652e-03  -9.87278521e-01  -5.84621906e-01   7.21019447e-01
     -2.15323067e+00   1.71212113e+00   9.00779784e-01   1.19980574e+00
      8.58036578e-01   6.19751036e-01   1.11153865e+00   1.89729810e+00
      1.15249121e+00   6.06439173e-01   5.54054201e-01  -3.59040827e-01]
   [  1.30085032e-02  -9.28057551e-01   1.45711064e-01   3.19202989e-01
      6.23551905e-01   6.17840052e-01  -1.00653648e+00  -6.34424925e-01
      2.92378906e-02   1.12547767e+00  -8.07366908e-01   2.34074688e+00
      1.56891644e+00  -9.88779902e-01   1.11608028e+00   7.45762348e-01
     -5.55994391e-01   3.20683360e-01   9.12301421e-01   8.64849210e-01
      4.16320920e-01  -4.67568994e-01  -1.19813740e+00   1.04465795e+00
     -1.79470909e+00  -1.83807313e-01   2.47906303e+00  -9.80875432e-01
     -1.22838485e+00  -6.33534908e-01  -1.74796247e+00  -1.23364091e+00
      1.21487096e-01   6.29611135e-01   8.91120195e-01  -8.88894141e-01
     -5.05448818e-01   8.12440693e-01  -5.65991215e-02  -1.26252794e+00
      8.49044681e-01   7.57085323e-01   1.22681111e-01   3.88407931e-02
     -1.26965737e+00   1.87915847e-01   2.91218720e-02   1.83311296e+00
      3.75665516e-01   8.07829440e-01   2.34666824e-01   2.58257568e-01
     -7.39555955e-01   1.49792910e+00   1.24326861e+00  -6.02554619e-01
      2.65757847e+00   1.44001925e+00   1.63554415e-01  -1.92479372e+00
     -2.44162098e-01   3.99876416e-01   6.49551004e-02  -5.30258179e-01]
   [ -2.56297201e-01   3.89051080e-01  -3.93078685e-01   1.85463786e+00
      1.10509133e+00  -2.00229689e-01   2.04873666e-01   8.07576478e-02
      2.03416562e+00  -6.79195940e-01  -7.41410702e-02   8.39257300e-01
     -7.42219627e-01   4.28236932e-01   6.36896789e-01  -1.47576141e+00
      2.94903189e-01  -5.90111256e-01  -1.34786975e+00   1.73749566e+00
     -5.57569563e-01  -1.19613349e+00   1.37532902e+00   6.21089101e-01
      2.82287270e-01   3.55255663e-01  -1.75728381e+00  -5.07273316e-01
      2.07460657e-01   5.56408167e-01  -1.22978278e-01   4.53989565e-01
     -4.92849857e-01  -2.10963368e+00  -6.06869794e-02  -9.86858785e-01
     -4.77361888e-01  -7.23650932e-01   1.47377896e+00   9.85036910e-01
      5.74562490e-01  -3.90084147e-01  -1.52249932e+00   1.38939345e+00
     -5.68039119e-01  -4.33752760e-02  -8.48749042e-01   6.78813636e-01
     -1.16770577e+00   1.20155764e+00  -3.35330933e-01   1.04831755e+00
      1.20556593e+00  -6.10657176e-03   2.05667353e+00  -8.77937824e-02
     -9.82666612e-02   8.57656062e-01   6.00532949e-01  -6.32546365e-01
      3.21763605e-01  -8.09059560e-01   1.15997338e+00  -1.34937361e-01]
   [  8.90534937e-01   1.87215149e+00  -8.75449404e-02   2.15106934e-01
     -1.19359040e+00   1.39805031e+00  -4.71620530e-01   1.08112383e+00
      9.34088111e-01   1.41768336e+00  -2.45512187e-01   5.94997883e-01
      9.72412407e-01   1.05215704e+00   5.38772464e-01   1.98195505e+00
     -5.86466789e-01   2.89472282e-01   1.39242160e+00  -9.42850709e-01
     -6.10782444e-01  -6.24636054e-01  -1.07434404e+00   1.05801213e+00
      1.86363471e+00   1.50488257e+00  -2.21103460e-01  -3.29741955e-01
      4.42639925e-02   4.58081305e-01  -5.62605560e-01  -1.15833235e+00
      3.30023468e-01  -7.74607778e-01   1.77794135e+00  -5.16744792e-01
     -1.09712791e+00   7.45857656e-01  -8.19907963e-01  -3.41878504e-01
     -1.36889982e+00  -1.00600135e+00   2.59050488e-01  -4.67926860e-01
      2.14454085e-01  -1.36275852e+00  -1.21810126e+00  -6.69782698e-01
      3.08368117e-01  -1.15597665e-01  -9.81880501e-02  -1.19436038e+00
      2.01029444e+00   5.93929708e-01   1.14275262e-01  -2.15820003e+00
     -2.67665744e+00  -1.78908050e-01   6.61693931e-01  -2.47402930e+00
     -1.92717779e+00  -5.80809295e-01  -1.35793006e+00  -1.99890375e-01]
   [ -1.58057249e+00   6.28224730e-01  -8.42516840e-01   1.18456304e-01
      1.37629128e+00   1.29848719e+00  -1.34785712e+00  -4.02176291e-01
     -6.10763609e-01  -6.47332907e-01  -5.82116842e-01   5.98152459e-01
     -1.08664536e+00   2.87674814e-01  -5.46272755e-01  -1.92727649e+00
     -3.27549577e-01  -9.83079016e-01  -1.52746904e+00   1.62579957e-02
      1.79535937e+00  -1.28509104e+00  -1.10547757e+00  -6.82820976e-01
     -5.71780920e-01  -1.12571275e+00   1.02384758e+00   1.58718288e-01
      4.45004106e-02  -5.36693156e-01  -3.58159959e-01  -5.93733728e-01
      7.81690836e-01   1.93734181e+00   7.15357065e-01   1.49963331e+00
     -3.51390690e-01   3.35184857e-02   1.68379009e+00  -9.02898252e-01
     -4.50086892e-01  -9.72495139e-01  -6.51966631e-01   7.33704507e-01
      1.26401961e-01   2.31848264e+00  -5.32652259e-01   1.50765312e+00
      1.06465340e+00  -1.53630352e+00   4.08828020e-01  -1.94895864e-01
      1.31328031e-01   4.00459737e-01   8.28198791e-01   2.84530592e+00
     -1.88736892e+00   1.29695153e+00   4.78109896e-01  -3.21162879e-01
      1.08851671e-01   8.05567384e-01  -1.64271092e+00   8.47149253e-01]
   [  4.64568108e-01  -9.64346707e-01   1.56689823e+00  -4.58086252e-01
     -2.99714863e-01   2.97679543e-01  -1.41690031e-01   4.75421816e-01
      5.90754390e-01   6.94438517e-01  -1.39668834e+00   6.88375294e-01
     -1.72141016e+00  -9.88015592e-01   5.89445174e-01   9.66080502e-02
      3.07295740e-01  -1.64229906e+00   1.69485199e+00   2.95698494e-01
      1.50663793e+00  -3.36374968e-01   2.43308544e+00   1.02080703e+00
     -6.43504560e-01  -2.06639433e+00   9.22489643e-01  -2.53854942e+00
     -1.01202404e+00   1.34683919e+00  -4.19310570e-01  -6.61129728e-02
     -5.27829230e-02  -1.33861053e+00   4.07303542e-01   7.20309019e-01
     -1.46423265e-01  -1.49828827e+00   1.47275105e-02   2.66100073e+00
      5.38416803e-01  -9.56238508e-01  -1.28839481e+00  -1.62068212e+00
     -2.23192722e-01  -1.51474464e+00  -1.18455939e-01   6.23793900e-01
      1.28622532e-01  -7.85936177e-01   6.83213830e-01   1.08486998e+00
     -7.48730361e-01   2.92648554e-01  -1.56300645e-02  -8.26399207e-01
     -2.34332967e+00  -1.02431738e+00  -9.43933606e-01   2.53739119e+00
     -1.11002333e-01  -6.85648561e-01  -6.84460461e-01  -1.25340736e+00]
   [ -3.54570627e-01   3.03025216e-01  -1.09895265e+00   1.10017431e+00
     -3.90268952e-01  -7.29777575e-01   1.43477663e-01  -1.41677999e+00
      4.14261460e-01   4.44104880e-01  -7.09574372e-02  -4.08876419e-01
      1.82236588e+00   3.00226390e-01   6.28571749e-01  -8.31666231e-01
     -1.74068308e+00  -1.29193223e+00   1.83186367e-01  -6.37539774e-02
      1.23356187e+00  -1.24640322e+00  -2.36969337e-01   2.53845960e-01
     -8.26280043e-02  -5.46680570e-01  -1.17274612e-01  -1.83771610e-01
      1.42524451e-01  -2.02157903e+00   4.62932214e-02   2.01690030e+00
     -3.51742357e-01  -1.43678081e+00   1.78978574e+00   8.80316377e-01
     -2.31251836e-01   3.45704734e-01  -9.08697546e-01   1.26117384e+00
      1.40935755e+00   2.19013378e-01  -4.61125165e-01  -5.28937757e-01
      2.26550505e-01  -8.18132162e-01   8.14477026e-01  -4.67155784e-01
      1.52310550e+00  -3.97515923e-01   5.39174736e-01  -1.31731629e+00
     -5.57367921e-01   2.28599936e-01   6.19634092e-01  -1.77010989e+00
      7.40432680e-01   8.39747429e-01  -1.34119868e+00   1.84351659e+00
      5.07316738e-03  -7.84083128e-01   7.83174276e-01  -7.26998985e-01]
   [  1.21322978e+00   1.32140470e+00   2.55476093e+00   3.60427737e-01
      2.05137789e-01  -1.07106888e+00   8.51677358e-01  -6.93539739e-01
      7.73825645e-02  -1.33304596e+00   4.01156634e-01  -1.35577452e+00
     -2.44888401e+00  -8.48825742e-03  -8.24208975e-01   6.53187633e-01
      7.35522866e-01  -4.48642045e-01  -1.28765774e+00  -3.04917455e-01
     -7.16685474e-01  -8.10139358e-01  -3.61498684e-01  -8.36866498e-01
      2.44314745e-01  -1.03687215e+00   2.09172463e+00   4.21373099e-01
     -1.69490492e+00   5.70267200e-01   2.10058045e+00   2.23965335e+00
     -9.77640986e-01  -1.08566320e+00  -5.27203918e-01  -4.54131275e-01
     -6.12132788e-01  -3.67839411e-02   2.53167469e-02   5.24004161e-01
     -6.02530777e-01   6.88366711e-01   1.23940766e-01   8.81356359e-01
     -7.70224512e-01   2.19237909e-01   1.55920625e+00   8.71853590e-01
     -1.35035932e+00  -1.45232701e+00  -1.49567688e+00   1.08897209e+00
      4.38471586e-01   2.17436507e-01  -5.25534749e-01  -2.56336391e-01
      4.89854515e-01   4.45021331e-01  -1.07964838e+00  -1.60918581e+00
      4.63696867e-01  -6.80986166e-01   6.42372012e-01   3.63945723e-01]
   [  2.20010564e-01  -2.08747000e-01   9.79032278e-01  -8.63349378e-01
     -1.19755995e+00  -2.99268574e-01   5.23656845e-01  -4.13962007e-01
      1.08293064e-01  -3.43094856e-01  -5.59830487e-01   4.92274880e-01
      2.18283638e-01   1.30015993e+00   1.44595194e+00   1.30905652e+00
     -1.15044904e+00  -1.18041170e+00   3.61740530e-01   4.47612435e-01
      1.40045434e-01  -1.53801143e+00  -5.80520928e-01  -1.27640438e+00
      2.16955566e+00   1.69381380e+00   7.19239891e-01  -1.81162262e+00
     -6.48335889e-02  -9.49914396e-01  -1.37541860e-01   2.02301574e+00
      1.22245513e-01   4.43721324e-01   1.58657849e+00  -1.21188879e-01
     -1.21984923e+00   8.52446139e-01  -7.59874936e-03  -6.96070910e-01
     -5.50608397e-01  -1.66135442e+00   2.23843908e+00  -1.14973104e+00
      2.79018134e-01   6.71935499e-01  -5.51014721e-01   1.08834490e-01
     -1.63243377e+00  -8.44944477e-01   7.55885839e-02  -1.24293804e+00
      5.12541294e-01  -2.28136659e+00   1.78701386e-01   1.39199302e-01
      2.35216928e+00  -6.99287295e-01   9.24946070e-01  -1.41699821e-01
     -8.08909535e-01  -1.18710196e+00   1.38169527e+00   2.18208969e-01]
   [ -1.48172212e+00   4.77720410e-01  -1.22244596e+00   1.41478205e+00
      1.02367711e+00  -1.21091270e+00  -1.06514060e+00   2.30276799e+00
      1.06421977e-01   2.57438391e-01   7.66998231e-02  -1.10413551e+00
      1.25599071e-01   4.15171832e-01  -8.43604267e-01   1.92246124e-01
      8.93951178e-01  -3.35701734e-01  -6.05782866e-01   1.19017851e+00
     -1.67717838e+00  -2.65059084e-01  -1.44164395e+00   1.92030832e-01
      1.19988728e+00  -7.82350481e-01   8.41647863e-01  -6.70030951e-01
     -7.58939624e-01   1.69287694e+00   1.26557136e+00  -3.41260374e-01
     -9.42538857e-01  -7.86012292e-01  -8.39513540e-01  -1.02401865e+00
      2.28044074e-02   1.88696766e+00  -2.11645079e+00   5.34769654e-01
     -2.20251173e-01   1.83170950e+00  -1.57704329e+00  -2.48908684e-01
     -9.15584803e-01   6.94090903e-01   6.28648818e-01   7.17367291e-01
      4.89348441e-01  -6.55895695e-02  -4.32972699e-01   3.59437346e-01
      1.21232770e-01  -6.95538700e-01   1.47967145e-01   7.06277847e-01
     -1.49263370e+00  -2.07842812e-02  -1.16813862e+00   1.02968585e+00
      3.40109736e-01  -5.47749519e-01   1.31928062e+00   2.39633203e+00]
   [ -2.64419585e-01   2.66004860e-01   7.06995875e-02   5.25129020e-01
      1.05063891e+00  -9.45776939e-01   8.60253535e-03  -1.59720421e-01
      1.32271335e-01   4.99184042e-01   4.52118784e-01   8.89430761e-01
      1.01114117e-01   1.32033631e-01   6.05811998e-02   5.13533890e-01
      1.82117891e+00  -1.22997355e+00   3.00215483e-01   1.35125649e+00
      1.27752751e-01   5.95504463e-01   1.64293599e+00   3.83330196e-01
      4.67252523e-01   8.23560953e-02  -7.05505162e-02  -1.32594192e+00
      1.41090214e+00  -4.63689566e-02  -6.64128900e-01   1.07688439e+00
      7.87368774e-01   2.10827723e-01   9.93119121e-01   1.63418269e+00
      1.07583725e+00   1.09257591e+00  -1.41887498e+00   8.55514944e-01
      1.36472046e+00   1.00761068e+00   5.16517460e-01   1.43890902e-01
     -1.79994786e+00   7.07280517e-01  -9.15993631e-01  -2.07555324e-01
     -1.33798230e+00  -2.16641143e-01   1.44279510e-01   8.06926608e-01
     -1.02820834e-02   1.23668754e+00   2.22939283e-01   8.16966951e-01
     -4.35362548e-01  -6.52072787e-01  -1.17237830e+00   5.83724022e-01
     -1.02789032e+00  -2.22403288e+00  -1.14384091e+00   1.32112920e+00]
   [  2.15776972e-02  -6.77795187e-02   7.04127610e-01  -1.19534719e+00
     -7.85161257e-01   1.03237367e+00   1.37487090e+00  -2.19422197e+00
     -1.09004354e+00  -2.32562184e+00   5.68862796e-01   2.57581085e-01
     -2.48968267e+00  -1.31033599e+00   1.22689176e+00   1.52670228e+00
     -7.97780573e-01  -4.35519993e-01   8.87856960e-01   8.60402286e-01
     -4.08179253e-01   2.86869079e-01   1.68387103e+00   3.24291915e-01
     -1.26992846e+00   1.91038083e-02   9.93228316e-01  -1.34917653e+00
     -2.53704023e+00  -1.40906930e+00  -1.16298318e+00  -8.11049044e-01
     -1.29881048e+00   1.04852009e+00  -7.96098173e-01   3.81379053e-02
     -4.37225014e-01  -2.28705478e+00   8.31026614e-01  -7.19576061e-01
      6.87294781e-01   1.25221574e+00   8.78288865e-01  -3.93114798e-02
     -4.78535116e-01   6.83957756e-01   1.02589047e+00   1.41450453e+00
      9.99423146e-01   3.33188623e-01   2.10019231e+00   8.46789718e-01
     -3.46682131e-01  -3.53121370e-01  -1.14979112e+00   1.09505343e+00
      4.89572771e-02  -1.10861337e+00   1.49129748e+00  -9.75444734e-01
     -1.09239280e+00   1.13559651e+00  -1.44469345e+00  -1.71161927e-02]
   [  3.98390800e-01  -5.19254684e-01   1.09183431e+00   3.24672051e-02
     -6.72050178e-01   7.14879215e-01   9.00876999e-01  -2.58658707e-01
      1.21545839e+00  -9.79749501e-01   1.24054447e-01   4.38343780e-03
     -6.84287697e-02  -2.02297091e-01  -9.19522822e-01   1.48888037e-01
      1.49998379e+00  -1.60691917e+00  -2.97369659e-01  -3.82925384e-02
      1.39587307e+00  -4.53882396e-01  -1.68536335e-01  -3.03507149e-01
      2.13849649e-01   9.61038947e-01  -1.27698392e-01  -1.71557918e-01
      2.18355227e-02  -8.47925022e-02   1.05562317e+00  -7.43692458e-01
      5.28150618e-01  -1.65897763e+00   7.73470223e-01   1.19788516e+00
     -5.96318841e-01  -1.08027649e+00  -1.03294745e-01  -3.51619035e-01
      8.87591898e-01  -1.25680172e+00  -3.13403785e-01   1.35738671e+00
     -1.21943545e+00   5.06495893e-01  -6.27412558e-01   1.22715020e+00
     -6.44263744e-01   4.02858347e-01  -2.11137801e-01  -1.37278748e+00
      5.61450839e-01  -3.92444640e-01  -7.33427048e-01   9.84163463e-01
      3.65386993e-01   2.00306714e-01   7.50257254e-01  -3.69605005e-01
      7.79287145e-02  -7.75604665e-01  -5.99934459e-01  -9.66650620e-03]
   [ -2.67252564e-01   2.65365422e-01  -8.62714410e-01   6.20984256e-01
      7.21129924e-02  -7.07401454e-01   2.11723760e-01   9.75823462e-01
     -1.22893059e+00   3.34010720e-01   9.78558123e-01   5.93737960e-01
      7.37687409e-01  -1.62757862e+00  -1.18600249e+00   1.02140999e+00
     -1.15228638e-01   5.17247021e-01   1.69365108e-01   8.53960037e-01
      4.62789059e-01   2.66253529e-03  -5.06181002e-01   3.59482825e-01
      1.84282768e+00   5.10733604e-01   3.11381489e-01   6.21143468e-02
      3.46892446e-01  -9.17860687e-01  -4.90421206e-01  -1.36374161e-02
     -1.72045374e+00  -1.03899263e-01   7.19998896e-01   2.62286812e-01
      6.18411064e-01  -1.75327361e-01  -1.01177216e+00   1.37714493e+00
      2.24499226e+00  -4.62200642e-01  -2.98536479e-01  -2.65072912e-01
      1.23457044e-01   3.79149079e-01   1.42408526e+00  -4.35139626e-01
      1.56475022e-01   2.48017764e+00  -3.47286135e-01   1.76414633e+00
     -1.70121622e+00   1.44996375e-01  -1.19567382e+00  -7.84143746e-01
      4.46970820e-01  -2.86103804e-02  -1.35510886e+00  -5.45176268e-01
      1.69353262e-01   9.12291288e-01   7.65244007e-01  -7.38633335e-01]
   [ -1.86024225e+00  -4.39059138e-02   7.79837787e-01  -1.40672541e+00
      6.13199890e-01  -8.19995403e-01   7.52992511e-01   1.38298035e+00
      4.07629073e-01  -6.20795786e-01  -1.91147327e+00  -9.39040184e-01
     -8.15091431e-01  -1.53478384e+00   1.01903665e+00  -1.34711349e+00
      6.41937673e-01   8.36732328e-01   2.71097738e-02  -1.19161260e+00
      1.53065789e+00   1.07046318e+00  -7.50975013e-02   7.06494451e-02
      8.03045511e-01   5.98598599e-01   9.12598789e-01  -4.04928140e-02
     -3.42947245e-01  -3.70304585e-01  -4.72449452e-01  -2.97990799e-01
     -1.90738261e+00  -1.20069754e+00  -8.17519367e-01   1.66066647e+00
      6.34640515e-01   3.54175419e-01   6.28260314e-01  -1.36590230e+00
      4.29418892e-01  -1.37737304e-01  -2.06669307e+00  -2.99708396e-01
      9.03605103e-01  -2.64036119e-01   1.22244966e+00  -9.69022214e-01
     -8.40992153e-01   3.16481829e-01  -2.10513377e+00  -4.26836610e-02
     -2.85633624e-01  -5.32380462e-01   3.82453144e-01   2.12728798e-01
     -1.08952010e+00  -2.04829359e+00   6.92790091e-01   3.23723704e-01
      4.34981376e-01   3.77729267e-01   5.63056096e-02  -5.84079862e-01]
   [ -7.72334993e-01   2.29713845e+00  -3.49330723e-01   3.14448029e-03
      1.66588530e-01  -1.18119192e+00  -7.52888381e-01   1.72581637e+00
     -7.47375369e-01   1.82937062e+00  -7.21204162e-01  -6.70874834e-01
      1.46827459e+00  -1.34084201e+00   2.71733761e-01  -9.85412717e-01
     -2.72250473e-01   2.33220384e-01   2.12745976e+00  -3.61403286e-01
      1.95941344e-01  -6.40567780e-01  -3.82448792e-01  -4.95097667e-01
     -2.83138418e+00  -1.45134878e+00   1.26342618e+00  -5.62968791e-01
      9.49058890e-01   2.65071249e+00   1.66675282e+00  -2.49670267e-01
     -5.60227871e-01  -8.91513348e-01  -8.21464241e-01  -9.23673153e-01
     -1.20921922e+00  -1.35294938e+00   5.43057740e-01  -6.66707903e-02
      4.77709293e-01  -1.76585484e+00   3.59633446e-01  -1.09563959e+00
     -2.23061964e-01  -1.41964352e+00  -6.98796690e-01   6.03419729e-02
     -5.08428991e-01   1.48387507e-01   1.82152212e+00   1.04052424e+00
      6.27194047e-01   3.71627569e-01   5.62273979e-01   7.35127553e-02
      6.35319352e-01   1.18243980e+00   3.02163437e-02  -6.00475013e-01
      4.07977790e-01  -1.53112328e+00  -1.82802394e-01  -8.96068037e-01]
   [ -1.58996865e-01   5.99958718e-01   2.12317443e+00  -6.58624768e-01
     -1.08755302e+00  -2.07403922e+00  -1.08577573e+00   1.15992859e-01
      8.77291024e-01  -1.10748553e+00  -7.46908724e-01  -6.55484200e-01
     -8.39143574e-01   1.51354420e+00   1.36015785e+00   1.01414394e+00
     -7.95695066e-01   6.07898273e-02   6.93174481e-01   1.24241598e-01
     -1.18408926e-01   1.56137264e+00   3.34541559e-01  -7.32862890e-01
      3.98265064e-01   6.92745686e-01   1.73531666e-01   7.38506377e-01
      1.06323278e+00   1.44304991e+00   2.11904979e+00   4.23716307e-01
     -1.34731364e+00  -1.02546883e+00   2.93643296e-01   5.03498077e-01
     -7.83558667e-01  -7.62530625e-01   1.10453784e+00  -7.36584902e-01
      6.40693843e-01   3.69813949e-01  -1.79539815e-01   1.26471877e+00
     -9.42470372e-01  -6.32345974e-01   5.47593832e-01  -1.35571039e+00
     -1.25749600e+00   1.80455697e+00  -6.46162391e-01  -2.08294487e+00
     -1.54715800e+00   1.30008340e+00   9.10919458e-02  -5.01638710e-01
     -1.69095671e+00  -3.84238243e-01  -6.82123721e-01  -2.60692865e-01
     -2.68012941e-01   4.84304339e-01   1.34975231e+00   2.28444934e+00]
   [  8.45763683e-01   3.91633883e-02   1.02444232e+00  -1.15617442e+00
      1.98764540e-02   3.70592237e-01   2.00477624e+00  -4.87279266e-01
     -8.42569172e-01  -5.69876432e-01  -2.76494510e-02   1.23067510e+00
      8.22192252e-01   5.09307742e-01  -2.91289520e-02   8.74158204e-01
     -7.07476437e-01  -2.22127423e-01   2.05010012e-01  -1.77085674e+00
      7.73733079e-01  -8.40129495e-01  -8.47964168e-01  -1.14368570e+00
     -4.05982107e-01  -7.12728500e-01  -7.41389394e-01  -6.74921691e-01
     -1.72132254e-01   1.39168298e+00  -1.12123680e+00   3.60900834e-02
      6.99498355e-01   4.02363151e-01  -1.40960824e+00  -3.43864262e-01
      6.11873567e-01  -8.81833434e-02  -4.45888668e-01  -1.02092254e+00
      1.64864922e+00  -5.29744744e-01   6.16784513e-01   7.61610806e-01
      6.01792872e-01   1.46000302e+00  -2.71922022e-01   7.16333866e-01
     -4.45667237e-01  -1.40896857e-01   1.68324220e+00  -4.26894911e-02
     -2.02243358e-01  -1.36758900e+00  -9.68268037e-01   1.40897289e-01
     -5.39327443e-01  -1.09043026e+00  -1.75839806e+00   2.42479175e-01
      9.98553932e-01  -1.74254194e-01  -2.89799452e-01  -1.67541444e+00]
   [ -1.78389120e+00   4.70718682e-01   1.54089630e-01  -6.26904011e-01
     -1.72820717e-01   1.35494399e+00   1.28434920e+00  -1.10238349e+00
      5.54017797e-02   1.08073175e+00  -1.60843968e+00   2.68746763e-01
      1.18143547e+00   9.92745399e-01  -2.00241733e+00   8.30261111e-01
      2.50864530e+00  -1.35544673e-01  -8.54379714e-01   8.57577026e-02
      9.06337619e-01  -4.73871619e-01   1.92817181e-01  -2.02734783e-01
     -3.57504249e-01   4.73498344e-01  -5.95786393e-01  -6.50862306e-02
     -2.54989058e-01  -3.62383366e-01  -1.31999895e-01  -2.35182419e-01
     -1.15326428e+00  -5.42671740e-01   3.83344173e-01   1.33433330e+00
      1.00296342e+00  -7.74511576e-01  -4.52998012e-01  -1.56024724e-01
      3.93785954e-01   1.32462248e-01  -1.29872411e-01   4.18087572e-01
      1.67219508e+00  -1.03823602e+00  -6.32608771e-01  -2.43788123e-01
      8.75996768e-01  -8.60761642e-01   5.76008141e-01   9.34105292e-02
      1.10209119e+00   4.45683241e-01   1.53642520e-01   1.47515625e-01
     -4.82196063e-01   1.08488309e+00   4.07909244e-01  -8.79792273e-01
     -6.20345652e-01   2.64777243e-01   8.68932545e-01   1.59553826e+00]
   [  2.35380888e+00   3.52196008e-01   1.28033817e-01  -2.45763016e+00
      3.97418797e-01  -8.63705516e-01  -3.34705174e-01   2.59873778e-01
     -1.35458398e+00  -4.92991924e-01   1.12522876e+00  -6.69573665e-01
      3.69953692e-01   7.96749651e-01   3.43030781e-01  -1.89956173e-01
      2.47993693e-01   1.47805762e+00   1.29467797e+00   8.16100597e-01
     -1.35996330e+00   4.78514999e-01  -7.26779342e-01   9.01488662e-01
     -1.17013216e-01   1.25055587e+00  -1.13987446e+00   7.35095441e-01
     -3.02232683e-01   8.18190992e-01   1.65634707e-01   1.25548613e+00
      8.66416171e-02   2.17199492e+00   1.90099418e-01  -3.84441495e-01
     -6.64995432e-01   2.59473603e-02   1.50593787e-01   3.04285944e-01
     -4.74022627e-01  -7.95807019e-02  -1.52225649e+00   1.70783210e+00
     -2.12581113e-01  -1.06810617e+00   3.74975234e-01  -4.34647113e-01
     -1.03548324e+00  -8.82378936e-01  -5.38388550e-01   1.04553580e+00
     -1.31374025e+00   1.09979674e-01  -8.61559987e-01   5.50361693e-01
      9.65463638e-01   1.69932771e+00  -1.50761873e-01  -1.87052739e+00
      5.13681293e-01  -4.55296963e-01  -3.50896716e-02   2.88548946e-01]
   [ -1.53369695e-01   1.02512203e-01   1.37383416e-01  -2.53727746e+00
     -6.44675732e-01   2.21806908e+00   1.95492029e+00   6.11756027e-01
      2.74147809e-01   1.43296790e+00   3.30709171e+00   2.07352787e-01
      1.06848001e+00   9.88837481e-01  -7.58130491e-01   2.04140711e+00
      3.03921133e-01   2.64097601e-01  -7.58078516e-01   3.17670256e-02
     -6.33404851e-01  -9.78022516e-01  -3.57647896e-01   7.73578465e-01
     -3.64137530e-01   4.82376665e-01  -3.12140822e+00  -1.48257530e+00
     -7.28636205e-01   4.15405452e-01   1.30263254e-01   1.93739450e+00
      4.30455685e-01  -6.40524551e-02   1.86190069e+00  -5.62495470e-01
      7.60020494e-01  -1.89354825e+00   2.20747292e-01   1.30631030e+00
     -1.74541891e-01   1.41930461e+00  -8.65559399e-01   6.65839016e-01
      7.81665266e-01  -6.14100337e-01  -6.46965504e-01  -3.75716686e-01
      1.01297712e+00  -2.90092856e-01   2.87619472e-01  -9.72755849e-01
     -4.42361943e-02  -3.78236353e-01  -1.65281188e+00  -2.82767832e-01
      6.34845018e-01   8.22641850e-01   2.04893255e+00  -8.84427547e-01
     -2.74613428e+00   1.53373495e-01  -1.45283341e-02  -1.17052086e-01]
   [ -3.17406088e-01  -4.70115304e-01   3.51795614e-01   3.91239971e-01
      6.61918744e-02   1.81591973e-01   1.38349846e-01  -6.42071128e-01
     -1.13877261e+00  -8.07447553e-01  -1.56280488e-01   1.57700586e+00
     -1.59617230e-01  -7.03233182e-01   1.31487399e-01   1.26069367e+00
     -4.82560694e-01   6.02175713e-01  -5.34626365e-01  -1.16185689e+00
      9.10970211e-01   1.00301552e+00  -1.77320647e+00   5.90134144e-01
     -7.63132870e-01  -4.30815428e-01   5.75351976e-02   2.54244328e-01
      1.25700462e+00  -2.15419579e+00  -4.33348417e-01  -2.26409167e-01
     -4.91958797e-01   3.03804487e-01  -2.79018283e-01  -7.36050606e-01
      5.47151744e-01   1.50504887e+00   2.91475147e-01  -9.89614904e-01
      8.08036029e-01  -1.30473459e+00  -7.58027852e-01   6.66994333e-01
      6.32831514e-01  -1.88028717e+00  -1.28781331e+00   1.14304507e+00
     -6.82060301e-01   1.07695663e+00   1.24916114e-01  -2.75825381e-01
      1.87374842e+00  -7.34476864e-01  -5.85396767e-01   8.93547297e-01
     -7.54587293e-01  -9.34033915e-02  -1.04992473e+00   2.62445450e-01
      1.60291925e-01   1.27696538e+00  -2.73617887e+00  -1.69247687e+00]
   [ -7.12366819e-01  -3.14881384e-01   6.62800252e-01  -1.51370776e+00
     -1.78548977e-01  -9.56731200e-01  -4.32925671e-01  -1.19136024e+00
     -1.56312239e+00  -8.85767698e-01   2.74515581e+00   9.78193998e-01
     -1.06521726e+00  -1.02484353e-01   7.43830025e-01   1.99073598e-01
     -4.81786191e-01   6.42103672e-01  -4.79514301e-01  -4.21453834e-01
      9.01154459e-01  -1.82221055e+00   1.39747933e-01  -5.97090960e-01
      5.39236367e-01  -1.26840067e+00   1.32738042e+00   6.45833731e-01
     -7.02682853e-01  -1.00209332e+00   9.80396450e-01  -1.82529616e+00
      7.90249169e-01   3.00753433e-02   1.19627106e+00  -1.32597196e+00
      3.61912400e-01  -1.13227975e+00   7.84675300e-01   4.58835542e-01
     -5.02565384e-01  -2.07325864e+00   8.77581298e-01  -8.58121291e-02
      1.34548202e-01  -9.83879268e-01   1.49589813e+00   5.62888309e-02
      2.04992741e-01   6.02999747e-01   7.95221090e-01  -6.17323697e-01
      1.34955990e+00   9.47889745e-01  -2.59635925e+00  -1.87909663e+00
      8.95494372e-02   4.70152944e-01  -1.11433053e+00   2.12393671e-01
     -8.39160740e-01  -4.20714259e-01  -8.55735362e-01   8.07598174e-01]
   [ -3.69789392e-01  -1.56501889e-01  -1.18119192e+00  -1.39153230e+00
     -1.02375650e+00  -5.03301714e-03   2.68493533e-01  -1.57265872e-01
      2.18956614e+00  -8.95826817e-01  -9.46059048e-01   7.74427652e-01
     -1.71279967e+00  -2.55140841e-01   9.74920392e-01   4.70512897e-01
     -4.75414127e-01  -1.17645431e+00  -2.36018991e+00   1.38507736e+00
     -1.06101346e+00  -3.54447751e-04   8.06081474e-01  -6.51399076e-01
     -4.28459018e-01  -2.61790186e-01   5.31316757e-01  -1.14664185e+00
     -5.95129691e-02   1.90251827e+00   1.06907356e+00   3.09752643e-01
      5.09148419e-01  -9.78157222e-01   1.91394448e+00   4.60268743e-02
     -4.62658614e-01  -1.05532873e+00  -6.26008332e-01   1.11125898e+00
      6.43581450e-01   1.31942046e+00  -1.23616123e+00  -6.93730295e-01
      1.42791364e-02   2.15869918e-01  -6.01683617e-01  -6.80446565e-01
      2.35650468e+00  -5.28213799e-01  -1.67239153e+00  -1.40602660e+00
      3.08885962e-01  -1.73735452e+00   1.30840945e+00   3.62227201e-01
     -1.01092851e+00  -2.50562072e+00   4.07004446e-01   1.95948392e-01
      1.79835689e+00   1.31635451e+00  -4.33891527e-02  -1.24893941e-01]
   [ -2.17182375e-03  -1.52966917e+00  -1.24147189e+00   1.07049727e+00
     -1.53833449e-01   3.51714820e-01  -3.80252153e-01  -1.63034773e+00
      1.76127267e+00  -4.49110746e-01   6.42481029e-01  -1.45811602e-01
      7.69582391e-01   2.13612422e-01  -7.67035842e-01   9.50841755e-02
     -4.67667609e-01   1.44992948e+00   3.38408388e-02   1.29680252e+00
      1.17833543e+00  -1.23985671e-01  -1.25781491e-01  -4.68587428e-01
     -2.93655336e-01   7.55766258e-02  -4.90679920e-01  -6.32422209e-01
      1.74956486e-01  -5.84460378e-01  -4.31497693e-01   1.21517606e-01
     -2.87720352e-01   1.86879265e+00  -4.41793829e-01   9.30544496e-01
      1.52164483e+00  -6.61769390e-01   7.37655044e-01  -7.72087514e-01
      9.45530474e-01   1.18037438e+00   9.97215062e-02   7.67596424e-01
     -4.59324986e-01  -4.63093758e-01  -3.66052359e-01  -8.45535815e-01
      8.62077117e-01   7.46080637e-01  -4.86399919e-01  -1.61736012e+00
     -1.12934518e+00  -4.01008964e-01   7.82058090e-02   1.45954561e+00
      3.71501110e-02   1.00777483e+00  -2.82523215e-01  -2.59794984e-02
      4.52002347e-01   9.21954274e-01  -1.54229879e+00  -8.14041674e-01]
   [  7.23147869e-01   1.14844835e+00   1.04719520e+00   6.07225895e-01
     -5.31085789e-01   9.43729162e-01   2.02451244e-01   1.26689017e+00
      1.01352370e+00   7.13918805e-01  -1.59756780e-01  -5.98504841e-01
      1.28172565e+00  -3.02372366e-01  -1.56496572e+00  -7.88149983e-02
      9.56496298e-01  -2.31187105e+00  -1.52752244e+00  -1.27965271e+00
      4.38871861e-01   1.41250059e-01   5.97371161e-01  -2.22957060e-01
      6.34451807e-01   9.33905900e-01  -1.16490304e+00  -1.19572914e+00
      6.84393942e-01   1.79767534e-01  -8.25155735e-01  -1.11082816e+00
      8.97201657e-01   1.21832860e+00   6.98275685e-01  -5.41573048e-01
      3.59825492e-01  -6.21478595e-02   8.21626663e-01   8.07837844e-01
     -4.58695441e-01   1.05048694e-01  -5.92341483e-01   1.09992969e+00
      4.11815405e-01  -1.38719529e-01  -5.67831397e-01   4.66888100e-01
     -6.28293395e-01   1.54050156e-01   7.07840085e-01   1.28197432e+00
      9.26303267e-01  -1.09496021e+00   2.42383456e+00  -2.30014634e+00
      3.16916674e-01  -1.26247036e+00  -5.83354414e-01   8.19268227e-01
     -4.92276579e-01  -1.03360724e+00  -2.50217533e+00   9.48508918e-01]]

  [[ -1.99181810e-01  -1.23193455e+00  -2.50907063e+00  -1.98745653e-01
     -1.50906384e-01  -2.45451540e-01  -2.41610900e-01  -1.05143273e+00
     -2.39213437e-01   3.43464129e-02   8.39137435e-01  -1.47379529e+00
      9.74929810e-01  -9.67094839e-01   4.04409021e-01  -4.43999857e-01
     -1.05491638e+00   2.48284742e-01  -2.65938091e+00  -1.00932634e+00
     -7.46905625e-01   1.04646635e+00   1.75940037e+00   1.26131618e+00
      2.23478770e+00   1.58305132e+00  -6.08362019e-01   1.51636362e+00
     -3.84153605e-01  -3.87226284e-01   1.40971851e+00  -1.52001953e+00
      3.31120253e-01   8.97714376e-01  -7.44869292e-01   1.11567891e+00
      1.14958572e+00  -1.95077705e+00  -6.78520739e-01  -2.39734483e+00
      9.31014195e-02  -5.44362426e-01  -1.32663071e+00  -2.19298229e-01
     -9.03250337e-01   1.82177708e-01   7.73348868e-01  -2.75717688e+00
     -2.22760051e-01  -1.27291679e+00  -5.34575403e-01  -9.32275891e-01
     -9.40811515e-01  -1.78045344e+00   4.77990240e-01  -2.06303239e+00
     -9.34428096e-01   2.75417060e-01  -5.76938910e-04   6.87929988e-01
      1.70729890e-01  -1.31176484e+00  -1.09049714e+00  -4.94518548e-01]
   [  9.00991440e-01  -5.35018623e-01  -2.26751000e-01  -2.57814229e-01
      5.71495712e-01  -1.14615567e-01  -1.54247391e+00   9.69428495e-02
     -5.95383234e-02   1.29369128e+00  -2.24769801e-01   5.01192272e-01
      3.92991364e-01   1.50851262e+00   1.26573098e+00  -3.95383328e-01
     -2.37155318e-01  -1.89486295e-01   7.94052720e-01   1.61968756e+00
     -2.83944488e-01  -1.19479752e+00  -1.19381893e+00   4.39981192e-01
      1.04034317e+00   1.15307117e+00   1.59612143e+00  -1.67864394e+00
      1.27378178e+00   8.92890036e-01  -4.18065608e-01  -4.90785599e-01
     -5.45472682e-01   4.83128220e-01   2.84997020e-02  -2.13589638e-01
     -9.28167284e-01  -1.61082670e-01  -9.65225101e-01   3.70692968e-01
      1.21491230e+00  -1.01594031e+00  -1.10819125e+00  -1.23344138e-01
      1.24241459e+00   1.21322632e+00   7.38186896e-01  -9.62538779e-01
      1.09313680e-02   9.15326774e-01  -1.13798022e+00  -4.23253864e-01
     -4.11385857e-02  -2.13628125e+00  -1.97355974e+00  -6.55216932e-01
      1.02511346e+00   1.30472827e+00   8.82113278e-01  -2.88092792e-01
     -6.44161463e-01  -1.04616630e+00  -1.73207450e+00  -3.65716606e-01]
   [ -7.78169572e-01  -2.33653188e+00   1.36858273e+00  -2.85226822e+00
      3.35016511e-02  -2.16228813e-01   7.04299331e-01  -3.74460757e-01
      6.43322542e-02   3.42660308e-01  -2.54271460e+00  -8.88770912e-03
     -1.91725004e+00  -1.68449056e+00  -1.59945595e+00  -4.37101126e-01
     -9.23464715e-01  -3.15763772e-01  -1.35540402e+00   1.84051439e-01
     -4.81132977e-02   1.71007204e+00  -1.00318325e+00   5.92422068e-01
      5.07920802e-01   7.84760237e-01   6.51803195e-01   1.24031246e+00
      3.25099170e-01  -1.31034291e+00   1.78299360e-02   1.54570127e+00
     -5.84915936e-01   1.77895010e+00   2.84392762e+00  -1.56514704e-01
     -2.20048383e-01  -1.64522743e+00   1.45279694e+00  -6.26477182e-01
     -7.18433380e-01  -1.11132503e+00  -2.10850644e+00   1.44946241e+00
     -8.30323637e-01   7.67584920e-01   3.77963454e-01  -4.66013819e-01
     -1.08325934e+00  -2.38942698e-01   1.08257079e+00   1.05879354e+00
     -1.19922292e+00   4.08025891e-01   8.44385803e-01  -1.52177966e+00
      5.17489195e-01   1.34466529e+00   3.80387753e-01  -3.00053388e-01
      6.19875491e-01   4.80194211e-01   1.60798717e+00   9.82450366e-01]
   [ -1.61557174e+00   2.01261497e+00   2.30083063e-01   2.16637778e+00
     -8.45067859e-01  -1.22599173e+00  -1.47150648e+00   3.31292152e-01
      1.30180657e+00   4.19874310e-01  -1.25982332e+00  -7.70742148e-02
     -1.64364088e+00  -3.52615118e-01  -5.38888335e-01  -8.07422459e-01
     -2.09574148e-01   5.41606285e-02   8.07356596e-01   2.26718560e-01
      1.22946024e+00   1.48197049e-02   7.14294851e-01  -1.96451747e+00
     -2.20565021e-01  -9.62654412e-01   1.20577490e+00  -2.32920736e-01
      1.81629789e+00  -1.20669261e-01  -1.56381345e+00   1.70896304e+00
      1.05577715e-01  -2.20036760e-01  -2.20363751e-01   2.62798760e-02
      1.92960814e-01  -8.23472619e-01   3.20248911e-03   1.68788564e+00
     -2.13216662e-01   1.12765026e+00  -9.39386189e-01   1.54897559e+00
     -3.32953632e-01   1.00188708e+00  -7.04290092e-01  -9.07854363e-02
     -1.33813322e-01  -1.20947206e+00  -2.06005788e+00  -3.95833313e-01
      4.81374972e-02  -8.60418677e-01  -1.22559476e+00  -1.48529306e-01
      5.35396993e-01   6.19967699e-01  -1.14979737e-01   3.53431404e-02
     -9.01807964e-01  -2.82036042e+00   2.62525111e-01   8.74623656e-01]
   [ -3.18609588e-02  -3.74999940e-01  -1.11210656e+00  -2.53919244e-01
     -1.16990650e+00  -4.09447253e-02  -4.80760068e-01  -5.63519955e-01
      3.90703589e-01   6.72786653e-01  -6.23050451e-01   1.16845214e+00
      4.61881794e-02  -1.35814095e+00  -8.21027517e-01  -1.01239955e+00
      2.64583617e-01  -1.06017339e+00   7.13009238e-01   1.69041693e+00
      3.24859738e-01  -6.22849941e-01   1.29529524e+00  -6.96751356e-01
      8.19162428e-01   4.77078080e-01   1.05375516e+00  -4.24346104e-02
      1.38775313e+00   1.03960782e-01  -5.78963459e-01  -8.42858374e-01
      1.42814732e+00   9.26948071e-01   1.27517545e+00   4.24113035e-01
      3.95810157e-01   6.83656216e-01  -1.01407528e-01  -4.45804656e-01
     -9.20388937e-01   9.62787345e-02  -1.52233207e+00  -1.83445561e+00
      7.67114341e-01  -1.14824986e-02  -6.75231755e-01  -1.15913546e+00
      6.16108477e-01   1.35988314e-02  -2.62041628e-01   1.93162084e+00
     -3.30329180e-01   7.24568367e-01  -6.62935227e-02  -2.52454329e+00
     -8.51039469e-01  -1.26980758e+00  -2.65833586e-01   1.61740172e+00
      2.41883349e+00  -1.37250698e+00  -2.20774579e+00  -4.97635126e-01]
   [  1.27113044e+00   5.60592294e-01   2.39034677e+00   2.40565300e-01
     -5.82933784e-01  -4.14967746e-01   8.46913874e-01  -1.33398139e+00
      2.82700002e-01   5.03454030e-01  -1.29324150e+00  -1.69774580e+00
     -1.09774566e+00   8.32581878e-01   8.76835287e-02   7.11353958e-01
     -1.45249808e+00  -1.51963040e-01   4.09284323e-01   1.09783399e+00
      6.89759135e-01   7.75277197e-01  -1.35277629e+00   6.90602422e-01
     -1.24259114e+00   5.58348656e-01  -8.87992159e-02  -1.01974916e+00
     -5.29034948e-03  -8.84072125e-01   2.94906616e-01   1.37683690e+00
     -9.55128491e-01  -1.86993480e+00   9.11739349e-01  -6.48140669e-01
      1.33808658e-01   2.78780729e-01   1.32824406e-01  -2.57494539e-01
      1.43506050e+00  -1.54647064e+00   8.76832157e-02  -4.24443394e-01
      1.01358449e+00   2.35725522e-01  -5.66641688e-01  -1.57219601e+00
     -4.90199476e-01  -3.24923038e-01  -2.33868688e-01   7.60579109e-01
     -6.75505102e-01  -1.74296772e+00   2.10768700e-01   7.45201036e-02
      4.00077812e-02  -1.72608003e-01  -4.99396414e-01   1.78639019e+00
     -1.84620094e+00   8.21964443e-01  -3.77635658e-01  -1.19222081e+00]
   [ -1.02384770e+00   1.82603133e+00  -1.20995827e-01   2.59054899e+00
      3.83081198e-01   3.00663617e-02  -2.63702154e-01   6.38460100e-01
      3.47133994e-01   1.57472587e+00  -9.03621614e-01   2.40911508e+00
      8.35975468e-01  -5.62151372e-01  -7.80173987e-02   1.09109664e+00
      6.43881857e-01  -2.34371647e-01   3.74200195e-01  -1.18798745e+00
     -2.16551185e-01   4.59276259e-01   1.71992064e+00   1.21420884e+00
     -6.41659414e-03   1.44508827e+00   7.85364583e-02  -1.16494572e+00
      7.93726981e-01   5.62924385e-01   4.86025274e-01  -2.77383089e-01
     -9.48294938e-01  -1.53454041e+00   1.87022127e-02   1.52312708e+00
      4.32857014e-02  -5.47176480e-01   1.76151526e+00  -2.13299125e-01
     -8.19412887e-01  -1.63317084e+00  -5.63709974e-01  -4.21744972e-01
      5.75162947e-01  -5.02954245e-01  -1.33152509e+00  -1.59238708e+00
     -1.57757497e+00   5.23091108e-02   2.25517243e-01   1.19697437e-01
     -1.33808315e-01  -4.04003143e-01   1.16300888e-01   6.25597417e-01
      1.53870618e+00  -4.29443568e-01   9.46206391e-01   2.25356564e-01
      1.67000639e+00  -1.36072218e+00   6.99190557e-01  -8.76579210e-02]
   [ -3.35287035e-01  -1.20846748e+00  -6.01420403e-01   6.76477328e-03
      6.42619491e-01   6.84862211e-02  -1.69915724e+00  -3.17987144e-01
     -2.94936508e-01   2.00857997e-01   8.00392210e-01   2.77413201e+00
      2.96190929e+00   1.28030568e-01   1.73665881e+00  -6.20979548e-01
     -2.35230088e+00   2.71062046e-01   2.21060872e-01  -1.73018813e-01
     -1.30479312e+00   4.97449011e-01  -1.45051813e+00   7.31233656e-02
      1.50495803e+00  -9.27064300e-01  -4.87481683e-01   9.00348961e-01
     -5.95946848e-01   1.81453705e-01  -1.01983421e-01  -1.66963577e-01
      2.06141710e+00  -1.03342855e+00  -3.85312706e-01   2.95667917e-01
     -6.59209609e-01   4.92103934e-01  -1.30491376e+00   4.52786624e-01
      9.83532667e-01  -1.52086592e+00  -2.39612913e+00   6.02436781e-01
      5.33019781e-01   1.71192276e+00  -1.26151037e+00  -7.80352727e-02
     -1.88919336e-01  -7.11184621e-01   7.52556622e-01   4.33543846e-02
     -1.41711943e-02  -1.39205337e+00   5.61378337e-02  -2.51423925e-01
     -2.55531192e+00   2.84554148e+00  -1.19975531e+00  -3.32858801e-01
      6.01690650e-01   2.36337543e-01  -5.71837127e-01   1.01738143e+00]
   [ -7.96597660e-01   2.52673519e-03  -2.32655191e+00   1.52638984e+00
     -6.13201380e-01  -1.74362481e+00  -1.49410963e+00   2.10950971e-01
     -1.91275680e+00   2.41739586e-01  -1.46386051e+00  -7.23994374e-02
     -6.85189962e-01  -8.26584280e-01   1.61430264e+00   1.86443377e+00
     -4.45185930e-01   1.26172364e-01  -1.19187725e+00   9.88303185e-01
     -5.38640797e-01   2.16676068e+00   1.39519978e+00  -3.63966562e-02
      9.83575642e-01   1.60135284e-01  -1.22064404e-01  -6.98333085e-01
     -5.08991256e-02  -1.67915916e+00  -9.68027234e-01  -7.41749465e-01
      5.94790339e-01   7.36268163e-01   1.37402451e+00   6.76978409e-01
     -3.94080905e-03  -2.18169260e+00  -6.40644968e-01   9.70382214e-01
      8.03730428e-01   2.38192901e-01   2.66987348e+00  -5.48157394e-01
     -7.51453221e-01   1.04974592e+00  -1.53642404e+00   4.68894243e-01
     -5.69564164e-01   1.76804447e+00  -2.86249928e-02  -2.99122483e-01
      7.46960640e-01   2.33674836e+00  -8.36236954e-01   8.86110485e-01
     -8.94169956e-02  -6.78053081e-01   1.07263088e+00  -1.95612870e-02
     -4.28571433e-01  -3.91424119e-01  -2.77461338e+00  -2.98279107e-01]
   [  1.17834437e+00  -4.24674779e-01  -1.87435853e+00  -8.28581691e-01
     -9.90503848e-01   1.51004481e+00   2.97396004e-01   1.72917998e+00
     -1.75360255e-02   1.83106869e-01   1.96039784e+00  -5.47463559e-02
     -3.75579953e-01  -5.68573654e-01   5.46495132e-02   3.39078784e-01
     -1.35964668e+00   8.78881454e-01   1.10099220e+00  -8.37164998e-01
      9.40454960e-01   1.48065829e+00  -8.51317048e-01  -1.02220678e+00
     -6.98699415e-01  -5.21723833e-03   5.19766152e-01   1.56468081e+00
      2.54150122e-01  -1.46671748e+00   1.43976283e+00  -9.27150786e-01
     -2.62737215e-01   1.63979977e-01   9.28583086e-01  -6.35895789e-01
     -4.68092561e-01  -1.32759285e+00   2.52604038e-01   9.37692165e-01
     -1.11294937e+00   7.17853546e-01  -1.00945264e-01  -2.23303056e+00
     -1.02326775e+00   1.69716215e+00   4.31346536e-01   1.05975115e+00
     -3.62051487e-01   1.38148355e+00  -8.05946171e-01   6.04226768e-01
      1.56852984e+00  -7.82944620e-01   1.20392990e+00  -2.44528699e+00
     -4.32345450e-01   9.83916104e-01   4.23126556e-02  -3.38178098e-01
      1.59778655e+00   7.30417073e-01   5.92195749e-01   2.91034281e-01]
   [  9.19526041e-01   8.35428238e-01  -1.11935444e-01   8.59127641e-01
      8.01864564e-01   5.52523494e-01   6.37486935e-01   5.11387348e-01
     -6.27963543e-01  -7.58454740e-01   3.41526747e-01   2.10162473e+00
      1.46690965e+00  -1.08757174e+00  -3.38904291e-01   4.22906518e-01
     -5.45722783e-01  -8.19277644e-01   1.41617584e+00  -1.58504352e-01
     -3.88502181e-01   8.05858374e-01  -1.38716483e-02   6.91994011e-01
      1.50416970e+00   1.01263595e+00   2.57460624e-01  -8.63473833e-01
     -8.00796926e-01   4.58920896e-01   1.87098369e-01  -1.20155287e+00
      1.48808539e+00  -8.95211995e-01  -2.36705804e+00   1.05252850e+00
     -2.37263894e+00  -3.55982542e-01   1.27694273e+00   1.38988233e+00
     -8.07523251e-01  -5.72493374e-01  -4.77480412e-01   2.78157800e-01
      1.58368242e+00   4.36017625e-02   1.10464728e+00  -6.46446884e-01
     -1.13337505e+00  -1.22615933e+00  -1.47225523e+00  -1.55000067e+00
      2.87861139e-01   8.41611683e-01   2.37230808e-01  -6.15306318e-01
      4.81485993e-01  -1.12594128e-01  -1.09065071e-01  -7.99416721e-01
     -5.35421848e-01  -1.17255604e+00   1.20298937e-01  -1.06479228e+00]
   [  3.88487756e-01  -3.61473471e-01  -1.02737629e+00   1.07682157e+00
     -3.07057261e-01   2.42520988e-01   1.73125422e+00  -4.29523438e-01
      6.08407617e-01   1.85007477e+00  -4.33829486e-01   1.96514654e+00
      5.12424827e-01   4.84565169e-01   9.80916619e-02  -4.51510847e-01
     -1.34531951e+00   9.50335503e-01   8.54629636e-01   2.93535233e-01
     -1.80630401e-01  -8.41333449e-01   5.07483423e-01   7.36490488e-01
      3.85307044e-01  -1.01207651e-01   1.59048289e-01  -1.35801399e+00
     -8.49998817e-02   1.76935166e-01  -7.08044410e-01   1.26346827e+00
      3.22637171e-01   2.45190307e-01   1.68456244e+00  -7.05742836e-01
     -1.07807481e+00   7.98109233e-01  -2.10816526e+00   9.48127449e-01
      2.89431810e-02  -7.89404392e-01  -1.87793303e+00  -1.02397716e+00
     -2.98420519e-01  -1.16063547e+00   5.91187537e-01  -3.53413284e-01
     -9.04257715e-01  -1.50332630e+00   2.34291267e+00  -7.32109308e-01
      5.10034621e-01   4.05550390e-01  -6.03871942e-01  -5.42041242e-01
     -9.19859018e-03   5.66523075e-01   1.11001420e+00   2.46955737e-01
     -6.82613611e-01  -7.12337136e-01  -1.30243683e+00   1.58430624e+00]
   [ -2.16038272e-01   1.26490736e+00   1.99608892e-01  -7.29063690e-01
      8.63129020e-01   1.33532381e+00  -1.87606439e-01  -1.75072515e+00
     -7.78376877e-01  -6.53879762e-01  -1.64369202e+00   9.92880985e-02
     -4.04929817e-01   1.48941767e+00  -1.37613088e-01   1.56189609e+00
     -4.97468442e-01  -1.17634213e+00  -1.30240667e+00   6.48647547e-01
     -7.19377339e-01  -3.46403057e-03   1.62708664e+00   6.72296643e-01
      6.07641995e-01   6.48243904e-01   5.93140483e-01   3.88340324e-01
     -7.64456809e-01   5.88392556e-01  -3.50694567e-01   2.79797107e-01
     -1.98178422e+00  -3.90236318e-01  -1.05245352e-01  -3.00751239e-01
     -8.20848048e-01   7.80492783e-01  -5.06933153e-01   2.42268667e-01
     -1.28346607e-01  -5.59323132e-01   6.65626884e-01  -1.49964273e-01
      2.24249378e-01   9.64629292e-01  -2.54915500e+00   5.39721966e-01
      7.90646970e-01  -1.85330677e+00   2.68888593e-01   1.37070799e+00
      1.41570473e+00  -2.25227639e-01   1.47887051e+00   7.25920737e-01
     -7.84451485e-01  -1.11642253e+00  -1.87732196e+00  -1.18761647e+00
      1.50936484e+00   1.79826295e+00  -3.37459654e-01   3.96539748e-01]
   [  1.34180450e+00  -2.62468249e-01  -7.64829338e-01   5.79643436e-02
     -8.86596322e-01  -5.33855796e-01  -5.24574697e-01  -1.58346474e+00
     -5.71424328e-02  -4.66517299e-01  -1.25523376e+00   1.58545196e-01
     -1.02876687e+00  -1.59514153e+00  -7.66905537e-03   1.41882682e+00
      2.46907187e+00  -1.98545706e+00   1.16514839e-01  -2.76223779e-01
     -1.68186784e+00   1.19378760e-01   1.15202296e+00  -8.89058053e-01
      1.64805487e-01   3.74189526e-01   5.57882071e-01   1.14539313e+00
     -5.91947377e-01  -1.57401240e+00  -8.97559464e-01   1.09151626e+00
     -3.78422916e-01  -3.93904209e+00  -6.80461526e-01   5.76796770e-01
      1.15420747e+00   1.87041104e+00   4.08487380e-01  -9.39486474e-02
     -2.11883962e-01   8.36759329e-01   1.85086355e-01   8.35523069e-01
      2.40068331e-01  -2.40220428e-01   7.51408398e-01  -8.66528094e-01
     -9.49142694e-01  -1.15121710e+00  -3.98553878e-01  -1.42075527e+00
      3.93575907e-01   3.60608608e-01  -1.54609114e-01  -7.42842779e-02
     -3.42623204e-01  -1.15825391e+00  -5.54269314e-01   8.50935996e-01
     -1.60404122e+00   1.76900029e-01   1.18179882e+00   7.49181867e-01]
   [ -5.04683554e-01  -3.71225744e-01   9.83606100e-01  -8.55784416e-01
      9.34536904e-02  -6.10613406e-01  -3.21920604e-01   1.91671658e+00
     -7.51068056e-01   1.73989081e+00  -1.10087514e+00  -1.27291512e+00
     -4.12017345e-01   7.09247410e-01   2.98171818e-01  -1.66714096e+00
     -7.28312194e-01   3.25738311e-01  -1.08888638e+00  -1.39879274e+00
      1.15996289e+00  -4.25300628e-01  -4.11533974e-02  -1.03721225e+00
     -4.35947299e-01  -1.01112330e+00   1.96870327e+00  -1.90111727e-01
      4.84180152e-01  -1.62522197e-01  -4.33090478e-01   2.17810899e-01
      1.42896950e+00  -2.36168206e-01   2.72081637e+00   1.79065907e+00
      1.35867894e-01   1.00403142e+00   7.15632215e-02  -1.37120992e-01
     -2.06452198e-02  -8.78273845e-01   1.59922707e+00  -2.74333805e-01
     -1.95187259e+00   2.44705692e-01   1.73646617e+00   7.07223713e-01
     -2.92132527e-01  -3.42215806e-01  -4.70163614e-01   1.70071387e+00
     -1.16552269e+00   9.71218646e-02  -3.23277533e-01   6.33934379e-01
      3.68238211e-01  -2.07095355e-01   6.49012685e-01  -5.17417312e-01
     -1.46827030e+00   2.32522637e-01   9.02861893e-01  -7.84183502e-01]
   [ -5.75735748e-01  -7.31669486e-01   2.24394351e-01  -1.80266285e+00
      3.55461478e-01  -1.93151259e+00   1.09334469e-01  -1.34148717e+00
     -1.18255699e+00   1.42672241e+00   7.71030411e-02   1.40805364e+00
      6.19430006e-01   6.57438815e-01  -8.77002656e-01  -8.03772032e-01
      9.78247464e-01   1.75787330e+00  -1.99798977e+00  -4.15042847e-01
      2.00550437e+00  -4.26292002e-01   2.97854137e+00  -8.02873611e-01
      7.57154822e-01   1.48065194e-01  -3.24912459e-01   3.84911478e-01
      1.56022954e+00   1.14074898e+00   1.34193099e+00  -6.39145434e-01
     -8.96615922e-01   1.88619709e+00   1.59344685e+00   1.71435761e+00
      1.05282593e+00  -5.09273589e-01  -1.65886194e-01   3.94034415e-01
      8.51724863e-01   5.45311928e-01  -4.88791198e-01  -4.65392917e-01
     -6.82341278e-01  -7.77713597e-01   7.14962840e-01   2.70108040e-02
     -2.63038993e-01  -1.40918061e-01   1.00183062e-01  -5.23945928e-01
      1.22540200e+00  -1.22518098e+00   4.17929381e-01  -1.63914040e-01
      5.11520147e-01   1.19425163e-01   1.43907738e+00  -3.42521846e-01
     -3.58887702e-01   1.52811185e-01   1.04713082e-01  -6.21515393e-01]
   [ -4.84027952e-01  -2.08887959e+00   1.03673100e+00   2.36222243e+00
      1.30348921e+00  -3.81047189e-01   3.80955279e-01   1.04668319e+00
      1.22571278e+00  -2.46834278e-01   9.96901035e-01   6.43045247e-01
     -3.24583679e-01  -5.49296975e-01  -8.17011058e-01   1.03280567e-01
     -3.37041378e+00   3.01570386e-01   1.09771061e+00   2.10706651e-01
      1.02705026e+00  -7.73913085e-01  -6.24081254e-01   4.32792306e-01
      2.61097252e-01  -6.62892759e-01   8.29284012e-01   2.27123141e-01
      1.13031574e-01  -1.17432380e+00  -1.00748408e+00  -1.17449212e+00
      8.36178124e-01  -1.34968770e+00  -5.78260779e-01  -2.52694488e-02
     -2.08940953e-01   1.14356530e+00  -2.84021765e-01  -3.50354582e-01
      1.43205667e+00   1.59359050e+00   1.50389060e-01   3.47300529e-01
      9.55563724e-01  -7.00353444e-01  -3.33579570e-01   1.29287457e+00
     -4.97887909e-01  -1.73254347e+00  -9.45134878e-01   1.69388211e+00
      8.20950449e-01  -1.28947818e+00  -1.13735981e-01   2.05428767e+00
     -1.92655015e+00   5.11798322e-01  -7.59344816e-01   8.04955900e-01
     -1.39292192e+00   7.17684209e-01   1.65023565e-01   2.13652149e-01]
   [  1.68866360e+00  -4.47069556e-02  -7.09981322e-01   4.19658214e-01
     -3.38741168e-02  -1.11124253e+00   2.19688803e-01   2.57439345e-01
      1.53082287e+00  -8.44131827e-01  -2.07081720e-01  -4.55636919e-01
      9.21102405e-01  -6.45285130e-01   2.79620320e-01  -3.00248533e-01
     -8.22165430e-01   1.99678457e+00  -3.76517862e-01   2.47319221e-01
     -2.49210691e+00  -7.79422581e-01  -1.50626528e+00  -9.82521415e-01
      7.70181596e-01  -1.17527342e+00   1.10719204e+00  -1.71544492e+00
      1.75764251e+00   5.01962245e-01   1.66953182e+00  -9.30637121e-01
     -1.81534278e+00  -5.19385874e-01   1.10377479e+00  -1.61390394e-01
     -2.96855837e-01   9.84660149e-01  -1.34318566e+00  -1.53361058e+00
     -7.53124356e-01  -1.09196472e+00  -1.39124644e+00  -1.84491527e+00
      6.08020306e-01  -2.26959333e-01   2.64388502e-01   4.26984072e-01
      1.11196923e+00  -1.50023806e+00   1.34664083e+00  -3.90588529e-02
     -1.58462799e+00   8.60606015e-01   8.45072508e-01   1.41078091e+00
      9.40143049e-01   1.06585550e+00   2.57328719e-01  -1.85784742e-01
     -1.48224672e-02   1.84191120e+00   4.96952474e-01  -1.81795633e+00]
   [  1.58913958e+00  -1.62936002e-01   6.06630147e-01   1.71675241e+00
      6.31695747e-01   6.38478637e-01   8.70913625e-01  -8.68771553e-01
     -3.12756032e-01  -8.89694542e-02  -4.16280180e-01  -6.94758236e-01
     -2.00055286e-01  -5.20436049e-01   6.38645232e-01   3.53615701e-01
     -1.16093123e+00  -1.51188838e+00  -4.07825202e-01  -9.43482816e-01
     -1.50745428e+00   5.11451244e-01  -5.97038686e-01   7.54892766e-01
     -1.38973475e+00   4.25736159e-01   1.45711517e+00  -1.40863851e-01
      3.60037118e-01  -4.98343974e-01  -2.43042767e-01   2.07297587e+00
     -2.36760482e-01  -2.21785039e-01   1.14050604e-01  -1.44444361e-01
      1.56723231e-01  -6.06213868e-01  -8.95538926e-01   6.70471489e-01
     -9.17307138e-01  -5.11660099e-01   8.51537347e-01  -4.34366107e-01
     -5.86795211e-01  -1.32908332e+00   6.12954021e-01  -7.93792367e-01
      8.08285534e-01  -7.94402599e-01   5.79081833e-01   1.75451934e+00
      4.85089004e-01  -3.72488886e-01   1.13130641e+00   4.71434981e-01
      6.37401879e-01   7.71097243e-01  -5.48984945e-01   8.78965139e-01
     -2.41804585e-01   4.98995811e-01  -2.83049703e-01   5.30133322e-02]
   [  4.70048964e-01  -1.51671398e+00   5.84278107e-01  -4.21730131e-01
     -6.62203014e-01   1.09183170e-01  -6.97055459e-01  -1.70535952e-01
      2.26627439e-01   1.07182992e+00  -1.49067855e+00   2.84897298e-01
      1.13610375e+00  -2.03175351e-01   3.87024164e-01  -5.21261394e-01
      1.99808049e+00  -1.06741309e+00   4.54676360e-01  -6.80483043e-01
     -1.23872319e-02  -3.41914058e-01   3.90464216e-01  -5.29901147e-01
      1.02696347e+00   2.07699269e-01  -3.44491750e-01  -3.16332847e-01
     -8.94046783e-01  -1.37538099e+00   1.17754865e+00  -7.77820349e-01
      6.31968796e-01   1.14220834e+00   3.24251354e-01   4.73705679e-01
      6.43714815e-02   4.29811239e-01   1.28528249e+00  -1.05552959e+00
      2.22651076e+00   1.41495481e-01   3.74696493e-01  -8.43656003e-01
     -3.15147877e-01  -6.09605089e-02  -3.15226585e-01   3.86302829e-01
      6.01633750e-02  -1.09844625e+00   3.11206937e-01  -1.26648748e+00
     -6.62226975e-01   9.56436276e-01   4.43407267e-01  -1.35340917e+00
     -5.34180403e-01  -1.63005829e+00   1.97208412e-02  -9.20868933e-01
     -5.17856359e-01   1.59606695e-01  -8.48538399e-01  -4.59531039e-01]
   [ -9.27828550e-02   9.35313702e-01  -5.94309151e-01   3.56920362e-01
     -4.06544417e-01   1.59446788e+00  -1.16085815e+00   4.10243183e-01
     -1.02034330e+00   1.55770981e+00  -3.09859812e-02  -4.48571444e-01
      1.36832666e+00   5.28290689e-01  -9.97031212e-01   3.98528010e-01
      4.98376004e-02   7.78503299e-01  -7.37643898e-01   2.98235476e-01
      1.44437432e+00  -3.60506564e-01  -8.14327657e-01   1.13081980e+00
      1.33035254e+00  -9.37487651e-03   4.79636639e-01   5.33625305e-01
     -3.93972129e-01  -5.14674008e-01   8.44298124e-01  -2.10642552e+00
     -3.33642423e-01  -5.74838519e-01   8.79763246e-01  -1.09299552e+00
      5.82282424e-01   1.33280563e+00   8.94538701e-01   2.28805804e+00
      5.55471592e-02   1.34761596e+00   1.40267491e-01  -5.51918447e-01
     -2.72158831e-01   5.25722384e-01  -1.28411818e+00   9.15055424e-02
      1.82124209e+00   2.32599044e+00  -9.93957996e-01  -7.57043958e-01
      5.98669350e-01   1.70507789e+00  -7.76102483e-01   2.15790510e+00
     -1.07825541e+00   2.02188015e+00  -7.20623016e-01   9.59431946e-01
      1.24614619e-01   1.33064222e+00  -7.63534665e-01  -4.67300236e-01]
   [ -1.01278055e+00   1.30866909e+00   6.57156408e-01  -4.95506793e-01
     -7.17065156e-01  -3.79044920e-01   2.39360973e-01   8.30064416e-01
      4.66212749e-01   7.02965140e-01  -1.02228773e+00   1.70821440e+00
     -9.76919413e-01  -8.53178620e-01  -7.96710730e-01   1.20177948e+00
     -2.73595095e-01  -8.92995954e-01  -9.37857032e-01   9.29750502e-01
     -1.18449521e+00   1.92849532e-01   1.40957642e+00   2.07613850e+00
     -9.18470442e-01  -8.31304908e-01   1.47408354e+00  -2.02941489e+00
     -1.59050860e-02   1.64822936e+00  -4.00783867e-01  -9.53359902e-01
