[[[[ -1.35855067e+00  -2.81610012e-01   6.38859987e-01   1.22437191e+00
     -1.64028656e+00   6.93255365e-02  -1.51738048e+00   4.97803181e-01
      1.65131378e+00   1.79469252e+00  -1.26648295e+00   5.20346090e-02
      3.89039218e-02  -2.07077312e+00   7.00870380e-02  -1.12646580e+00
     -1.74244976e+00  -3.09645593e-01   6.68165386e-02  -1.20733988e+00
      6.25056354e-03  -1.88075054e+00   5.25878906e-01  -1.74330449e+00
      1.10036820e-01  -3.60237002e-01  -5.94927371e-01  -1.46722353e+00
     -2.86379886e+00   1.31239212e+00   2.59435643e-02  -6.49824023e-01]]

  [[  4.85671818e-01  -2.45482966e-01   2.51852542e-01  -9.80512559e-01
      2.96682119e-02   4.84002233e-01  -4.60031331e-01   5.72126687e-01
     -1.52829671e+00   9.15168703e-01   9.76048529e-01   4.55089808e-01
      3.32245380e-01  -5.47415912e-01  -5.79052985e-01   1.27679154e-01
     -5.82990408e-01   3.54548126e-01   9.37936425e-01   2.14372482e-02
      1.21473849e+00   5.03582835e-01   1.26974618e+00  -2.25790524e+00
      4.62975502e-02  -6.10473990e-01   1.92885804e+00  -1.06276631e+00
      1.02543306e+00   1.09926152e+00  -8.90924871e-01   4.71551828e-02]]

  [[ -1.60024757e-03  -7.40389228e-01   1.18682373e+00  -6.90465748e-01
      1.48735440e+00   1.07745838e+00   4.52689976e-01  -1.48982751e+00
     -6.09838553e-02   1.15893757e+00   4.31291610e-01   2.49318123e-01
      9.43470180e-01   1.00966597e+00  -1.51566148e-01  -1.08395004e+00
     -8.88598740e-01  -7.92808890e-01   1.37753975e+00   2.56537259e-01
      3.40784460e-01  -6.40116036e-01  -6.28666878e-01   8.41489494e-01
     -6.73660398e-01   9.18703452e-02  -5.09914637e-01  -3.00791204e-01
      4.87776309e-01  -1.14280260e+00  -3.06809425e-01   1.31882941e-02]]

  [[ -1.02785802e+00  -3.24355841e-01   1.71268851e-01   1.52839482e-01
      5.64085603e-01   1.17347741e+00  -6.93777442e-01  -6.77359283e-01
      9.20875967e-02  -6.35444582e-01  -1.81585741e+00   9.36833560e-01
      4.56549406e-01   2.01747790e-01  -3.16984624e-01  -1.28836727e+00
      5.62872231e-01   1.70282471e+00  -7.33709872e-01   2.07921243e+00
     -6.83124512e-02   1.82201123e+00   6.86798275e-01  -1.04701579e-01
     -1.24632806e-01  -2.99260330e+00   4.53788251e-01   1.92241144e+00
      4.59519029e-01   1.09395519e-01  -2.87042886e-01  -1.71170026e-01]]

  [[  1.65523961e-01  -8.82107317e-02   4.44122434e-01  -2.02001476e+00
     -6.28618121e-01   8.77809405e-01   6.57922983e-01  -1.58624434e+00
     -8.72259676e-01   8.11512887e-01  -3.54924917e-01  -7.31871068e-01
     -9.65405583e-01   1.50072432e+00  -9.59547341e-01   1.03168297e+00
     -1.29951286e+00   4.37541217e-01   9.25827265e-01   1.07422340e+00
      7.21678436e-01  -1.23156595e+00  -8.03110540e-01  -5.46436794e-02
      4.40441102e-01   7.13338196e-01  -5.25773346e-01  -1.09870362e+00
     -1.82450008e+00  -1.43546426e+00   7.64984965e-01  -5.75668037e-01]]]


 [[[ -3.31028938e-01  -9.44425106e-01  -8.72037470e-01   9.79694605e-01
     -4.10525709e-01   7.92083979e-01   1.22730017e+00  -9.41335689e-03
     -1.64078403e+00  -2.34228507e-01  -8.90085399e-01  -4.69475120e-01
     -6.90195501e-01  -3.41798782e-01   1.11831796e+00  -7.82189965e-01
      1.10056317e+00  -4.14626390e-01  -7.52422869e-01  -3.12524617e-01
     -2.98962802e-01  -1.54976273e+00   1.04762948e+00  -1.67979383e+00
      1.35192597e+00   1.49132991e+00   2.04889327e-01  -4.02325898e-01
      1.07444942e+00   2.11405849e+00   1.85409701e+00  -1.98066637e-01]]

  [[ -1.53951609e+00  -9.39874709e-01   9.66849625e-01  -3.30268562e-01
     -3.45375448e-01   3.56344551e-01  -1.37861669e+00   2.54617557e-02
     -1.57694054e+00   2.57151461e+00   7.51399577e-01  -3.93699646e-01
     -3.90750378e-01   5.51432930e-02   6.48537874e-01  -8.52618456e-01
      1.33487582e+00   3.15454155e-02  -9.90963340e-01  -1.14873230e+00
     -1.04551740e-01   3.44570398e-01   2.87092835e-01  -3.55025649e-01
     -4.26776633e-02  -7.52901509e-02   7.11424649e-01  -1.11578155e+00
      2.21690685e-01  -1.10158360e+00   3.43375683e-01   8.95446956e-01]]

  [[  9.54166293e-01  -3.97105038e-01  -5.15254512e-02  -6.21916890e-01
     -7.37653077e-01  -1.09254062e+00   2.20315047e-02  -6.67654395e-01
     -3.41382921e-01  -1.95119536e+00   5.43351173e-01   1.56191930e-01
      4.06340569e-01   1.79049373e+00   1.12854496e-01   2.26116180e-02
      1.35876763e+00  -8.75135303e-01  -1.74681747e+00  -2.46248674e+00
     -7.16642261e-01  -2.44790626e+00   3.44348550e+00  -1.49354860e-01
      6.99631333e-01   2.53266501e+00  -1.15605032e+00   1.85445929e+00
     -1.19433141e+00  -2.87990957e-01   7.52179921e-01   7.39394724e-02]]

  [[  3.08333877e-02  -4.35574234e-01  -6.73089743e-01   9.16982114e-01
     -9.42253351e-01   6.70703650e-01  -1.94183624e+00   1.09972811e+00
      1.77666053e-01   1.67495444e-01  -1.34670949e+00   2.98842996e-01
     -1.56899482e-01   3.03165823e-01   1.82287943e+00  -3.57825793e-02
     -1.92335024e-01   9.41863000e-01   6.31010592e-01  -2.00209782e-01
     -1.15585558e-01  -2.12602437e-01   9.11676168e-01   9.06536639e-01
      4.68036622e-01   1.12186499e-01  -7.94936180e-01   4.65966612e-01
     -1.02383411e+00  -4.28535908e-01   9.34385359e-01   3.14167917e-01]]

  [[  1.12498343e-01  -9.59905326e-01  -1.11408603e+00   3.15940470e-01
     -1.35380900e+00   6.59301698e-01   1.79258406e+00  -1.69509396e-01
     -1.59151399e+00  -1.21113276e+00  -9.53239128e-02  -1.10817528e+00
      1.17289260e-01  -4.64539260e-01  -3.04191828e-01  -3.27739775e-01
     -1.97419465e+00   1.26012528e+00  -6.33977950e-02  -1.08060348e+00
     -8.54011118e-01  -8.53706151e-02   1.45137799e+00  -1.29256892e+00
     -1.63394010e+00   6.22243643e-01  -8.01054180e-01  -5.37088633e-01
      1.07986677e+00   2.52624571e-01  -7.17731059e-01  -1.02245975e+00]]]


 [[[  4.05874550e-02  -4.18198198e-01   2.22400784e-01  -8.81532356e-02
      2.65745465e-02  -9.29266572e-01   4.25500691e-01  -1.15889418e+00
      1.06535566e+00  -4.48722780e-01  -1.48621845e+00   2.44662189e+00
      9.79815423e-01  -5.23488939e-01  -1.91130713e-01   2.63270941e-02
      8.67132127e-01  -1.02540329e-01   8.15140665e-01  -1.57394218e+00
     -8.25300276e-01   1.73283434e+00  -1.36653924e+00   2.74334669e-01
     -5.26921749e-01   5.49574196e-01   1.42670012e+00  -6.99883819e-01
      4.56771523e-01  -6.74787641e-01   1.31173268e-01   8.85986164e-02]]

  [[  1.48064971e+00  -8.04240406e-01   2.45701857e-02  -6.54730648e-02
      1.28164995e+00  -2.17738479e-01  -2.93156743e-01   1.39528632e+00
     -2.51106918e-01   4.24129590e-02  -1.16788709e+00  -3.93955976e-01
     -1.12572193e+00   3.32005858e-01   1.58367491e+00   2.17073631e+00
      8.63554418e-01   6.68100715e-01   3.16622645e-01  -9.16854218e-02
      4.77473915e-01  -7.50785887e-01   7.48190224e-01  -1.05411720e+00
     -1.60003141e-01  -1.94892836e+00   4.45082188e-01  -2.75057908e-02
      5.33973634e-01   1.02030730e+00  -8.87099445e-01  -1.25828576e+00]]

  [[ -6.53620005e-01   2.74099439e-01   1.91415459e-01  -5.84325552e-01
     -8.21542680e-01  -1.66608751e+00   2.43443605e-02   3.78812879e-01
      5.33371270e-02  -4.90358561e-01  -4.45500389e-02  -1.66960156e+00
     -4.98746663e-01   1.55306518e-01  -4.00326371e-01   1.27989128e-01
     -1.16799283e+00  -1.21159039e-01  -2.96065778e-01  -1.06715167e+00
     -1.72588170e-01   3.10731214e-02  -1.80807263e-01  -5.34915388e-01
      4.28817928e-01   4.52313721e-01  -4.68946338e-01   3.51830423e-01
      1.25100482e+00   7.31990337e-02   1.83236146e+00   4.06232685e-01]]

  [[  3.65663081e-01   1.38199019e+00  -9.02225375e-01  -4.03460473e-01
      6.98272765e-01  -5.60372829e-01  -5.04414082e-01   5.83837986e-01
      1.64948630e+00  -2.00537205e-01  -6.05389416e-01   1.00227058e+00
      8.55003595e-01  -6.80178046e-01  -1.08385527e+00  -6.62573218e-01
     -8.09305310e-01  -1.24104226e+00   1.30795860e+00   8.04315060e-02
     -2.49989182e-01   5.87474942e-01  -6.13940537e-01   3.49231660e-01
     -1.09703529e+00   3.60582262e-01   8.57602477e-01  -9.93467093e-01
     -1.75684202e+00   3.87429357e-01  -2.28614345e-01  -4.05903906e-01]]

  [[  8.80520761e-01  -1.19308102e+00  -3.56043518e-01   5.17406166e-01
     -1.00472379e+00  -1.39427578e+00   9.03552592e-01  -6.72943413e-01
     -7.11872801e-02  -1.71831310e+00   2.58617491e-01   3.89572233e-01
      1.10138583e+00  -6.69728696e-01   1.28119421e+00   8.54070306e-01
      2.21450701e-01  -3.20283413e-01   3.37073840e-02   1.34794068e+00
     -1.43351600e-01  -1.74160683e+00   3.78136933e-01   9.35812354e-01
     -7.55090117e-01   9.82306659e-01  -5.06104171e-01   1.86083186e+00
     -2.36695337e+00   3.03673983e-01  -5.02922237e-01   4.55985010e-01]]]


 [[[ -1.31266153e+00  -8.10140073e-02  -2.78134704e-01  -5.26173949e-01
     -1.78587854e-01  -1.12365758e+00  -3.22181374e-01   1.00469398e+00
     -7.17908978e-01   1.88705981e-01  -1.75351882e+00  -5.08827746e-01
      7.69261956e-01   3.95320147e-01  -2.38331842e+00   8.06076825e-01
      4.76391226e-01   6.11115387e-03   8.44448328e-01  -2.17297122e-01
      1.05793464e+00  -1.19435227e+00  -1.96413600e+00  -1.24700022e+00
      1.29289299e-01   1.22552264e+00  -1.29467082e+00  -4.91374075e-01
      1.21112391e-01  -4.29963827e-01   2.06251413e-01  -2.92032599e-01]]

  [[  7.31334448e-01   2.49747396e+00   1.60854745e+00   1.05797482e+00
     -1.29902864e+00   1.83407712e+00  -1.66877761e-01   2.56520057e+00
     -2.26260495e+00   2.11118197e+00  -3.20036560e-01   3.68038863e-01
      1.43342113e+00  -9.15314138e-01  -2.09642015e-03   1.91848770e-01
     -1.34768561e-01   3.72381434e-02  -4.07170236e-01   7.71619499e-01
     -7.51104295e-01  -5.65368414e-01   1.79548359e+00   1.04911506e+00
     -7.50161529e-01   8.33858371e-01   1.05267894e+00  -1.59818697e+00
      2.16401267e+00   1.49387026e+00   2.64630985e+00   5.43200195e-01]]

  [[ -4.73434269e-01   1.22374641e-02   4.21094924e-01   1.11655867e+00
      6.20384812e-01  -2.47797537e+00   3.43319148e-01  -2.53098679e+00
      1.28536612e-01   1.06156445e+00  -6.04916573e-01   1.52351514e-01
      1.41349271e-01   1.63255319e-01   1.40320313e+00  -2.41201371e-01
      3.82279217e-01  -2.22343668e-01   9.18836832e-01  -2.28004360e+00
     -1.37100494e+00  -3.28928500e-01  -1.00347602e+00  -3.96432310e-01
      8.16251412e-02  -7.72168674e-03   7.81741381e-01  -1.89238980e-01
      9.27599594e-02  -5.63111246e-01   1.24089289e+00  -1.08890617e+00]]

  [[  3.91251355e-01   6.58845678e-02   1.63387805e-01   5.78932405e-01
      3.75195980e-01  -1.18691623e+00  -1.67912304e-01   8.63779545e-01
      1.26176715e+00  -8.41333628e-01  -1.42533767e+00   7.29899466e-01
     -1.12194860e+00  -3.21161419e-01   8.74403298e-01   7.76660979e-01
     -4.58133221e-01   1.22242963e+00  -6.04596078e-01  -5.07647157e-01
      9.00697112e-01  -1.89078367e+00  -6.46061242e-01  -6.19891621e-02
     -8.92558098e-01  -8.11184287e-01  -3.30799520e-01  -1.67939723e+00
     -2.98226118e-01  -3.65525663e-01   1.29030243e-01  -4.66712505e-01]]

  [[  6.35462046e-01   6.08086407e-01  -8.73877108e-01   2.39469722e-01
     -2.14468098e+00  -1.29605047e-02   1.52626306e-01  -9.84025300e-02
     -9.48253512e-01   3.48503768e-01   1.83304593e-01  -7.28631735e-01
      1.13066144e-01  -4.91195032e-03   2.26816487e+00   8.93622577e-01
     -1.13564265e+00  -8.86157811e-01  -5.80782555e-02   8.16236198e-01
      2.23247364e-01   4.55214739e-01   1.41416919e+00   1.11451304e+00
     -1.50824738e+00   1.30838871e+00  -1.68149844e-01   7.80013651e-02
      6.28980935e-01   5.41554987e-01   3.45510691e-01   1.42618362e-02]]]


 [[[ -1.40075177e-01  -1.51881296e-02   6.14961565e-01   1.17109597e+00
     -1.69517934e-01  -7.92603254e-01  -1.36984527e+00   5.71972132e-01
      2.10734487e+00  -1.14702010e+00  -1.21726191e+00  -4.00127061e-02
      1.92620248e-01  -1.07820046e+00  -1.30989403e-01   4.42632675e-01
     -5.83761990e-01  -3.31646800e-01  -3.31631154e-01  -9.45227504e-01
     -1.55145061e+00   8.45725060e-01  -6.92530036e-01   1.43314540e-01
     -3.92907560e-01  -1.13632917e+00   1.29994190e+00   9.34340894e-01
     -3.31357718e-01   4.19039786e-01  -3.58573288e-01  -1.07242680e+00]]

  [[ -1.02307808e+00   6.81093991e-01  -1.84696412e+00   9.04472649e-01
      1.80413926e+00   1.20537090e+00  -1.87759745e+00  -5.92451036e-01
     -9.88823827e-03  -1.28929174e+00  -9.25471604e-01  -3.70470285e-01
     -1.25540388e+00   7.00990736e-01   1.19503534e+00   1.25457907e+00
      1.34270549e+00  -8.20492685e-01   1.58454502e+00  -7.84053564e-01
     -7.27812946e-01  -1.19193351e+00   1.67561769e+00   8.19724500e-01
      8.29752803e-01  -3.68821830e-01  -4.87401247e-01  -5.58758736e-01
      5.75723588e-01   5.54690659e-01   6.88736796e-01   5.87089002e-01]]

  [[  5.11931539e-01   9.56565440e-02   2.97337413e-01   1.93581488e-02
     -7.77418017e-01   4.33454394e-01   1.81171745e-01   1.11441302e+00
     -6.40421987e-01  -1.54040515e+00   1.46428749e-01   5.88727772e-01
     -9.09774527e-02   6.88367784e-01   6.63313448e-01  -1.13985991e+00
      5.19788921e-01   9.20364797e-01  -5.52780628e-01  -1.19839408e-01
      1.53845870e+00   7.14836180e-01   2.27977023e-01   1.26711166e+00
     -2.15723872e+00   5.63847125e-01  -9.28580999e-01   8.19796547e-02
     -1.03478885e+00   1.13691378e+00  -1.58838093e+00  -2.68880665e-01]]

  [[ -1.24158430e+00   3.36437047e-01   8.05957258e-01  -4.98587877e-01
      1.06660986e+00  -1.10957623e+00   7.07021356e-01  -5.19193232e-01
     -1.44987977e+00  -1.65147746e+00  -1.15066898e+00  -1.35927081e+00
     -1.06473410e+00  -1.02331579e+00   2.59634051e-02  -8.00518319e-02
     -3.43392074e-01  -3.38394463e-01  -7.55560219e-01  -9.03771460e-01
     -6.35918677e-01  -1.18922973e+00   1.02837598e+00  -2.89441943e-01
     -1.38412571e+00   3.43464106e-01  -4.96695817e-01  -1.51564300e-01
     -3.11488777e-01   1.80363134e-01   3.36337835e-01   1.31224465e+00]]

  [[ -1.22301602e+00   2.69584775e-01   1.40674567e+00  -8.08007956e-01
      1.48817539e+00  -1.64279610e-01  -2.77174085e-01   1.88243583e-01
     -4.30626422e-01  -5.35223186e-01  -3.21243018e-01   7.98641562e-01
      3.81862745e-02  -9.81746018e-01   1.45836365e+00  -4.21874791e-01
      1.41660464e+00  -2.04269218e+00  -4.74945962e-01  -6.31497204e-01
      4.20901597e-01  -1.14194512e+00  -3.18568856e-01   3.92291665e-01
      5.35225160e-02   3.26803446e-01  -2.44949564e-01   6.57008439e-02
     -4.05398667e-01   1.59783983e+00   1.33415389e+00   2.54028052e-01]]]]
