[[  1.96552885e+00   1.61731756e+00   1.21677649e+00  -5.93766093e-01
   -7.33923137e-01  -7.40007758e-01  -6.90082669e-01  -8.03713560e-01
   -7.41171062e-01  -8.14068466e-02  -1.79103002e-01   1.11372340e+00
    1.51835465e+00   4.17601436e-01   1.30441502e-01  -1.84528303e+00
   -4.28868860e-01  -7.76434779e-01  -2.83334523e-01  -1.59383178e+00
   -5.26613295e-01   2.57696528e-02   7.11838782e-01   4.42102700e-01
    5.65378666e-01  -2.33346272e+00   1.67807472e+00  -3.62570524e-01
   -3.13978255e-01   2.59677559e-01  -4.79777008e-02   8.63034904e-01
    7.02983975e-01   2.01162100e-02  -1.00290585e+00  -1.40604660e-01
    2.68620819e-01  -1.77896589e-01  -2.26706266e+00  -6.60201132e-01
    7.44553983e-01  -1.28738749e+00  -8.32261384e-01   6.86062753e-01
   -1.55045533e+00  -1.92554519e-01  -5.46255469e-01  -1.20584095e+00
   -9.01711881e-01  -2.88083255e-02   2.50897855e-01   1.31285340e-01
    1.05970120e+00  -5.94291389e-01  -8.67718756e-01  -5.00752211e-01
    4.02864188e-01   1.40656269e+00  -5.56239843e-01  -1.20250463e+00
    7.86817253e-01   1.03732622e+00  -5.22721171e-01  -3.32621813e-01
   -9.63632941e-01   1.84176612e+00  -1.49859536e+00  -2.60383248e-01
    1.66805315e+00   5.44927299e-01  -6.64418459e-01  -8.45863342e-01
    5.35115778e-01  -6.79381669e-01   1.60057342e+00   6.65396631e-01
    1.68116927e-01   1.48428977e+00   9.07200798e-02   7.75064826e-01
   -4.08246338e-01  -1.04057193e+00  -4.68360364e-01   1.31521332e+00
   -1.97757334e-01   2.20202893e-01  -1.23107262e-01  -2.44948119e-01
   -3.49778682e-01   1.14978516e+00   1.36700511e+00   3.22140098e-01
    8.43070373e-02   9.33594644e-01   8.43632221e-01   1.48516744e-01
   -2.20294103e-01   4.63204414e-01  -1.41598344e+00   4.67987210e-01
   -3.75198364e-01   1.06654847e+00   2.23363668e-01  -1.18649316e+00
   -1.16754365e+00   2.33892751e+00   1.07318330e+00   2.05939785e-01
   -1.91042447e+00  -1.75179362e+00   4.09091383e-01   1.01791000e+00
   -5.75104773e-01  -1.92575026e+00   5.85514009e-01  -2.16639495e+00
   -1.39882803e+00   1.70546532e-01  -4.43264991e-01  -4.72553819e-01
   -9.91031885e-01   2.57355630e-01  -1.80368945e-01  -1.08864093e+00
   -1.78011918e+00  -1.22082901e+00  -9.14553285e-01  -1.07803321e+00
    1.90997159e+00   1.48085368e+00  -1.56098294e+00  -1.39890158e+00
   -6.85469687e-01   5.47108874e-02   1.31341949e-06   2.66295940e-01
    1.50138175e+00  -6.15432560e-01   3.49902362e-01  -6.58878744e-01
   -6.72610581e-01  -1.86536622e+00   1.84419668e+00  -1.65752411e-01
    3.40286255e-01   1.27848113e+00  -6.01823255e-03   6.54724181e-01
   -2.69292504e-01   9.49802343e-03  -5.59661210e-01  -1.89607906e+00
   -9.27686214e-01   8.64237010e-01  -7.71754801e-01   7.80397058e-01
   -1.21685064e+00  -2.34480596e+00  -3.26450765e-01   7.07006276e-01
    6.82133615e-01   3.34493458e-01  -1.18055962e-01   2.06640363e+00
   -3.88859153e-01  -1.10045171e+00   2.30599150e-01  -1.96928811e+00
    1.23097503e+00  -3.57065350e-01  -1.57971427e-01  -1.36331594e+00
   -9.46598053e-01   1.60817623e+00  -5.12530923e-01  -8.29778016e-01
    1.32805824e+00   1.10412851e-01   1.20841825e+00  -2.06974030e-01
   -1.49036741e+00  -1.39960921e+00   3.08907509e-01   6.31771743e-01
    1.17025089e+00   3.41200411e-01  -4.50103730e-02   2.58581233e+00
   -1.16645026e+00  -4.32720631e-01   4.51979905e-01  -1.03867173e+00
   -1.57098055e-01  -5.40616453e-01  -3.20748091e-01   3.17488448e-03
    9.45606589e-01  -5.29268980e-01   6.33301616e-01  -9.04094040e-01
    1.89327550e+00  -8.40704739e-01  -6.03784978e-01   8.78401399e-01
    7.55709231e-01  -2.45933935e-01  -6.07803702e-01  -1.16408920e+00
   -4.31787401e-01  -6.88057423e-01   1.26359046e-01  -1.07578063e+00
   -1.36557138e+00   7.29114294e-01  -6.99231684e-01  -4.76511866e-01
   -8.62736225e-01   1.00109339e+00  -4.73210514e-01   5.72914600e-01
    2.20118523e+00  -1.76286876e+00  -1.06705654e+00   8.20537925e-01
    1.30168796e+00  -6.00836612e-02  -1.03563595e+00  -4.75042999e-01
    4.31338698e-01   1.40198338e+00   6.31949663e-01   5.86826205e-01
   -4.92597133e-01  -9.45783913e-01   1.74323171e-01  -5.40730298e-01
   -5.17652273e-01   1.65775001e+00  -6.35206044e-01   7.96583652e-01
   -4.07352716e-01   3.00410092e-01  -2.09497094e-01   8.37421298e-01
   -1.31634521e+00  -3.76233548e-01  -1.00462414e-01  -5.18783271e-01
   -1.06231771e-01  -2.05318475e+00   1.07240164e+00   5.53481877e-01
   -5.15193939e-01  -1.07469365e-01   1.03095186e+00  -9.75798905e-01
    2.66296208e-01   1.33445787e+00   1.22514355e+00   1.63545966e+00
   -1.95049793e-01   8.92620504e-01  -1.80136189e-01   7.77929187e-01
    1.86216578e-01  -2.48946428e+00  -1.09932256e+00   4.86456662e-01
    7.04935551e-01   3.22575599e-01   1.40236473e+00  -1.53346837e-01
    1.26586398e-02   8.11370313e-01   7.02531934e-01   2.41494492e-01
    9.11351264e-01   9.57388103e-01  -8.13083351e-01  -9.05096680e-02
    1.61111808e+00   7.20576942e-01   7.31709540e-01  -2.71920502e-01
   -4.94960368e-01   1.83551371e+00   1.48736989e+00   3.54580581e-02
    1.31231025e-01   4.69013900e-01  -1.87341917e+00  -1.17795539e+00
   -8.25000763e-01   5.64054012e-01   6.11914933e-01  -5.76359510e-01
   -1.68561900e+00   3.36527705e-01   7.58097887e-01   2.18246651e+00
   -2.20911995e-01  -6.76428139e-01   1.11769474e+00   4.34300870e-01
   -3.32573205e-01  -4.63994980e-01   8.37686896e-01  -1.24712348e+00
    7.99142361e-01  -4.54384476e-01   1.28577483e+00  -1.09657235e-01
    7.51838923e-01  -1.37321448e+00   3.38909835e-01   7.38261700e-01
    6.38164163e-01   1.00884175e+00   1.44199145e+00  -2.13272476e+00
   -9.01689529e-01   3.38343054e-01   1.89185214e+00  -1.16983783e+00
   -7.05220819e-01  -1.27574086e+00  -1.63180673e+00   2.65938672e-03
    1.96232140e+00   1.14255917e+00  -1.45890498e+00   1.07264256e+00
   -3.16439897e-01  -8.33969340e-02   1.59680307e+00   1.37652591e-01
   -2.16937351e+00   3.94765645e-01  -6.37603343e-01   1.09241247e+00
   -4.81672376e-01  -7.88085401e-01  -9.49507475e-01  -2.32218936e-01
    3.82251889e-01  -9.59939957e-01   4.42163870e-02  -1.26105833e+00
    2.77402233e-02  -8.38698983e-01  -1.06233990e+00  -7.96570957e-01
   -6.42488658e-01   5.25638580e-01  -2.46014094e+00  -1.38642299e+00
   -3.52655798e-01   5.90012968e-01   5.58636665e-01  -1.21306372e+00
    5.11666760e-02  -2.18800449e+00  -1.11289430e+00   5.57645798e-01
    1.15441883e+00  -4.14127141e-01  -3.77804160e-01  -1.40982628e+00
    2.43164629e-01   1.32556236e+00   3.16400141e-01   1.65916085e+00
    1.31092155e+00   6.90828413e-02  -1.56366980e+00  -1.22369647e-01
    5.80276668e-01   1.38004589e+00  -6.79229915e-01   7.49649405e-01
    7.21499205e-01  -2.14512372e+00   7.59950221e-01  -8.68727505e-01
    1.71784475e-01   4.95736271e-01   5.00958622e-01  -1.50192335e-01
    3.08948576e-01   1.58340025e+00   9.10485089e-01  -1.58261871e+00
   -1.35255957e+00   5.89286327e-01   3.24065164e-02   2.46150851e-01
   -1.13346529e+00  -1.91361856e+00  -4.68586624e-01   3.97391945e-01
   -1.44423008e+00   4.90609556e-01  -1.26169300e+00   3.71961370e-02
   -6.90866828e-01   5.61336219e-01  -9.21876550e-01  -1.53287423e+00
    2.33837709e-01  -8.86741161e-01   3.86068076e-01  -8.67486298e-01
   -1.21586263e+00  -1.74593914e+00   8.34258080e-01  -1.34792745e+00
    1.15150797e+00   1.61571229e+00  -6.35267019e-01   7.62093186e-01
    6.58509672e-01  -4.60709602e-01   5.27875006e-01   4.45490927e-01
   -1.04020201e-01  -1.67271465e-01  -1.52059421e-01   3.51370066e-01
    5.53977549e-01   1.96500540e+00  -1.00127721e+00  -1.77958953e+00
    3.77040595e-01  -2.66453695e+00   3.62374395e-01  -1.55548602e-01
    9.87891138e-01   1.96120846e+00  -7.49556601e-01  -2.23010946e-02
   -7.65754044e-01  -5.32306314e-01   9.53494847e-01   2.55363256e-01
   -4.96929705e-01   1.25361252e+00   6.25005126e-01   2.20194668e-01
   -6.56776786e-01   6.58690184e-02   8.68279219e-01   2.27087665e+00
   -2.02675629e+00  -6.64003417e-02  -5.45503676e-01  -5.48628867e-01
    2.46534988e-01  -6.53273046e-01   1.62183076e-01   1.95110857e-01
    1.01891589e+00  -1.33384752e+00   2.52072483e-01  -2.72251461e-02
   -1.12359978e-01  -7.58771122e-01  -9.35731828e-01   1.43638957e+00
    7.86127269e-01   1.36775768e+00  -7.13341117e-01  -1.09093416e+00
    5.57697058e-01   1.30048478e+00  -1.12040758e-01  -1.23432899e+00
    2.33888879e-01   8.94163191e-01  -2.14755750e+00  -1.27087843e+00
    5.59168994e-01  -6.59092218e-02  -6.46008074e-01   5.73221385e-01
    1.61744928e+00  -1.02547860e+00  -6.38766289e-01   4.60852295e-01
    1.05645597e+00  -1.67765355e+00  -1.63457954e+00   4.48125422e-01
    1.64491846e-03   9.10791874e-01  -1.39845395e+00   5.66853166e-01
   -1.39198136e+00  -7.16350436e-01   3.98063302e-01   5.71358681e-01
   -7.91883588e-01   2.11533737e+00  -9.12273169e-01  -1.88036871e+00
   -1.04862106e+00   1.47167873e+00   9.04933691e-01   5.15571088e-02
   -1.28315330e-01  -1.05958498e+00  -7.39877582e-01   4.95903194e-01
   -1.95320034e+00   1.22739518e+00   3.09080333e-01  -2.38718438e+00
   -2.60123193e-01  -6.62383676e-01  -2.48114944e-01  -1.61109185e+00
   -5.66189051e-01  -1.08838439e+00  -1.26845586e+00  -5.17501272e-02
    4.73785907e-01   6.58917248e-01  -5.03607333e-01   1.85392189e+00
   -6.13773167e-01  -8.31214339e-02   1.61146730e-01  -8.98675978e-01
   -5.33880174e-01  -2.86038965e-02   1.23764418e-01   1.81318462e+00
    1.34747863e+00  -1.51072812e+00  -1.29709351e+00   9.55010176e-01
   -2.18750691e+00   9.06591654e-01  -1.67183448e-02  -5.03842473e-01
    2.77240872e+00  -1.09081709e+00   8.73344421e-01  -6.34195685e-01
   -1.32133317e+00   6.73332870e-01  -4.61402416e-01  -7.65626132e-01
    6.12173639e-02  -5.14677875e-02   5.28766178e-02   2.34967712e-02
   -2.46392936e-01  -1.47860241e+00  -8.67631957e-02  -8.14214110e-01
    1.66881934e-01   4.44238365e-01   3.91007215e-01  -4.51197252e-02
    6.18114248e-02  -2.04568577e+00  -5.72519064e-01   9.76495981e-01
   -8.78523529e-01  -1.67995989e-01   9.15833414e-02   1.29650927e+00
    1.78614616e+00   7.91820407e-01  -1.24824035e+00   1.71177280e+00
   -9.19268370e-01   1.72849631e+00  -1.01515985e+00  -7.79782176e-01
    1.15920544e+00  -4.24692407e-03   2.75388896e-01  -1.14302218e+00
    1.13235223e+00  -1.21343207e+00  -1.82694232e+00  -4.29503508e-02
    5.75729907e-01  -4.76186424e-01   1.44382083e+00   2.04704106e-02
    4.13727850e-01  -8.06068704e-02   1.55622160e+00   5.94677150e-01
   -1.92230657e-01   1.36305869e-01  -5.32238126e-01   5.44765443e-02
   -6.62276506e-01  -2.01902196e-01   1.25822335e-01  -1.34180534e+00
    6.67987287e-01   1.55359939e-01  -8.58297884e-01  -5.18563986e-01
    6.85459673e-01  -2.09178373e-01   1.01620209e+00  -1.64024204e-01
    8.80484223e-01   5.35548389e-01  -3.44791740e-01   2.12452248e-01
   -4.45123106e-01   2.23832893e+00  -2.20044360e-01   1.14430940e+00
    4.08589423e-01   9.84899461e-01  -3.78429234e-01   7.29867518e-01
    1.29964042e+00   2.17079687e+00  -3.73490930e-01  -1.65231395e+00
   -8.96764919e-02   6.11075997e-01  -8.38838279e-01   2.41981697e+00
    2.90460020e-01   3.27510327e-01  -1.18154101e-01   4.04376052e-02
    6.34166002e-01  -5.96271098e-01   1.13885015e-01   1.10014701e+00
    1.57628202e+00  -1.31155157e+00  -8.16514611e-01   1.44899166e+00
   -6.03135169e-01   6.86897218e-01   3.31049532e-01   9.79015112e-01
   -4.25636083e-01   5.14861047e-01   1.00032687e+00   1.56803057e-01
    1.68198511e-01  -1.08640265e+00   3.95185202e-01  -7.96427488e-01
   -2.64895654e+00  -1.36012781e+00   1.44827783e-01   9.14246798e-01
    1.45017612e+00  -8.38601708e-01  -5.90729296e-01   2.10453659e-01
    1.10369809e-01   7.20581234e-01  -1.72022343e+00  -4.72879857e-01
    8.98746610e-01   5.59057891e-01   3.02855492e-01  -1.43468046e+00
    7.91890919e-01   3.08321595e-01   1.25799036e+00   3.89461368e-01
   -1.91855717e+00   1.07206178e+00   4.63191032e-01   3.07158500e-01
   -2.64812768e-01  -3.64494234e-01   9.17165577e-01  -3.06096813e-03
   -2.22703218e+00  -1.22854197e+00  -9.52959299e-01   1.59537590e+00
    1.63218045e+00  -1.90608546e-01  -9.40280378e-01   1.79264486e+00
    8.82431924e-01  -3.50823373e-01   9.69529927e-01  -7.22339213e-01
    7.83707857e-01   1.92971098e+00  -1.03070652e+00  -5.32904923e-01
   -2.10558683e-01  -8.81233871e-01  -4.28313226e-01  -1.14842260e+00
    1.75063682e+00   4.48384695e-02   1.00022531e+00   1.56229770e+00
    1.53292552e-01   1.49384725e+00   6.21256292e-01   2.40714097e+00
   -1.54099047e+00  -5.24476022e-02  -8.48790526e-01  -4.57485467e-01
   -1.34221733e+00   1.56703162e+00   4.57951427e-01  -7.15094864e-01
    8.61350536e-01  -8.75917315e-01   2.19289947e+00   2.44679332e-01
   -1.39312935e+00  -3.98301721e-01  -1.93847679e-02  -7.33172596e-01
   -3.83762002e-01   6.69395328e-01  -4.46389288e-01  -8.33752677e-02
    5.32587826e-01   6.50517523e-01   1.59262896e-01  -3.77725393e-01
   -1.48267567e+00   1.06746221e+00   6.45276964e-01   4.27007407e-01
   -2.60333747e-01  -3.09180409e-01   1.30061284e-01   1.80556744e-01
   -1.63475072e+00  -4.54455167e-01   3.83607060e-01   7.04308152e-01
    2.53808945e-01  -4.50163513e-01   3.83667886e-01   5.39617121e-01
    3.85075480e-01  -3.65769833e-01   4.01502103e-01   1.64114833e+00
   -7.59387195e-01  -9.55784023e-02  -1.01047397e+00   1.06918979e+00
   -1.06991410e+00  -8.77010167e-01  -1.41339564e+00  -1.98507905e+00
    3.36370289e-01  -6.47187293e-01  -6.60637438e-01   1.75280392e+00
    1.90871537e-01  -2.83379048e-01   6.77851737e-01   1.93467414e+00
    1.03493655e+00   5.99678695e-01  -4.24348056e-01   1.51878774e+00
    2.64122844e-01  -5.35691738e-01   1.25374842e+00  -7.02810049e-01
   -7.51748919e-01  -1.33803034e+00   8.32420528e-01  -1.42368960e+00
   -3.78115296e-01  -2.10671827e-01   8.32025945e-01   3.37476321e-02
   -5.14854968e-01   9.20476299e-03  -2.23794413e+00  -9.41922665e-01
    7.44008064e-01   1.36711168e+00   5.73067367e-01   1.15100479e+00
    1.15237200e+00  -4.45226371e-01   1.10265183e+00   2.77165300e-03
    9.54451084e-01   1.50303948e+00  -6.55986726e-01   8.77772093e-01
   -6.14183068e-01   8.69249642e-01  -1.32038713e+00  -2.21014649e-01
    7.72885531e-02  -5.18952370e-01  -1.36856222e+00   2.47708261e-01
   -1.01844394e+00  -2.73306561e+00  -4.25138831e-01   1.73361480e+00
    1.11385751e+00  -1.14432073e+00   8.26478720e-01  -1.19495642e+00
   -1.05926573e+00   7.89963365e-01   1.06791258e+00  -8.90678883e-01
    6.72568023e-01   2.11191162e-01  -2.74847209e-01   7.30747163e-01
    6.68599248e-01   1.12572110e+00  -5.55034205e-02  -4.45279256e-02
   -1.60968029e+00  -8.53051662e-01   1.87553275e+00   9.28254426e-01
    1.40821648e+00  -5.09212673e-01  -8.38149488e-01   1.33181870e+00
    2.49720275e-01  -8.25745642e-01  -8.76108050e-01   7.21969187e-01
   -1.83353281e+00   1.00511968e+00  -6.42713308e-01   3.28519638e-03
   -4.43452656e-01   1.15932703e+00  -6.01109326e-01  -3.62350553e-01
   -3.26478750e-01  -8.60105574e-01  -2.87966162e-01  -1.96734738e+00
   -5.91375530e-01  -9.59567666e-01   1.54564783e-01  -1.17272711e+00
   -1.25140801e-01   1.04794312e+00  -1.41244873e-01   1.66328251e-01
   -3.10392201e-01   4.05340195e-01  -9.63300373e-03   3.68386149e-01
   -7.72487223e-01  -4.39139307e-01  -7.42698014e-01  -1.17686760e+00
   -8.60964064e-06  -8.29361320e-01   6.05753660e-01  -5.69400668e-01
    1.87984779e-01   3.00632477e-01   1.10178828e+00   6.20873928e-01
   -1.62342846e+00   1.39031923e+00  -1.31449056e+00   1.41307676e+00
   -3.67970407e-01   2.45205909e-01  -5.41344345e-01  -2.36492872e-01
   -3.08306634e-01  -2.70403838e+00   6.19460762e-01  -2.32767776e-01
    3.13775599e-01   1.37902990e-01  -1.57858670e-01  -7.43451297e-01
    1.35576963e+00   2.95414865e-01   9.63222265e-01  -2.56493509e-01
    3.70584875e-01   4.88660842e-01  -7.93506622e-01   5.63788772e-01
    8.87571990e-01   5.33412039e-01   1.78868815e-01  -5.85521519e-01
    1.21721041e+00  -1.33156216e+00  -1.40061283e+00   3.03031534e-01
   -8.32342148e-01   9.65506494e-01   9.25183296e-02   1.92324728e-01
    1.77281007e-01  -2.54029006e-01   1.33981323e+00   6.83864832e-01
   -5.02251327e-01   1.94287933e-02  -1.37392163e+00  -6.90471947e-01
    3.22265774e-01   8.87126029e-01   6.72435522e-01   1.42258084e+00
    1.18714720e-02   5.18148802e-02   6.43897951e-01  -7.63338685e-01
    2.94097424e-01  -3.60565424e-01   1.34739661e+00   1.15523148e+00
   -4.31534648e-02   2.32378387e+00  -2.96354234e-01  -3.65103573e-01
   -2.02552724e+00   3.74534696e-01  -7.96463788e-01  -1.56098890e+00
   -2.66087151e+00  -5.20196296e-02   6.78718030e-01  -3.35374564e-01
    5.46009421e-01  -6.62890911e-01   1.06765449e+00   4.24328387e-01
    5.13670564e-01   8.85498524e-01  -1.21057108e-02   8.20325732e-01
   -4.54883665e-01   3.98234665e-01  -6.22189820e-01  -2.03372277e-02
    3.50441027e+00  -6.58362925e-01   1.86651610e-02  -1.58764946e+00
   -1.42103410e+00   5.20332217e-01  -4.24999952e-01   7.08015084e-01
   -1.99543214e+00   1.30634892e+00   1.27143240e+00  -3.24370712e-01
   -3.45929563e-01   2.33995938e+00  -3.41416657e-01   4.30607736e-01
    9.07419086e-01   4.84156430e-01  -9.19199407e-01  -5.46361320e-02
    8.27556193e-01  -1.89063513e+00  -1.25475526e+00   6.86899126e-01
    5.87509155e-01  -8.68604422e-01  -2.03927588e+00   5.37709236e-01
   -4.61177766e-01   1.26766419e+00  -7.21710801e-01  -4.34476912e-01
   -6.66083276e-01  -9.68013585e-01   4.61632818e-01   1.05969465e+00
   -1.22854263e-01  -3.02504934e-02   1.76171267e+00   2.87409395e-01
    5.38415968e-01  -7.48578429e-01  -5.28274477e-01   2.19657883e-01
    1.40718520e+00  -3.39181453e-01  -4.98939902e-01  -1.31284148e-02
   -3.30577433e-01  -1.80464815e-02   1.28877604e+00   1.89452946e-01
    6.81545675e-01  -4.89729680e-02  -7.86365196e-02   2.04332209e+00
    1.44354212e+00  -2.25609564e-03   2.65266085e+00  -1.10713077e+00
   -1.56118131e+00  -2.95863330e-01   1.39171052e+00  -2.43559554e-01]
 [  1.38326132e+00   1.33779979e+00  -2.67310739e+00   7.14582205e-01
   -8.28630984e-01   1.82010245e+00  -8.57766807e-01   1.66120112e+00
   -8.07681456e-02  -4.06381726e-01   3.64166826e-01  -8.50252092e-01
    1.64425170e+00   1.20139074e+00   1.51854351e-01  -3.85996737e-02
    7.42505550e-01  -1.12369880e-01   6.84252322e-01   1.15093505e+00
   -5.20479441e-01  -4.90656137e-01   1.24133445e-01  -1.44456899e+00
   -4.29357290e-01  -6.53734922e-01  -1.45944381e+00   1.90242738e-01
   -1.93576872e-01   8.69432807e-01   2.10155845e+00  -7.84651265e-02
    1.09707963e+00  -2.12974310e-01   1.73651469e+00  -5.09172201e-01
   -6.11907840e-01  -7.24873722e-01  -3.52708399e-01   1.93730187e+00
   -2.07764924e-01  -8.79777312e-01  -2.03542739e-01   7.55019784e-01
    4.48152572e-01  -8.81661236e-01   1.18248451e+00   7.42983997e-01
    8.09442759e-01  -9.97313112e-02   3.06784455e-03   6.12904251e-01
    9.08581018e-02   6.37211144e-01   2.13785544e-01  -2.71964997e-01
    6.25458211e-02  -8.87885243e-02   4.12193000e-01   1.52800393e+00
    4.21364665e-01  -1.38853014e+00  -9.75079417e-01   1.45498729e+00
    5.09223521e-01  -8.17934394e-01  -1.41143906e+00  -1.47676218e+00
    3.46131593e-01  -2.07687449e+00   5.29855072e-01   5.37979543e-01
    5.55142939e-01  -2.15968180e+00   2.76680291e-01  -7.74801314e-01
   -1.48960125e+00   1.34406042e+00  -2.17959762e+00   4.88951147e-01
   -1.93585885e+00  -1.25794217e-01  -2.93717049e-02   2.29470953e-01
   -7.30178535e-01  -2.67167300e-01  -4.52379346e-01   3.15419555e-01
   -1.90472174e+00  -1.50836783e-03  -5.69109619e-01  -3.58055495e-02
   -1.67509258e+00  -7.91397542e-02   5.87251246e-01   3.15207690e-01
    3.66697371e-01  -2.87428200e-01  -6.81566060e-01   1.32113242e+00
    2.34332156e+00  -6.19836301e-02  -3.54568392e-01   8.21655393e-01
   -3.32538456e-01   2.66287029e-01   1.19879678e-01   8.56548846e-01
   -2.83574247e+00   1.33986723e+00   2.74251938e+00   1.12419151e-01
   -1.43066311e+00  -1.41541779e-01   1.37504065e+00  -1.02103746e+00
    2.86444873e-01  -4.77455556e-01   3.36211711e-01   9.52695459e-02
   -2.44473010e-01  -9.16673541e-01  -1.06740320e+00   8.94266367e-01
    8.03132594e-01   4.81932238e-03  -1.09491253e+00  -1.70825434e+00
    3.01993966e-01   8.17128718e-01   1.99499592e-01   1.84113848e+00
   -1.36267197e+00   7.97197580e-01   1.28623858e-01   7.92056561e-01
    4.90549773e-01   2.83101827e-01  -8.58523428e-01  -9.73066688e-01
   -7.42467120e-02  -1.71598315e-01  -9.26027969e-02  -6.22370958e-01
    2.76412861e-03   4.17714834e-01  -1.87432930e-01   1.13339424e+00
    1.81777075e-01  -1.55617865e-02   2.00328454e-01  -9.98647809e-01
    1.35171961e-03  -1.18890393e+00   1.83342472e-01  -1.74222445e+00
   -8.57904971e-01  -1.37346160e+00  -2.57167846e-01  -1.35065174e+00
   -1.87256083e-01   5.11768520e-01   1.06742382e+00  -1.74773836e+00
    2.99816757e-01   3.87406982e-02  -2.29866672e+00  -1.12406075e+00
    1.04552710e+00  -1.15955627e+00   5.07998109e-01   8.36732626e-01
    3.82088423e-01  -1.00243056e+00  -6.21266305e-01  -6.23294890e-01
    3.38468164e-01   1.74172878e+00  -1.18247032e+00  -2.04124168e-01
   -5.69717228e-01   1.49935842e-01  -6.35659754e-01   2.29784346e+00
    1.40866160e+00  -7.67688900e-02  -7.24589527e-02   2.13389301e+00
    6.70174181e-01  -4.80694979e-01  -1.45646527e-01  -4.69191492e-01
   -4.63812470e-01   2.60759741e-01  -1.81697130e-01  -1.28869629e+00
   -1.30010712e+00   5.96213520e-01  -3.28279406e-01   2.50438166e+00
   -9.21335876e-01   4.49270070e-01   4.17929254e-02   8.43431175e-01
   -5.05653992e-02  -1.85215247e+00   1.80462539e+00  -8.42589021e-01
   -2.99101233e-01   4.15215492e-01  -8.24995339e-01  -1.22174180e+00
   -1.13736606e+00   5.22565782e-01  -2.69212079e+00   8.37787867e-01
    8.30790997e-02  -1.09863615e+00   2.50634253e-01   1.11396372e+00
    2.59840459e-01  -9.43558872e-01  -7.40777031e-02   3.44712287e-01
   -1.43738675e+00  -5.38358986e-01  -1.27557909e+00  -1.13366580e+00
   -5.27368844e-01  -4.27037537e-01  -1.27375796e-01  -1.94180310e-01
    2.81287909e-01  -1.85175806e-01  -7.08624423e-01   2.58924924e-02
    8.08094859e-01   1.02929068e+00  -3.72089166e-03  -2.39313051e-01
   -3.81679416e-01   5.23505330e-01   6.41634226e-01  -1.48522091e+00
    1.42909706e-01  -1.67378461e+00   5.72175086e-01  -1.37708366e+00
   -2.06111360e+00   5.81116974e-01  -1.16895534e-01  -2.23986197e+00
    7.38353968e-01  -5.35257339e-01  -6.29592240e-01  -1.36815047e+00
   -3.33336860e-01  -2.99631804e-01   2.05204099e-01  -7.45356157e-02
   -1.12779844e+00   7.69243896e-01  -2.50871122e-01  -1.80826139e+00
    1.92836240e-01  -1.77708077e+00  -1.06814384e+00  -6.49378777e-01
   -1.03168213e+00   1.56398273e+00   5.66963375e-01  -8.13945308e-02
   -8.34502950e-02   1.00273240e+00   1.58048749e+00   1.67928791e+00
   -1.47193217e+00   7.77537823e-02  -1.21124887e+00  -8.47400784e-01
   -6.49815440e-01   1.46623123e+00   6.76078320e-01   8.96393210e-02
    4.34902161e-01  -4.69100863e-01  -7.54726008e-02  -1.02637649e+00
   -5.40542185e-01   3.23263913e-01  -5.18916011e-01   1.13112664e+00
   -6.45408034e-01   3.79422188e-01  -1.88833559e+00  -7.66925514e-01
    2.34344101e+00  -4.69544798e-01  -6.48403287e-01   2.19682921e-02
    4.58098471e-01  -3.67226779e-01   4.23136443e-01  -1.29660428e+00
    9.01466489e-01  -1.72717714e+00  -1.67858839e+00   1.74925968e-01
   -3.61993700e-01  -6.08913541e-01  -5.64782739e-01  -4.85848218e-01
   -1.50467753e+00  -4.29393709e-01   6.36270523e-01  -1.00212896e+00
   -2.66708702e-01   4.76642758e-01  -1.84577990e+00   8.55064467e-02
   -2.19682574e-01   6.15441561e-01   2.13210917e+00  -1.04237068e+00
    3.86114389e-01  -1.41214228e+00  -5.11500061e-01   8.04954469e-01
   -8.37205201e-02   2.51488298e-01   1.26299727e+00  -2.98407167e-01
    2.35021025e-01  -8.26746762e-01   5.93091547e-01  -1.90175092e+00
   -4.15976867e-02  -3.62384886e-01   5.24594858e-02  -5.86312003e-02
    8.71794641e-01   1.16578829e+00   1.11165345e+00   7.29674101e-01
    6.12064004e-01   1.26295531e+00  -6.47534132e-01   6.26266241e-01
   -6.79934680e-01  -5.32502770e-01  -5.80090523e-01  -4.98856306e-01
   -2.73365472e-02  -1.65037683e-03   8.28139633e-02   1.81924140e+00
   -1.67133793e-01   2.84526849e+00   3.36599767e-01  -2.26958990e-01
    1.67800152e+00   1.09231913e+00  -1.35272276e+00   9.01129484e-01
   -1.36563063e+00   6.20758295e-01  -2.33451016e-02   1.66518599e-01
   -1.76544178e+00   4.31190699e-01   1.48136571e-01   1.93388626e-01
    9.38632011e-01   9.50560451e-01   1.84228706e+00  -3.86900216e-01
    1.02285303e-01   2.99504236e-03  -5.92952609e-01   1.51953030e+00
   -1.48281932e+00   3.24864894e-01  -1.37068486e+00  -2.39881754e+00
   -4.86729927e-02   2.64556468e-01  -2.87203908e+00  -1.34694830e-01
    9.25543725e-01  -1.32617307e+00   3.00340708e-02   1.45248279e-01
   -1.10256338e+00  -1.13845602e-01  -6.96447968e-01  -1.63111174e+00
    8.12920034e-01  -7.79665351e-01   8.27888787e-01  -5.79716921e-01
    5.39405882e-01  -1.00436437e+00  -2.31749320e+00  -5.71643412e-01
   -1.03065944e+00  -4.80525643e-01   3.92187834e-01  -1.72235632e+00
    4.99648839e-01  -4.19432700e-01   9.24627423e-01  -1.97688162e-01
   -6.64752305e-01  -1.30121744e+00   2.52504230e-01  -1.73467386e+00
   -2.02050462e-01   2.77282000e-01   1.09427726e+00  -5.55979870e-02
    1.63031295e-01  -1.88265860e-01   7.28540659e-01   6.09577358e-01
   -4.29057002e-01  -5.69658577e-01  -5.38519621e-01   9.25645351e-01
   -3.35932994e+00   7.72362351e-02  -2.38269135e-01   4.91726734e-02
    1.71896183e+00   1.97733331e+00   8.45912457e-01  -8.23552072e-01
   -4.58451241e-01   4.44905013e-01   3.53968471e-01  -1.44692898e-01
    3.55675310e-01   5.34277678e-01   4.72062320e-01  -1.56254256e+00
   -9.03119445e-01   1.74118423e+00   4.93960500e-01  -5.24112821e-01
   -2.45466247e-01  -1.51512846e-01   1.09241140e+00  -1.52027123e-02
    4.10914242e-01   2.18752086e-01  -7.00811565e-01  -1.26790249e+00
   -8.05011809e-01   9.22640443e-01  -4.93017733e-01  -9.35408711e-01
   -2.77027301e-02  -1.21643394e-01  -7.58278608e-01   1.13315964e+00
   -1.25709808e+00  -5.00463784e-01   1.80303180e+00   1.02370965e+00
    7.96256721e-01   1.76491559e-01  -1.18929887e+00   6.10521555e-01
    4.99943167e-01  -2.38844085e+00   1.95415509e+00   1.47169083e-01
   -8.25754702e-01  -1.15553677e+00   7.73835778e-01   6.70256019e-01
   -5.31113029e-01   5.94388604e-01   3.94031286e-01  -7.90854454e-01
    1.08400226e+00   1.04190385e+00   6.73816502e-01   4.48030531e-02
   -4.88572776e-01  -5.12951845e-03  -1.41933930e+00  -9.21352565e-01
   -9.35451448e-01  -1.30851471e+00  -7.03637958e-01   2.24427566e-01
   -9.68297541e-01   6.78746760e-01   9.71688271e-01  -1.03643048e+00
    6.18757546e-01   9.92111623e-01  -1.04233377e-01  -4.92588788e-01
    4.84575629e-01  -1.10703886e+00  -3.41891408e-01  -1.78553259e+00
   -2.50252247e+00  -1.18325591e+00  -4.71648797e-02  -5.53473830e-01
    2.43907869e-01   3.45374107e-01   1.40327334e-01   4.77644444e-01
    4.11219984e-01   9.50637162e-02  -1.55555651e-01  -9.89017248e-01
    1.26298916e+00   9.60415065e-01  -6.70866847e-01   1.55108869e+00
    1.19797811e-01   1.42414677e+00  -9.67947841e-01   2.33046323e-01
    1.15180802e+00   6.04378343e-01  -1.32560745e-01  -3.84228736e-01
    6.40779018e-01   1.53605416e-01  -8.19362462e-01  -2.47846678e-01
   -5.94056010e-01   1.20241261e+00   1.49262655e+00  -8.36975574e-01
   -4.41249758e-01  -2.51549631e-01   7.05042303e-01   8.86374235e-01
    6.85240626e-01  -3.22770447e-01   4.55543883e-02   3.81321877e-01
   -1.64437509e+00   1.42244887e+00  -9.41170096e-01   5.36301255e-01
   -8.33938122e-01  -1.17723525e+00  -2.37422034e-01  -5.44983856e-02
    9.74298298e-01  -2.12026453e+00  -1.71455455e+00   1.74169336e-02
    3.75194460e-01  -2.89932340e-01   1.65357590e-01  -2.95784503e-01
    4.79692936e-01  -6.63116872e-01  -1.25242567e+00   2.30432063e-01
   -1.94204295e+00   1.23448253e+00  -4.51059759e-01  -1.89659929e+00
   -1.40820110e+00   9.99024093e-01  -6.25304937e-01   4.15069818e-01
   -2.10388947e+00   4.57226157e-01  -1.03470892e-01  -2.01450014e+00
   -8.23944569e-01   2.71884978e-01   1.60016394e+00  -3.40980768e-01
    6.02251664e-02  -2.88458675e-01   1.27008760e+00   5.67708910e-01
    7.95841396e-01  -2.88451999e-01   1.20521545e+00   1.01791942e+00
   -2.39383131e-01   1.72693551e-01   1.26499259e+00   5.74777842e-01
   -1.11217654e+00  -9.16629732e-01  -1.98852110e+00   1.28174996e+00
   -1.04278982e+00   1.91317940e+00   1.06198490e+00   1.75806749e+00
    1.68045592e-02   7.61391521e-01   1.04220617e+00  -1.03983557e+00
   -8.64499435e-02  -1.74643850e+00  -1.72860157e+00   1.00333011e+00
   -1.14624417e+00   5.12353554e-02   2.42895746e+00   6.74954236e-01
    2.33385772e-01   9.34189975e-01  -1.47052574e+00  -8.50992858e-01
    8.47408891e-01  -8.64110768e-01   4.07833040e-01   1.02769327e+00
    1.30579865e+00   1.22391140e+00   1.53400609e-03   1.79989427e-01
   -1.34054601e+00   1.88507950e+00   7.39617646e-01   9.44508255e-01
    3.53906125e-01  -1.99920690e+00   5.13636112e-01  -1.12988520e+00
   -7.58034945e-01   6.54735208e-01   1.25736070e+00   5.46421409e-01
   -1.53947815e-01  -1.81766167e-01   1.28561199e+00   5.03245890e-01
   -1.04576290e+00   5.77520311e-01  -2.61294872e-01   4.30801511e-01
    8.51518363e-02  -2.50386715e-01   1.70170808e+00  -1.57174098e+00
    1.58284104e+00  -7.97500089e-02   1.35713923e+00  -4.90899712e-01
    2.47231588e-01   1.42585218e+00  -1.64033458e-01  -1.33032882e+00
   -3.87308210e-01  -4.21931237e-01  -4.32575196e-01   1.21277070e+00
    1.96935594e+00   1.60046473e-01   9.29843962e-01   9.88613069e-01
    4.46423948e-01   1.39456153e+00   1.22649205e+00   1.56949595e-01
   -1.33000612e+00  -1.19097316e+00  -1.32393575e+00   4.18576300e-02
   -1.13000047e+00   6.42369449e-01   5.57566881e-01  -3.96023750e-01
   -1.08736061e-01   1.14878803e-01  -7.61397362e-01  -7.74515867e-01
    2.77677119e-01   2.60973752e-01  -8.58228564e-01  -8.64265203e-01
   -6.02857411e-01  -1.37657857e+00  -4.96633857e-01   1.61725700e-01
    3.11044246e-01   2.13860139e-01   1.15999973e+00   7.97282606e-02
    9.16908085e-01  -7.81628042e-02   1.56382048e+00  -1.38960850e+00
   -1.37705281e-01   2.43980312e+00  -1.49257493e+00   1.55159557e+00
   -2.45745587e+00  -1.16611636e+00  -9.86739278e-01   5.20578206e-01
    4.25364822e-01  -8.53119671e-01  -3.08022618e-01   2.41320789e-01
   -2.28465843e+00   2.31438875e+00  -2.23175645e+00   1.08480763e+00
    2.49036908e+00  -6.29482746e-01  -7.29096651e-01   9.67987597e-01
   -7.60763943e-01  -5.65250456e-01   3.44249576e-01  -1.18042541e+00
    1.95373129e-02  -3.06587309e-01  -6.52252018e-01  -6.65708482e-01
   -6.79543734e-01   7.35133111e-01  -2.66607583e-01   1.46049273e+00
    8.95740986e-01   8.39574635e-01   1.00083899e+00   1.01231828e-01
    3.95165443e-01  -8.77493978e-01   9.88420606e-01  -7.25416094e-02
   -1.13247287e+00   7.20651329e-01   9.79017317e-01  -1.62051964e+00
    1.01663208e+00   1.40818381e+00  -3.57042611e-01   1.88615096e+00
    1.24144995e+00  -7.82076716e-01   2.46838355e+00   2.13805079e-01
    1.94814777e+00  -2.04547614e-01  -3.64984006e-01   8.11231613e-01
   -1.70594573e+00   3.33660781e-01   1.73801556e-01  -3.05596441e-01
    7.25013435e-01  -1.92377400e+00   8.10039282e-01  -2.58454174e-01
   -5.88766992e-01  -2.86111891e-01   3.67593706e-01  -5.88878334e-01
   -9.24281869e-03  -4.56109822e-01   7.39691406e-02   7.24017978e-01
    1.94940493e-01   1.47604203e+00  -7.84857273e-01   1.11608541e+00
    2.13690013e-01   8.14162642e-02  -4.96435016e-01  -3.88543665e-01
    2.73394883e-01  -3.55643928e-01  -6.69839561e-01  -5.15070081e-01
   -1.32433307e+00  -6.44252121e-01   7.77089953e-01  -2.51294971e+00
   -3.12243193e-01  -8.94664168e-01  -1.89838275e-01   2.06569242e+00
    2.90395617e-01  -1.13146335e-01   4.74449366e-01  -5.18008888e-01
   -7.34892786e-01  -5.81285320e-02  -1.55115271e+00   1.08957338e+00
    2.90679157e-01  -3.47701937e-01   1.45081446e-01   3.72817874e-01
    4.92643327e-01  -1.54864419e+00  -1.75204426e-01  -2.55274504e-01
   -5.53601980e-01   4.90893483e-01   4.61536914e-01   9.14790452e-01
    1.47114620e-01  -1.11762337e-01   5.46844602e-01  -1.02548945e+00
   -8.91765714e-01  -2.28067506e-02  -5.74647665e-01  -3.77636999e-01
    8.06771100e-01  -1.06366634e+00  -1.63993931e+00   8.10484648e-01
   -3.41615021e-01   2.30128407e+00  -5.87159395e-01  -3.70523036e-01
   -8.74650300e-01   4.85232443e-01   5.18695176e-01   2.35007906e+00
    1.27934301e+00   4.03339237e-01   1.52108803e-01   6.37163669e-02
   -1.94692707e+00   6.00468218e-02   1.66576475e-01   3.16104054e-01
    1.23765981e+00  -4.45954382e-01  -1.31534085e-01   4.78252977e-01
    1.63907790e+00   7.78978109e-01   1.55584145e+00   3.19633335e-01
    1.52001396e-01   3.92543465e-01  -1.91056341e-01  -7.69980550e-01
   -1.25144804e+00  -2.74124050e+00   4.87216800e-01   4.62606370e-01
    4.41814870e-01   1.05680697e-01   7.09029257e-01  -3.58425170e-01
   -1.01364434e+00   1.06885850e+00  -1.49722564e+00  -7.04793096e-01
    1.56618583e+00   1.35105085e+00  -3.58531177e-01  -4.27712262e-01
   -5.09703755e-02  -4.61737841e-01   2.59469461e+00  -1.52498618e-01
   -2.72846651e+00   6.63071051e-02  -2.45676851e+00   1.47747922e+00
    1.19801736e+00  -6.86738849e-01   1.72045305e-01   1.08707345e+00
   -1.14227986e+00   5.77112019e-01  -1.83228627e-01  -3.91080081e-01
    3.43217552e-01  -1.86155379e-01  -6.21439159e-01  -1.00402951e+00
    2.66726524e-01  -5.80916882e-01  -8.95941436e-01  -3.71433437e-01
    1.15996039e+00   9.56864834e-01   1.41313827e+00   2.18703985e+00
   -4.50317860e-01   5.26826918e-01   7.51635790e-01   1.16255295e+00
   -8.22169423e-01   1.73252618e+00  -4.01872516e-01  -7.55998075e-01
   -7.12983370e-01  -1.04740095e+00  -6.66643798e-01  -3.92506391e-01
   -6.91385865e-01  -7.11390257e-01  -7.43468642e-01  -6.07962489e-01
   -4.52000260e-01   8.77239227e-01  -5.67506373e-01   3.37916088e+00
    8.45915318e-01   9.60716188e-01   1.63609302e+00   3.03467929e-01
   -1.13116276e+00   5.31480730e-01  -2.60244049e-02  -2.43176907e-01
    5.27764857e-01   2.45475435e+00   4.30615872e-01   7.51099586e-01
    2.63203494e-02   3.50373328e-01  -1.11207056e+00  -1.93747413e+00
    1.00963867e+00  -1.98599958e+00  -5.91190398e-01  -2.69766855e+00
   -8.68551016e-01  -1.87912011e+00   1.40951827e-01   4.53372419e-01
    3.26957181e-02   1.12192798e+00   1.35544145e+00   1.27779436e+00
   -8.19889829e-04   3.04978073e-01  -6.89097464e-01   1.20565541e-01
    9.94227231e-01  -5.15351355e-01   1.72885263e+00  -1.05538952e+00
   -1.02319501e-01  -5.12640297e-01   1.11555445e+00  -8.40769708e-01
   -3.10985774e-01  -9.74951029e-01   4.53472644e-01  -2.54963845e-01
    1.31771863e-01   4.85677831e-02   4.75455642e-01  -4.44082588e-01
   -1.09817296e-01   4.35615569e-01  -8.36948395e-01   1.11045623e+00
   -6.19797349e-01   4.94595736e-01   7.77535796e-01  -1.63065746e-01
    7.89802611e-01   1.35660434e+00   1.52594239e-01   5.50487339e-01
   -2.17965260e-01   1.29195094e+00   1.32877982e+00  -1.30334353e+00
   -5.10370314e-01  -4.21066225e-01   1.40049946e+00  -1.44141644e-01
    1.18641782e+00   6.23294830e-01  -2.79845405e+00  -8.35572064e-01
    2.82895279e+00   8.57384026e-01  -9.84065294e-01  -1.37449300e+00
    7.11664021e-01  -9.12997842e-01   1.90253466e-01  -4.02893960e-01
    3.69013518e-01   1.12363482e+00  -3.00641567e-01  -2.39609480e-01
   -3.88607025e-01  -2.64595658e-01  -1.80550069e-02   1.27568567e+00
   -1.89112282e+00   7.50898523e-03   6.85309097e-02  -7.39345849e-01
   -1.05427146e+00   6.88226447e-02  -3.64919633e-01   2.47150517e+00
    1.02364922e+00  -1.12416065e+00  -5.08044422e-01  -1.44293800e-01
   -1.31824982e+00   1.13123858e+00   2.17666221e+00   5.92943728e-01
    8.42261910e-01  -9.89017904e-01   1.44433999e+00  -1.13943672e+00]
 [ -2.39243793e+00  -9.88059878e-01  -2.37217126e-03   8.66350949e-01
    8.64679098e-01  -1.13492608e+00   2.13643357e-01   1.08519173e+00
    9.26132679e-01  -4.59363818e-01   7.16448575e-03   3.71775240e-01
   -4.97520655e-01   7.05705643e-01   1.03767610e+00  -6.33410990e-01
   -1.31799743e-01  -8.75530243e-01  -7.04218447e-02  -1.07386494e+00
    2.11660102e-01  -4.88667578e-01  -1.66856849e+00   5.71101964e-01
    1.87667871e+00   6.92977130e-01   6.31929219e-01  -1.88039267e+00
   -2.01751423e+00   2.41133422e-01  -3.52045864e-01  -3.91808361e-01
   -1.42734683e+00  -4.82000768e-01   5.54724157e-01   7.05940485e-01
   -2.21833378e-01   1.16059709e+00  -8.51183236e-01  -1.29218006e+00
   -3.67034674e-01   2.47070208e-01  -9.46208537e-01   2.89618462e-01
    4.73875195e-01   2.20849261e-01   1.46478677e+00   5.32994449e-01
   -5.28830886e-01  -1.77807420e-01   1.30217195e+00  -1.26584545e-01
   -1.38835883e+00  -1.08555704e-02   9.51770306e-01  -1.47001719e+00
   -3.38720888e-01  -2.93430716e-01   2.25125968e-01  -1.21498597e+00
   -5.83927035e-01   5.26216269e-01  -1.09847391e+00   4.31528032e-01
    7.26525366e-01   9.99407113e-01   2.02171169e-02  -2.90911216e-02
   -1.47064164e-01  -6.59779608e-02  -1.14399517e+00  -1.17535698e+00
   -8.60578299e-01   1.37920439e-01   3.40086907e-01   1.65872347e+00
   -5.10117173e-01   1.23995650e+00  -1.09305179e+00  -6.80220068e-01
    7.34899640e-01   7.44161129e-01  -9.62986052e-01   4.84316759e-02
   -7.88165867e-01  -3.66727650e-01   1.95575103e-01   1.63830745e+00
    1.41282856e+00   1.60696733e+00   1.21856995e-01   2.56859064e-01
    8.91633093e-01  -2.82240957e-01  -4.90426123e-01   2.32712030e+00
   -3.69284749e-01   4.65791553e-01   6.31734967e-01  -2.06914520e+00
   -1.06477571e+00  -2.29435468e+00  -1.19097519e+00   6.22040927e-01
    5.52756667e-01  -5.59312165e-01  -3.66931647e-01  -1.07112300e+00
    1.06439605e-01   5.96708417e-01  -6.05052650e-01   4.10738826e-01
    7.75146842e-01   4.76463228e-01   6.91373765e-01   4.81272012e-01
   -5.52578717e-02   1.47028017e+00   1.97096065e-01   1.89385617e+00
    3.05670261e-01   4.62245286e-01  -3.30762684e-01   1.51196229e+00
    2.87885934e-01   1.08831711e-01   6.09749615e-01   5.54165721e-01
   -1.55226326e+00  -1.18889010e+00  -1.11365473e+00  -1.06614685e+00
    8.87342155e-01  -1.24109641e-01  -6.48331165e-01  -2.20613748e-01
   -1.42987740e+00   4.63166952e-01  -2.76354611e-01   1.39756894e+00
   -1.61603808e-01   2.65238196e-01  -2.17468232e-01   5.97614683e-02
   -6.59250081e-01  -1.45709515e+00  -1.19777918e+00   9.95132104e-02
   -6.56407654e-01   2.27491856e+00  -1.09234679e+00   1.43563604e+00
   -1.07090437e+00   1.00131512e+00  -9.90912914e-01   1.04463466e-01
    1.29631448e+00   1.70288467e+00  -1.64414048e+00  -7.22540677e-01
    1.11604989e+00  -5.58077574e-01   1.36718452e+00  -4.86868203e-01
   -2.26275757e-01  -1.71542752e+00   1.81805849e+00   2.47560292e-01
    7.10097969e-01   2.80295968e-01   1.91469228e+00  -7.58609354e-01
    8.10359657e-01   7.04122901e-01  -1.61285445e-01   9.40583646e-01
   -5.40485203e-01   5.34634769e-01  -4.64723587e-01   2.05275625e-01
   -2.29351118e-01   6.00425422e-01   1.82531261e+00   1.82161319e+00
   -2.93110609e-01  -7.93132931e-03  -6.50367379e-01  -1.12039715e-01
   -1.57806861e+00   3.92017394e-01   7.94356048e-01  -5.49987137e-01
   -7.17705786e-01   3.25066209e-01  -9.63875949e-02   2.10599542e+00
   -5.69683194e-01  -1.52872384e-01  -1.09079909e+00   3.54347937e-02
   -1.00539887e+00   3.10860649e-02   8.33853841e-01   3.08645844e-01
    1.66668785e+00   3.14648986e-01  -2.58850921e-02   1.24236917e+00
   -1.31484604e+00  -5.55164039e-01  -1.47374403e+00   1.35916889e+00
    2.41304412e-02   1.69677186e+00  -5.26977517e-02  -2.36129463e-01
   -4.99717519e-02  -1.64557087e+00  -8.39495480e-01  -4.50235695e-01
    7.67123520e-01  -9.12645876e-01   2.67576575e-01  -6.28014624e-01
   -3.33678335e-01   3.52034569e-01  -9.56347048e-01  -2.80950546e-01
    8.11281025e-01   2.20219684e+00  -9.37432423e-02  -5.38457990e-01
   -3.79836112e-02   1.21316671e+00   4.08240296e-02   4.31221843e-01
    1.32051790e+00   1.43931746e+00   1.38838756e+00  -3.33304465e-01
   -4.85721201e-01  -8.76802728e-02   9.04399872e-01  -6.86273992e-01
    6.78463638e-01  -1.06258607e+00   3.65259576e+00  -6.86675072e-01
    2.73324437e-02  -7.88542747e-01   1.88427961e+00  -6.56914949e-01
    5.79893172e-01  -7.75610685e-01  -3.05437803e-01  -1.97582912e+00
   -2.22983912e-01   1.74342304e-01  -6.03612006e-01  -1.28692776e-01
   -1.20477343e+00   1.87997234e+00  -6.70370221e-01  -9.24016118e-01
    4.98366147e-01  -4.31398481e-01  -2.39431453e+00   1.81300431e-01
   -5.72468758e-01  -6.68647587e-02   2.30862707e-01   1.32579648e+00
    1.73522675e+00   8.68611455e-01  -1.64210089e-02   1.95868886e+00
   -9.26767230e-01   4.19012047e-02  -7.79414117e-01   5.98583698e-01
   -5.36939979e-01  -8.99048388e-01  -1.13755500e+00  -1.53965354e-01
   -1.06144321e+00   1.73390305e+00   1.74757257e-01  -8.84735525e-01
    2.62576908e-01  -7.00459361e-01   1.56679690e+00  -3.96379471e-01
    8.12994480e-01  -1.21290994e+00   3.65902573e-01  -6.86683893e-01
    1.65744078e+00   1.17037334e-01  -6.33931756e-01  -1.23103130e+00
   -1.12278211e+00   1.84002876e+00   9.13415730e-01  -1.06363070e+00
    3.86487655e-02   3.24930608e-01   2.24790573e-01  -7.14670002e-01
   -1.20080614e+00  -2.88715303e-01  -8.93515572e-02   3.82618070e-01
    1.03785408e+00  -2.32471675e-01  -1.02647662e+00  -1.46904945e-01
   -2.56343007e+00  -2.04785436e-01  -8.40304971e-01  -8.04364800e-01
    6.15659356e-01   1.68370986e+00  -6.60369217e-01  -5.45785189e-01
    9.74587858e-01  -2.30826712e+00   1.55255246e+00   8.43326688e-01
    1.11198986e+00  -7.77196065e-02  -1.34150159e+00   1.52083683e+00
    7.39376903e-01   7.60284588e-02  -3.57589513e-01   4.09167081e-01
   -3.77146155e-01  -5.22990786e-02  -2.53305292e+00  -9.54948485e-01
    1.83336842e+00   7.71554470e-01  -1.85461879e-01   1.69387436e+00
   -1.01014543e+00  -3.25573385e-01   6.83173001e-01  -2.01946068e+00
   -6.80594385e-01   2.50286669e-01   1.91586447e+00  -3.01544249e-01
    1.55885518e+00   3.75068426e-01  -6.53229356e-01   2.36329556e-01
   -1.96839944e-01  -1.73228219e-01   3.18089485e-01   6.12460732e-01
   -1.92685425e-01   1.19066608e+00  -1.23010790e+00  -6.36500955e-01
    9.76312518e-01  -1.68390048e+00   1.54377997e-01   1.86261445e-01
   -6.10726118e-01   2.37606782e-02   3.51817310e-01  -3.16743076e-01
   -8.61512780e-01  -1.10423696e+00  -1.13513768e+00  -1.78392649e+00
    7.63729274e-01  -8.73228252e-01   1.01388656e-01   1.29880190e+00
    1.50485075e+00  -3.37092847e-01   2.56974131e-01   1.99678615e-01
   -3.21078330e-01   1.28979206e-01  -1.05389380e+00  -4.84664440e-01
   -1.51232708e+00  -3.21412474e-01   4.23140049e-01   8.90863478e-01
   -1.60468018e+00  -1.19134390e+00  -1.62137017e-01  -6.90167546e-01
   -2.40723276e+00   1.00091445e+00   1.30038941e+00  -2.22673416e-01
   -7.83202112e-01   1.21331915e-01   3.88520837e-01   5.17147124e-01
   -1.09432304e+00   2.44958830e+00  -5.97720623e-01   3.28035921e-01
   -1.01298261e+00  -8.77234578e-01   7.20667779e-01   1.80923426e+00
   -2.00976086e+00  -2.51609325e-01  -5.73636413e-01  -3.05468261e-01
    7.79017866e-01   1.18744946e+00  -2.19102278e-01   6.29098415e-01
   -5.21590769e-01  -1.12400246e+00  -1.33603907e+00   2.62378812e+00
    4.57505733e-01  -1.02242017e+00   2.82665014e+00   1.48488200e+00
   -2.16105270e+00   8.83454740e-01  -2.37622991e-01   1.06429529e+00
   -4.76918757e-01  -2.07011983e-01   1.06480515e+00  -4.55429763e-01
    1.40733719e+00   7.52046466e-01  -2.48305723e-01  -1.58358026e+00
    8.48738849e-02   1.85953057e+00  -7.52940118e-01  -1.29080570e+00
    1.51979044e-01   7.04980433e-01  -9.43417728e-01   1.14114213e+00
    3.20405096e-01  -1.63680196e+00   5.51080778e-02   1.81028798e-01
    1.51301056e-01   2.15032077e+00   3.83046791e-02   7.99563289e-01
    9.45006371e-01  -1.54650584e-01  -3.10586810e-01   9.44108188e-01
   -5.75192750e-01  -5.71704805e-01  -1.37871087e+00  -1.07510495e+00
    6.70460880e-01   7.74979174e-01  -5.60055375e-02   1.49827504e+00
    6.33569598e-01   1.23698986e+00   1.04023635e+00  -3.68659012e-02
    2.36519480e+00  -9.42834258e-01  -2.93218523e-01   2.62847781e-01
    4.65393811e-01  -1.50235295e+00   1.33603454e-01  -5.99811912e-01
    4.85170513e-01   6.30301297e-01   1.06804132e+00   2.27009542e-02
    4.42584418e-02   5.04641652e-01   5.99240363e-01   7.67458975e-01
    1.05821574e+00   3.94590735e-01   1.32285392e+00  -6.30329907e-01
   -1.38562787e+00  -2.27727666e-01  -8.29529345e-01  -9.70673636e-02
    1.27718592e+00   9.22761142e-01  -2.64757276e-01  -5.99836633e-02
    2.59708077e-01  -2.42822599e+00  -1.14392316e+00  -1.03697848e+00
   -1.57043326e+00  -3.39222789e-01   2.21678644e-01  -3.84839058e-01
    1.22922361e+00  -3.89805973e-01   8.23590457e-01  -4.43018287e-01
    2.23018780e-01  -1.63257039e+00  -1.34643245e+00   3.15369636e-01
    3.90131146e-01  -7.74954617e-01   3.11585248e-01   9.71173048e-01
   -1.18251646e+00  -1.74465752e+00  -4.46045518e-01  -1.01960528e+00
    2.06067777e+00   9.11593139e-01  -5.65877736e-01  -1.17030799e+00
   -1.24800277e+00   4.74649310e-01  -6.74132304e-03  -6.26568437e-01
    2.38952780e+00   8.69168937e-01  -1.91854492e-01   8.63341153e-01
    8.77427161e-01  -1.21792579e+00   1.64179397e+00   4.18543369e-01
    1.58840036e+00   8.03542078e-01   7.73443341e-01  -7.25479424e-01
   -3.05290222e-01   1.19989388e-01   3.48972559e-01  -1.52880561e+00
    1.85350871e+00  -9.96370256e-01  -1.55010653e+00  -3.13226432e-01
    6.31220639e-01   8.01978707e-01  -1.50229827e-01  -1.58089221e-01
   -5.05299687e-01  -4.71691728e-01   1.53522503e+00  -7.50337005e-01
   -1.28503460e-02   2.90346473e-01   1.29926372e+00  -4.98950392e-01
   -4.40979838e-01  -6.24387681e-01  -6.11733437e-01   4.73861583e-02
    2.12990952e+00  -1.22257292e+00   9.51379836e-01  -1.21879375e+00
   -1.11892596e-01  -1.60460025e-01  -1.17923129e+00   7.67627135e-02
   -1.67311653e-01   1.30643404e+00  -5.73432982e-01  -1.08551919e+00
   -8.62352103e-02   6.10154629e-01  -1.97289675e-01  -4.80249859e-02
   -2.75342554e-01   1.34136945e-01   1.67073107e+00  -4.44764167e-01
    8.34692776e-01  -2.39363575e+00   1.03640795e+00  -1.21781981e+00
   -3.12340081e-01   3.14520985e-01  -1.09003675e+00  -1.65967137e-01
    1.88066852e+00   1.94215685e-01   8.89587328e-02  -9.01166856e-01
   -1.49112964e+00   3.52318883e-02  -9.78020668e-01   1.82573044e+00
    9.93161052e-02  -2.68921781e+00  -4.13194925e-01  -3.52208585e-01
    3.05967510e-01   1.35466075e+00  -1.96165121e+00  -1.54910314e+00
   -3.18047881e-01   6.35159612e-01  -1.44972771e-01  -9.51504335e-02
    2.35860869e-01   5.59762061e-01  -2.92702705e-01   1.15476370e+00
    1.70348811e+00  -6.31816030e-01  -7.61705339e-01   3.53998631e-01
    3.16083968e-01  -2.87630409e-01   1.28835635e-02  -2.67002046e-01
    1.78813422e+00  -3.33360851e-01   1.08533227e+00   4.71756428e-01
    1.48960900e+00   3.88706535e-01   7.81690001e-01  -1.45259249e+00
   -2.45071724e-01  -4.96822089e-01  -1.50588107e+00  -1.24075782e+00
    2.21806809e-01   6.68578520e-02   1.21637869e+00  -2.04867914e-01
    2.67118549e+00  -1.40361577e-01  -4.43511873e-01  -5.11919379e-01
    9.77504253e-01   1.56012273e+00  -5.81691086e-01  -3.74578834e-01
   -1.34659660e+00  -1.81125832e+00   1.17890024e+00   3.60146105e-01
   -8.77577886e-02  -6.43284738e-01   2.69887298e-02   1.35264456e+00
    6.71849996e-02   4.03166771e-01  -6.53665304e-01  -7.54036665e-01
    3.98024023e-01   1.96636245e-01   4.78742450e-01  -2.20204806e+00
    5.65408826e-01  -4.28913176e-01   1.14378190e+00  -8.98246527e-01
   -8.54648426e-02  -1.12362683e+00   1.60242522e+00   4.82201219e-01
   -7.54924536e-01  -2.88582134e+00  -2.05112502e-01   1.82051682e+00
    1.03016627e+00   2.67282158e-01   1.12110031e+00   1.02521706e+00
   -3.48936647e-01  -1.95840907e+00  -3.86510462e-01   4.16796505e-01
   -1.51418316e+00  -1.82243276e+00   1.30371785e+00   8.37792814e-01
    3.26576853e+00   2.42845044e-01  -1.00897181e+00  -1.24505329e+00
   -6.25342548e-01  -1.77822983e+00   1.25258386e+00   2.43237674e-01
    1.82265890e+00   1.43916941e+00  -3.01621884e-01   7.98326433e-01
    7.46409714e-01   3.20617139e-01   5.25401413e-01   4.11317348e-01
   -7.21247077e-01   5.63162565e-01   8.21664751e-01  -5.54949343e-02
    1.08633852e+00  -1.46656811e-01  -4.80493695e-01   6.80955648e-01
    3.54419023e-01   5.82962446e-02  -1.58330068e-01   7.17003286e-01
    2.44415355e+00   1.07974745e-01  -1.11262821e-01  -5.32319956e-02
    1.36727011e+00   2.68867850e-01   7.95188427e-01   1.53427947e+00
   -4.65993702e-01  -1.84196442e-01  -1.38743305e+00  -1.58736479e+00
    4.61051434e-01   1.24243319e+00   1.03836906e+00   6.75746441e-01
    5.81237137e-01   1.18410194e+00  -1.09646046e+00   9.32252288e-01
    3.51871789e-01  -1.83199823e+00  -4.51046377e-01   1.98471117e+00
   -1.10777192e-01   2.32491180e-01  -2.77197659e-01  -1.23542225e+00
    8.12956572e-01   1.79550040e+00  -5.43881893e-01   1.28610599e+00
    1.62436593e+00  -5.80063760e-01   5.93871534e-01   6.58111095e-01
    1.14135742e+00   9.19217885e-01  -9.83086824e-02   1.23201139e-01
   -3.45930547e-01   6.22036457e-01   2.04969704e-01  -6.13672376e-01
    1.22713065e+00   9.96282041e-01  -1.03555799e+00  -3.54616076e-01
   -9.00407791e-01  -1.31698608e-01   5.80860078e-01   4.80731204e-02
    2.81103164e-01   2.05325171e-01   7.50861466e-01  -1.40305042e+00
    8.63956749e-01   5.08420229e-01  -1.02746558e+00   1.25678867e-01
   -5.59409142e-01  -2.45225757e-01   3.69501650e-01   9.70314026e-01
   -1.47040653e+00  -6.72529757e-01  -1.64865151e-01  -2.32192683e+00
   -6.72977448e-01  -1.27667144e-01  -1.83044171e+00  -2.61592795e-03
   -7.65584558e-02  -6.24192297e-01   3.42503697e-01   3.19210935e+00
   -1.28345382e+00   1.99310422e+00  -5.12456357e-01   1.39013398e+00
   -1.18236387e+00  -8.36666077e-02  -6.21950328e-01  -2.90922999e-01
   -2.29152516e-01  -1.37082744e+00   7.98662961e-01   1.09674251e+00
   -7.28875220e-01   9.17338371e-01   4.04965729e-01  -1.61585376e-01
   -8.69918704e-01   2.22906455e-01  -2.36440349e+00  -4.71106499e-01
   -6.90140247e-01  -1.32060969e+00  -6.37813061e-02  -2.65006393e-01
   -6.25146702e-02   9.18444872e-01   1.82812825e-01   5.28563499e-01
    4.69050467e-01   8.04250762e-02  -2.13706994e+00   4.73685563e-01
    4.97358859e-01   1.77480519e-01   2.44889951e+00  -2.09859997e-01
    2.43851826e-01  -9.33496177e-01  -2.08492607e-01  -1.28100336e+00
    4.36812639e-01  -1.28086552e-01   1.84462428e-01   5.13049245e-01
    5.86316943e-01  -1.05622401e-02   4.64549303e-01   5.26504554e-02
   -5.15803337e-01   3.51259112e-01   4.62342203e-01   5.51217735e-01
   -1.34917140e+00   7.93145537e-01  -1.76996380e-01  -1.29810497e-01
   -3.90072733e-01  -1.07067084e+00   2.56848335e-01   7.68166304e-01
    3.51173759e-01   1.17181897e+00  -2.20667288e-01  -5.99780202e-01
   -2.45471243e-02   1.23867166e+00  -7.91425169e-01   5.76175451e-02
   -4.83586848e-01  -8.54901314e-01   1.14554465e+00   5.06686687e-01
    1.12043750e+00   1.50744244e-01  -2.77201980e-01  -9.99737799e-01
   -2.33409762e+00  -1.33754647e+00  -2.34931397e+00   3.68607402e-01
    1.35899186e+00  -9.22474086e-01  -4.77890849e-01  -7.02116787e-01
   -3.11059266e-01   5.66704988e-01  -4.63168442e-01   2.50031739e-01
   -3.52217525e-01  -2.87510097e-01  -1.06772482e+00   6.39492691e-01
    6.07064426e-01   3.94307286e-01   1.01381743e+00   1.62965596e-01
    9.21954334e-01  -2.74806499e-01  -1.21805310e-01  -9.00699377e-01
    9.68243301e-01  -8.89684781e-02   1.81872204e-01   6.41703606e-01
   -8.63995790e-01  -3.39718550e-01  -1.00136936e+00   9.93691921e-01
   -8.20990920e-01   2.85317242e-01   2.75601506e+00   1.55719841e+00
    1.82047200e+00   1.46385980e+00   1.11425543e+00  -1.63978100e+00
    1.98698854e+00   3.26876253e-01   5.75284958e-01  -9.47978854e-01
    3.18630487e-01   3.58667701e-01   2.33692586e-01  -1.18320012e+00
   -6.60653338e-02   4.16588306e-01   1.20856798e+00   2.09601307e+00
   -2.36708474e+00  -1.14137506e+00  -2.04272723e+00   2.00493670e+00
    2.08577418e+00  -2.68633533e-02   2.94519544e-01  -3.61287743e-02
    1.25446928e+00  -2.17459822e+00  -1.63452518e+00   8.74098718e-01
   -2.24856877e+00   1.31792963e+00   1.07572472e+00  -9.26075161e-01
   -4.91266698e-01   1.72492623e+00   8.95367622e-01   1.22729745e-02
    6.78452909e-01   1.93151438e+00   1.23717713e+00   1.71690989e+00
   -1.42623806e+00  -1.41333115e+00   9.56816018e-01  -8.11058581e-01
   -1.91491038e-01  -8.25072885e-01   3.18499088e-01   1.40370357e+00
   -3.64164209e+00  -9.78841960e-01  -1.43390059e+00   1.70407236e+00
    6.68775916e-01  -1.33791316e+00   1.38353193e+00   2.08407268e-01
   -1.00747335e+00   2.68706176e-02   9.69273686e-01  -1.42273581e+00
   -7.63062954e-01   9.85787511e-01  -1.03367472e+00   1.07749753e-01
   -2.14733794e-01  -4.70269233e-01   5.68143785e-01  -1.82881221e-01
    1.05433226e+00  -1.70146033e-01  -7.17671275e-01   8.86956871e-01
    6.04694128e-01   1.11525881e+00   2.88854003e-01   5.13946295e-01
   -5.03002815e-02   1.43401468e+00   3.01900685e-01   1.81363761e-01
    1.99468713e-02  -1.09316027e+00  -1.63678125e-01   1.96368778e+00
   -1.87589705e-01   7.28065133e-01  -7.02259481e-01  -3.32143992e-01
    1.58011854e-01  -9.78274882e-01  -9.94215786e-01  -6.66394055e-01
    9.11274076e-01   3.84250470e-02  -9.21769679e-01   7.62971938e-01
   -1.68016911e+00   4.33602691e-01   8.98510695e-01   6.60465002e-01
    4.21529382e-01   9.39022541e-01   9.12342072e-01   6.40239835e-01
    1.00684845e+00  -6.45705402e-01   6.22164309e-01   1.05243313e+00
   -2.57621139e-01   2.45308757e+00  -1.29065096e+00   6.54415250e-01
   -7.76203632e-01  -8.89509737e-01   1.11880052e+00  -1.47548065e-01]
 [  8.24210346e-01   1.27616644e+00  -5.44625044e-01   8.90239716e-01
    1.38445175e+00   1.71227142e-01  -1.12844205e+00  -1.57705709e-01
    9.68120515e-01  -8.03016245e-01  -1.71827525e-01   1.38693166e+00
   -1.08577728e+00  -5.96656263e-01   3.05218756e-01   2.77936316e+00
   -2.12071896e-01   2.67561913e-01  -8.86388838e-01  -1.36853778e+00
    7.43667781e-01   9.59510684e-01   2.55553436e+00  -6.86191440e-01
   -3.16394597e-01   3.41179103e-01  -1.01211458e-01   8.78697932e-01
   -3.18996683e-02   5.72364450e-01  -2.46328384e-01   4.56347525e-01
   -2.66981833e-02   1.56069744e+00   9.04894710e-01  -8.22311819e-01
   -7.28845503e-03   1.60184145e+00  -5.32260835e-01  -1.00516188e+00
   -3.30957502e-01  -1.02345419e+00  -3.26096535e-01  -1.03058910e+00
    6.39504373e-01  -1.28325030e-01  -1.00966781e-01  -2.88392641e-02
    3.39437909e-02  -8.55156481e-01  -1.00344574e+00   4.22899067e-01
   -6.66408166e-02   8.72183263e-01  -8.50650430e-01   4.14846003e-01
   -1.10395521e-01   8.43218148e-01  -9.88309860e-01  -1.30091977e+00
   -5.60365617e-01  -3.95888299e-01   2.11711240e+00  -5.76879501e-01
    1.64263695e-01  -3.04158390e-01  -2.47837603e-01  -8.66725683e-01
    1.00593895e-01  -8.82934988e-01   1.61965466e+00  -3.00892174e-01
   -6.84714854e-01  -7.41990805e-01   1.43828702e+00   6.58028007e-01
   -4.43080544e-01   3.36940587e-02   2.27797762e-01   1.86671376e+00
    6.27129853e-01  -2.52167791e-01  -5.97829640e-01  -4.78198737e-01
    8.09012353e-01  -7.73735166e-01  -1.18866555e-01  -1.79352450e+00
    1.45419872e+00   5.70406392e-02   6.18084848e-01  -1.39448285e+00
   -1.13900632e-01  -8.15089464e-01  -5.62066138e-01   2.18378925e+00
   -1.07024920e+00   1.16145360e+00   6.19572937e-01  -4.59985554e-01
    5.11724770e-01  -8.65416944e-01  -7.12083936e-01  -6.23883069e-01
   -6.11974120e-01   5.88856936e-01   5.82695007e-01  -1.69858769e-01
    3.41902018e-01   1.15980506e+00   1.53145799e-02   1.00773418e+00
   -1.40939265e-01   1.60857546e+00  -6.14759803e-01   5.66935129e-02
    2.36302495e-01   2.11265311e-02   8.56056809e-02  -1.17372561e+00
    1.24936485e+00  -4.21129942e-01  -1.22993636e+00  -6.07805490e-01
   -1.31223118e+00   6.87677324e-01  -2.52178907e-02   2.81224757e-01
   -1.47845328e+00   1.13002646e+00  -3.33422899e-01  -3.55125874e-01
    4.15159047e-01  -1.77307451e+00  -1.14505565e+00  -1.22443593e+00
   -7.10164189e-01  -4.78613645e-01  -7.62499809e-01  -4.79051977e-01
   -4.18084204e-01  -1.03967106e+00   1.17986977e+00  -6.45435214e-01
   -1.90764442e-01  -1.15588820e+00   1.82902825e+00  -1.32150287e-02
   -8.00733864e-02  -4.70682561e-01  -4.65813071e-01   8.36882293e-01
   -1.67101026e+00   2.16626957e-01  -1.43263996e+00   1.86061609e+00
    3.32252413e-01   7.67132282e-01   6.57983869e-02  -1.44236118e-01
   -1.65769732e+00   9.96792078e-01   1.47844505e+00  -1.48227179e+00
    1.09575844e+00  -5.15184402e-01   5.81069812e-02  -8.94845247e-01
   -7.46446609e-01   1.24393535e+00  -2.57461369e-01  -2.78743315e+00
    3.33683610e-01  -1.11545193e+00   2.98910558e-01   1.29106021e+00
   -1.22933388e+00  -1.91188514e-01  -5.65082729e-01   2.85763693e+00
    8.22344601e-01  -2.53350109e-01   5.49400412e-02   1.13475811e+00
    2.67786652e-01   6.77818477e-01   1.04632032e+00   2.03065562e+00
    8.94916505e-02   1.09349585e+00  -8.54350507e-01   2.84994572e-01
   -1.27249467e+00   4.71233785e-01   6.89529300e-01   6.49366602e-02
    3.49030524e-01   5.97650349e-01   4.24910128e-01  -7.48386502e-01
    7.97554791e-01  -3.62266570e-01  -6.67324886e-02   1.56394765e-01
   -1.39523005e+00   1.80636108e-01  -2.15728581e-01   1.99109292e+00
    1.82665253e+00   7.61835456e-01   1.81653869e+00   6.08888388e-01
    1.15223086e+00  -1.33729482e+00  -1.89166307e+00  -4.31858540e-01
    4.60045010e-01   1.05329227e+00   5.08355737e-01  -1.25305176e-01
    8.04547817e-02   1.64355028e+00  -6.11920416e-01   1.57749307e+00
    1.85933858e-01   6.92997158e-01  -8.77098441e-01   3.21677774e-01
    1.14337885e+00   1.65553975e+00  -1.99456251e+00  -5.69673255e-02
   -2.29057446e-01   8.15545261e-01   2.58700776e+00  -1.23695759e-02
    2.21679583e-01  -5.72912514e-01  -1.78780198e+00  -1.69901979e+00
   -8.75341296e-01  -3.26834232e-01   4.18347239e-01  -6.51306333e-03
   -1.10900499e-01   9.29000378e-01  -1.14046597e+00  -5.07229984e-01
   -1.31724286e+00   1.49681592e+00  -3.73467863e-01   1.04974270e+00
   -3.33841711e-01  -3.68289888e-01  -6.83251262e-01   7.11525977e-02
    1.47379434e+00  -1.76830724e-01   7.66519487e-01  -1.07587099e-01
   -1.27477515e+00   1.30019760e+00   9.89042878e-01   1.21504200e+00
   -4.44172263e-01  -7.30606437e-01  -4.82736349e-01   3.27619702e-01
    1.32348791e-01  -2.13151630e-02  -9.37920809e-01   1.52668968e-01
    3.94578159e-01   1.26001954e+00  -1.05383956e+00   2.04325855e-01
    1.28556252e+00  -9.73588943e-01  -4.85804111e-01  -2.22456619e-01
   -8.56950819e-01  -7.56475031e-02   6.04715943e-02   6.48935974e-01
   -1.20755422e+00  -1.22314751e+00  -1.28006387e+00   1.57713199e+00
    1.74913990e+00   4.25926387e-01   4.32759821e-01  -6.93104446e-01
    1.22531593e+00   6.11094177e-01   1.74139273e+00   6.24020040e-01
   -7.07684010e-02  -2.31843740e-01  -8.26237738e-01  -3.45225304e-01
    2.10723355e-01   9.56260622e-01  -1.33716929e+00  -2.22545907e-01
   -2.85688043e-01  -1.86325562e+00   2.86757380e-01   2.25285983e+00
    1.03539073e+00   1.84213057e-01   4.87456381e-01  -1.02809094e-01
   -7.94726431e-01   4.50272501e-01  -2.68517971e-01  -1.69086963e-01
    6.48850977e-01  -5.30622602e-01  -7.05647528e-01   1.18005824e+00
   -1.03390314e-01  -3.15653123e-02   2.35204175e-02   1.05658732e-01
   -4.37503695e-01   1.28400624e+00  -4.20009255e-01   8.66848052e-01
   -3.67850572e-01   2.41882920e-01  -2.89032578e+00   1.25291526e-01
    4.19514209e-01   1.09933607e-01  -2.06875205e+00  -8.62962604e-01
   -5.38556397e-01  -1.41270936e+00   2.34828949e+00   3.52920920e-01
    9.33158696e-01   9.32633206e-02   3.07425261e-01  -1.12513447e+00
    2.26478502e-01  -8.61985087e-01  -7.72325099e-01   4.93352294e-01
   -9.44153309e-01   4.86455977e-01  -7.18937591e-02  -8.92835855e-02
   -1.09360194e+00  -4.16461378e-01  -1.63818523e-01  -1.35130603e-02
    5.46643510e-02   7.85567641e-01  -1.11166522e-01   7.07860351e-01
   -1.59545827e+00  -4.45274681e-01  -2.22974017e-01  -1.78927287e-01
    1.92219391e-01  -6.88776523e-02  -8.70081782e-01   5.21774143e-02
    1.68412399e+00  -1.92250383e+00  -1.28813469e+00   1.03397977e+00
    8.85481000e-01   6.71267807e-01  -7.10943222e-01   1.39499247e+00
    3.54109704e-01   5.50417244e-01  -3.95379931e-01  -6.27354443e-01
   -4.01533484e-01   3.06409419e-01  -1.12849370e-01   8.76665950e-01
   -4.08998191e-01   2.53569269e+00  -3.06879222e-01  -1.00345266e+00
   -8.31212282e-01   5.24451971e-01  -7.32781410e-01  -1.42320722e-01
   -8.45351875e-01   1.07570529e+00  -8.02115738e-01   2.42199272e-01
    1.57244623e+00  -1.67133307e+00  -1.35539591e+00   5.74703157e-01
    8.16542804e-02   5.50770938e-01  -9.37626809e-02  -2.97264278e-01
    9.82534170e-01   3.08902085e-01  -1.19316554e+00   5.69559038e-01
    2.52412844e+00   5.13840318e-02   1.62017584e+00   5.35957098e-01
   -9.74709928e-01  -1.50874639e+00  -2.74413228e+00   1.35687923e+00
   -3.65049750e-01  -6.04960501e-01   6.55456960e-01   1.37025917e+00
    7.79246747e-01   5.96512794e-01   4.51041572e-02   1.34123349e+00
   -1.57635391e+00  -3.72946531e-01  -1.43107641e+00   1.38999879e+00
    6.57944739e-01  -9.32482779e-01  -1.56331763e-01   2.32508793e-01
   -9.93123174e-01   1.63522094e-01   4.93855745e-01  -7.13444222e-03
    1.01274446e-01  -8.69392395e-01  -1.01427579e+00  -5.05846202e-01
    4.63483185e-01   1.17237258e+00  -3.75693083e-01  -1.14554870e+00
   -2.81967831e+00   5.01137555e-01   1.06743984e-01  -9.13086057e-01
   -1.16874361e+00   1.73271939e-01   1.33732879e+00  -1.60772693e+00
   -1.83896804e+00  -9.36053395e-01  -3.08553487e-01  -4.45945412e-01
   -2.58735836e-01   1.11421311e+00   5.50162911e-01  -1.99167058e-01
    5.86503983e-01  -1.04941881e+00   4.39759105e-01   9.66057554e-02
   -2.11481404e+00  -2.95768172e-01   1.73964071e+00  -6.65931642e-01
    3.51357371e-01   6.15496397e-01   1.06547964e+00   1.56758296e+00
    9.56312474e-03   1.94348788e+00   2.45053816e+00  -1.13584852e+00
    5.95301166e-02   4.64472234e-01  -1.12662172e+00   1.46156549e+00
    3.87734711e-01   2.46815175e-01   5.75582683e-01   4.16683972e-01
   -7.88418770e-01   6.65180027e-01  -4.52820271e-01  -1.48632538e+00
   -1.03216851e+00  -1.95354450e+00  -1.31273985e+00   1.36693358e+00
    1.64750576e+00   8.27444553e-01   1.69870287e-01  -1.84977961e+00
    6.20046079e-01   4.46303427e-01  -1.98404953e-01  -5.19639291e-02
    1.59984863e+00  -1.15882969e+00   1.41599858e+00   1.94483030e+00
   -2.48392954e-01   6.72442019e-02   1.39911920e-01  -1.70609415e-01
    3.08987856e-01   5.19793332e-01   6.09750450e-01   7.96987951e-01
   -5.28689802e-01   2.62295634e-01   4.32509594e-02  -1.86932132e-01
    3.26285325e-02  -1.36490077e-01  -1.66683763e-01   1.73302308e-01
   -3.71517539e-01  -2.50753450e+00  -2.67356753e-01  -1.91444802e+00
   -1.55984175e+00  -1.23598731e+00   6.75851464e-01  -6.85325205e-01
    1.01154017e+00  -3.58174592e-01  -5.43199062e-01  -4.16491842e+00
   -1.48150432e+00  -1.45246565e+00   4.35702831e-01   6.41628146e-01
    8.55272830e-01  -1.00174332e+00  -2.86704391e-01   1.70656905e-01
   -6.52691364e-01  -4.55932200e-01  -9.36976075e-01  -2.15947986e-01
   -1.03157306e+00  -1.17411685e+00  -7.08638191e-01  -5.22750854e-01
   -7.45256126e-01   1.09596205e+00   2.76375622e-01  -1.48892656e-01
    1.51715934e+00   2.72117436e-01   1.05573320e+00   1.51877975e+00
   -6.65728271e-01  -1.10372269e+00  -1.24373071e-01  -8.53614926e-01
   -9.35193062e-01  -9.13645327e-01   6.43458515e-02   6.88554108e-01
   -5.36928102e-02  -6.96835876e-01  -9.53760743e-01  -1.51646957e-01
   -7.69760787e-01  -6.94448411e-01   2.43368888e+00   9.78239924e-02
    6.36203945e-01   4.53088462e-01   2.23903611e-01   4.08989757e-01
    6.80110514e-01  -4.70685422e-01   9.98394251e-01   1.11563933e+00
   -1.05843520e+00  -1.54887766e-01  -5.58657587e-01   5.90686679e-01
   -2.37148094e+00   1.59817231e+00  -2.28526974e+00  -1.19468904e+00
    1.58624804e+00   4.07624155e-01  -4.26881135e-01   7.55586088e-01
   -3.75988662e-01  -1.62394357e+00  -1.79727662e+00   1.22705162e+00
   -1.07917440e+00  -8.08732212e-02  -1.00417244e+00   4.53412533e-01
    8.82450402e-01  -1.10094154e+00  -6.77623093e-01  -1.42557168e+00
    7.75679529e-01   1.43819511e+00   1.79530418e+00   4.84744579e-01
    6.64222896e-01  -1.02601874e+00   1.92508900e+00   4.41499293e-01
    3.83334644e-02   2.50713885e-01  -6.19101703e-01   4.68695790e-01
   -1.34220457e+00   2.18032241e-01  -1.06870249e-01   2.40412980e-01
    3.78154695e-01  -1.31855696e-01  -7.80964732e-01   7.55377531e-01
   -7.82324791e-01  -2.02408090e-01   5.96563876e-01  -3.02688897e-01
   -4.90523964e-01  -6.49540275e-02  -4.45457906e-01   8.36881697e-01
   -7.14388192e-01   1.58319294e-01   1.86869180e+00   5.69252551e-01
    6.08975030e-02   1.68182850e-02  -7.40128458e-01   2.50818938e-01
    3.24298054e-01  -8.06704819e-01   8.82446408e-01  -7.11409211e-01
    3.47168833e-01  -2.49302655e-01  -1.71851888e-01  -1.75516689e+00
   -1.52769482e+00   6.37259483e-02  -1.39715612e+00   1.67953566e-01
   -3.92428517e-01   9.11693454e-01  -5.24310291e-01   6.07896820e-02
    1.61243367e+00   5.47428548e-01   9.94704850e-03   1.79534149e+00
    1.97994381e-01   7.13147461e-01   1.54118568e-01  -5.88255584e-01
   -3.71371865e-01  -2.26933241e-01  -7.75613129e-01  -5.96613884e-01
    2.01681584e-01   6.36005104e-01   1.02040023e-01   1.12057686e+00
    1.50912058e+00   1.37880039e+00   5.66405714e-01   1.41676188e-01
   -2.04782820e+00  -1.48689270e+00   1.88227966e-01  -1.19667590e-01
   -1.40180767e+00   8.44698429e-01   7.42081273e-03  -1.90384376e+00
    1.33728290e+00   8.59900773e-01  -4.33098912e-01  -2.33695582e-02
   -1.00674474e+00   8.27101886e-01   2.54557043e-01   2.38588423e-01
    1.47175026e+00  -3.50547016e-01   1.87860817e-01   7.06755817e-01
   -2.72055417e-01  -5.60417116e-01   1.26887095e+00  -1.14094365e+00
   -1.95474708e+00   1.80560374e+00  -3.60323071e-01   1.32897210e+00
    7.88359821e-01   1.08526325e+00   2.00241494e+00  -1.23755360e+00
   -9.56437588e-01  -7.34601796e-01  -5.59261382e-01   6.58722967e-02
    2.47766465e-01  -9.72522616e-01   1.73771751e+00  -1.36664629e+00
   -1.40590593e-01  -1.21851170e+00  -4.88257080e-01  -9.78953242e-02
    6.90136924e-02  -4.69832242e-01   9.85637665e-01  -9.97100174e-01
   -1.05257472e-02  -7.71790266e-01   2.92234242e-01   1.28668773e+00
   -7.18944073e-02   1.08197749e-01  -1.82583952e+00  -1.35386497e-01
    3.23501974e-02  -8.45561087e-01  -7.56351531e-01  -2.23692670e-01
    1.20617819e+00  -7.94251144e-01  -8.39838266e-01  -4.68691856e-01
    1.25845885e+00  -1.29872215e+00  -2.41293240e+00  -1.29718110e-01
   -4.82200980e-01  -1.22661853e+00   8.31406355e-01  -7.40594685e-01
   -2.30047092e-01   1.88448918e+00   3.26841623e-01   9.83556569e-01
   -1.84157230e-02  -1.26250374e+00   4.49431509e-01  -1.13661170e+00
    1.19338381e+00   8.67471337e-01  -5.48579454e-01   7.98584759e-01
    6.25320613e-01   1.49562991e+00  -1.14389217e+00  -5.95889866e-01
    1.24045861e+00  -4.19734955e-01   1.19739926e+00  -3.24080020e-01
   -2.64850140e-01   7.75010049e-01   1.22922614e-01  -4.15757716e-01
   -2.04181576e+00  -1.51298046e+00   1.63796753e-01   3.09741259e-01
    3.11719489e+00  -1.88007140e+00  -1.24412465e+00   3.63929793e-02
   -1.56248525e-01  -5.90735435e-01   8.52088213e-01   1.48903131e-01
   -8.62996578e-01   1.67894736e-01   1.33378100e+00   7.97782600e-01
    4.39355493e-01   7.83141911e-01   2.33754247e-01  -7.22034991e-01
   -9.10374448e-02  -2.47279358e+00  -5.71439207e-01   3.37127626e-01
    7.08132148e-01  -1.71346471e-01  -1.49591827e+00  -2.57609665e-01
   -1.05537999e+00  -1.52512327e-01  -2.74792135e-01  -3.94752212e-02
    3.43026072e-01  -6.52149677e-01  -6.66830778e-01  -1.06938934e+00
    2.18210411e+00   7.17456222e-01  -1.34682548e+00  -1.76326111e-01
   -4.86130267e-01  -3.92151736e-02   8.27240050e-01   5.00906669e-02
    1.34153232e-01  -5.28162181e-01   5.16444027e-01  -4.26789552e-01
   -1.03394020e+00  -1.09997857e+00   5.67852676e-01  -2.08835766e-01
   -6.50763929e-01   8.01353693e-01  -9.68794107e-01   4.10506099e-01
   -1.72066450e+00   8.59851837e-01  -9.91414309e-01  -7.47800946e-01
   -9.19611216e-01   3.58418047e-01  -9.15342391e-01  -7.71068454e-01
   -4.43587959e-01  -8.98318827e-01  -2.69632071e-01   4.04940218e-01
    3.19351628e-02  -8.18726420e-01   1.57459044e+00  -8.34732711e-01
   -2.30091333e-01   2.16573834e-01  -2.11384952e-01  -1.50192285e+00
    6.99642226e-02   3.15694094e-01  -1.60715866e+00   1.88148153e+00
   -1.92799938e+00  -2.64459521e-01   2.53750682e-01  -5.07848978e-01
    4.10888679e-02   6.90181494e-01  -6.44502938e-01   7.91346610e-01
   -8.86966646e-01  -1.05731010e+00   3.36267473e-03  -6.09578788e-01
   -1.86851203e+00  -9.70076561e-01   7.48701572e-01   5.23332022e-02
    3.96818757e-01  -4.41625863e-01  -1.81069148e+00   1.76309657e+00
   -2.33785725e+00   9.16983411e-02   1.07666028e+00   1.77891755e+00
   -9.26196873e-01  -2.92318583e+00  -4.09576952e-01  -5.90950809e-02
   -2.33636484e-01  -3.52156609e-01   5.15986204e-01  -2.20214143e-01
    5.47375619e-01  -5.75340927e-01   1.69546396e-01  -4.98494089e-01
   -1.39919901e+00  -1.05235018e-01   1.58859813e+00   9.81573820e-01
   -1.13392401e+00  -1.42153752e+00  -1.32717371e+00  -6.70331478e-01
    5.76345205e-01  -8.23180735e-01  -1.74837625e+00  -7.22989917e-01
    9.32211101e-01  -4.52179283e-01   1.89832199e+00  -6.45270765e-01
    3.10689658e-01   2.53294617e-01   8.44793916e-01  -2.77919680e-01
   -5.15365899e-01   1.20463741e+00  -9.67811942e-01   6.39991879e-01
   -3.31222951e-01  -1.06505001e+00  -3.58182669e-01   1.33601439e+00
    6.66285634e-01   9.20405030e-01   5.83326936e-01  -1.55381727e+00
    1.21863782e+00   1.37475562e+00  -8.19904447e-01  -7.53077686e-01
    4.13104653e-01  -4.27394837e-01  -6.69534206e-02   8.93230677e-01
    3.61852318e-01  -1.40274569e-01   4.81052287e-02   1.62652154e-02
    1.28355014e+00   1.05934286e+00  -7.02650324e-02   1.96374238e+00
    4.15704340e-01   5.83416998e-01   1.21761036e+00  -6.34286761e-01
    2.76124686e-01   1.87278593e+00  -2.43358836e-01   1.87276319e-01
   -2.59617623e-02  -1.24832399e-01  -2.50316113e-02   1.20078325e+00
   -7.24470317e-02  -8.17215517e-02  -5.01660824e-01   1.06195688e+00
    1.18138158e+00  -1.27492750e+00  -7.21249104e-01  -1.88586283e+00
    5.67971349e-01   1.69002688e+00  -1.56595275e-01   3.40074992e+00
    1.63751292e+00   1.10178387e+00   2.17616582e+00   4.56372947e-01
   -5.09716570e-01   5.96214652e-01  -9.74732280e-01   8.19522023e-01
    4.19936448e-01  -1.00849473e+00  -1.25648630e+00  -9.02577579e-01
    6.17461205e-01  -6.82505846e-01  -1.12978649e+00   1.93516326e+00
    7.48034298e-01   4.89295244e-01  -9.55869779e-02  -3.29743683e-01
   -1.89416826e-01  -1.19306421e+00  -9.46627200e-01  -2.96705365e-01
   -1.40542102e+00   2.14558578e+00   9.37711239e-01  -2.16487885e+00
    1.94672883e-01   1.72705305e+00   1.08793831e+00  -5.83775230e-02
    2.69163065e-02   2.28641009e+00   3.57895195e-01  -3.21212023e-01
    5.87058961e-01   5.76103441e-02   8.89358521e-01  -1.13253403e+00
    6.23992741e-01   2.85559714e-01   1.60197839e-01  -1.58387554e+00
    9.09185350e-01  -1.48718739e+00   4.30212855e-01   8.50075364e-01
   -2.41628528e-01   1.06956100e+00  -2.37685755e-01  -1.94901514e+00
   -1.03652346e+00   8.26434195e-01  -3.01815361e-01  -1.17891562e+00
   -6.86560273e-01   1.71202445e+00   7.66250789e-01   8.53677332e-01
   -3.18411030e-02  -9.78296638e-01   1.10153429e-01   4.47157621e-01]
 [  2.30685651e-01   3.87639821e-01   2.04472065e+00   2.53374457e+00
   -8.45425427e-01  -1.10940778e+00   4.32839811e-01   2.12338999e-01
   -1.66175961e-01  -1.16040123e+00   6.84558690e-01   1.35490119e-01
    4.10233259e-01   1.35410905e-01   2.26674125e-01   7.89073527e-01
   -1.48231435e+00  -1.65061235e+00  -6.19128883e-01  -3.88766497e-01
   -2.70435382e-02  -1.73537660e+00  -7.38959670e-01   4.08270955e-01
    2.06858420e+00   1.72081149e+00  -6.14263296e-01   8.62059474e-01
   -5.63961446e-01   6.03175521e-01   1.45793200e+00   1.25803447e+00
   -8.55139196e-01  -8.17326605e-01  -1.88499618e+00  -2.58781493e-01
   -9.31990027e-01   6.59612656e-01  -4.74165231e-01  -1.38955998e+00
   -2.26046848e+00  -7.06994236e-01  -5.52745402e-01  -3.66487533e-01
    1.42042351e+00   4.81580794e-02   1.21683240e+00   1.55650422e-01
   -9.82095540e-01  -5.66662140e-02  -1.36020088e+00  -4.19607669e-01
    1.25483930e+00  -1.62093246e+00   7.01396048e-01   9.48274195e-01
   -9.32381749e-01  -8.90460610e-02   7.12399244e-01  -1.56574869e+00
    4.38700408e-01   1.47054303e+00  -2.08907068e-01  -3.18245262e-01
   -3.38150382e-01   8.59379113e-01  -2.60532051e-01   2.03386354e+00
    1.13561198e-01  -7.81779647e-01  -4.79549766e-01   4.88068387e-02
   -1.58596158e+00  -2.89899397e+00  -3.06793511e-01   3.36185038e-01
    7.71058440e-01   1.27012515e+00   4.74873900e-01   1.35538411e+00
   -3.11860174e-01   1.03484070e+00   5.01749031e-02   1.04290640e+00
    3.43005210e-02  -1.80349097e-01  -3.65537107e-01  -1.05590117e+00
    8.83523226e-01   2.82786071e-01  -8.55313897e-01  -1.19568467e+00
    7.04433262e-01   1.86093855e+00   1.07765436e+00  -5.67136705e-01
    5.36566496e-01   2.42028430e-01  -1.24076813e-01  -1.01801562e+00
    9.17663455e-01  -9.48139280e-02  -1.15386343e+00   1.04004109e+00
    1.49178863e+00   1.30146599e+00  -9.04359967e-02  -4.08451200e-01
   -1.55379444e-01   1.51620281e+00   1.54096472e+00  -1.30240142e-01
    8.29605103e-01   4.58004862e-01  -9.52724516e-01  -5.38346231e-01
   -2.75901127e+00  -2.37019598e-01  -1.54365063e+00   6.88983142e-01
    9.28744793e-01   9.49134588e-01  -8.15191507e-01  -1.41278058e-01
    1.01980901e+00   9.19476032e-01  -1.04580426e+00  -1.75273931e+00
   -1.63360238e+00   2.00550511e-01  -6.46371365e-01  -5.26424646e-01
   -7.81536043e-01   8.33450615e-01  -4.56729680e-01   7.04717100e-01
    6.63468540e-01  -6.26478791e-01  -3.11538547e-01   1.66818190e+00
   -1.35913491e+00   1.51724294e-01   2.19360805e+00   1.41548380e-01
    1.21393156e+00  -6.82295859e-01   1.73551369e+00   1.47183582e-01
   -1.03678461e-02  -1.03987885e+00  -8.19313824e-01   1.68706214e+00
   -3.00950617e-01   9.99749601e-01   5.62785566e-01   1.13157503e-01
   -7.40135610e-01  -1.44446492e-01  -2.51505822e-01   1.47348747e-01
   -5.38433790e-01   8.06734860e-01   3.12671125e-01  -1.90579331e+00
    2.83639669e-01   5.06459028e-02  -8.74590099e-01   5.07952273e-01
   -7.22869754e-01   3.34065288e-01  -9.00722817e-02   1.99537560e-01
    6.46609724e-01  -1.40085149e+00  -1.09832418e+00   1.35744822e+00
    7.39645004e-01  -3.70226145e-01   4.40218866e-01   1.01801658e+00
   -9.00558472e-01  -1.27961516e+00  -2.31357254e-02  -6.90995827e-02
   -1.62997341e+00   1.51572511e-01  -1.83348060e+00   1.59280527e+00
    4.30403382e-01  -1.21328950e+00   2.27363920e+00   9.34323370e-01
    3.30794305e-01   2.66590148e-01  -1.60345048e-01  -2.10354745e-01
   -7.12705791e-01   1.18921149e+00   3.62946451e-01  -4.61822182e-01
   -2.71089166e-01   8.65489766e-02  -1.37874055e+00  -5.27368009e-01
   -6.87638998e-01  -2.36685824e+00   5.08857727e-01   3.07975054e+00
   -1.06106067e+00   1.69183898e+00   2.60309726e-01  -1.02052891e+00
    3.16612273e-01   5.24722397e-01  -1.16279280e+00  -1.11641371e+00
   -4.23175067e-01  -1.67265570e+00  -8.88842583e-01   8.51636469e-01
    1.11041375e-01  -4.89778854e-02   1.91432104e-01   3.99919808e-01
   -2.81614363e-01   8.59095633e-01  -3.62017870e-01   1.05116677e+00
   -2.46998712e-01   3.58210593e-01   1.61061335e+00   8.27918172e-01
    4.38869536e-01  -9.78487823e-03  -9.67953384e-01  -6.70194745e-01
    1.25313127e+00  -3.31218153e-01   1.60811591e+00  -1.08141077e+00
    3.32985461e-01   1.59138367e-02  -3.77681583e-01   2.51569122e-01
    1.22504801e-01  -2.11342859e+00   7.31346905e-01  -9.28961217e-01
   -3.01645160e+00   6.67816758e-01  -6.06587648e-01   1.15761995e+00
   -1.08638048e-01  -1.45716667e+00  -6.32621348e-01  -5.06291628e-01
   -3.78243268e-01  -1.22206616e+00   1.39654851e+00  -1.06073141e+00
   -8.58820304e-02   1.06981121e-01   1.08550444e-01  -9.02413949e-02
   -5.58650911e-01   8.51212323e-01  -2.18309060e-01   3.93395405e-03
   -2.25432444e+00  -4.24614958e-02  -1.85642886e+00  -6.44573331e-01
   -1.20749736e+00   2.24397659e+00   9.09760118e-01  -7.31699765e-01
   -1.19082975e+00   2.78975296e+00   3.60114545e-01   1.08311844e+00
    2.82357305e-01   4.50831234e-01   5.18581569e-01  -9.15892363e-01
   -2.77415067e-01   1.32265061e-01   8.91957462e-01  -3.29061091e-01
    4.99614894e-01   1.08031690e+00   3.58059108e-01  -7.51611054e-01
    5.60802102e-01  -8.00903022e-01   1.36987424e+00   7.28252232e-01
   -1.88931429e+00  -7.71105945e-01   3.99983913e-01  -1.15695047e+00
    2.82685250e-01  -2.04787143e-02  -2.48239130e-01  -1.91192234e+00
   -9.84077752e-01   6.63930178e-01  -2.74579406e-01   6.72479331e-01
   -7.74415255e-01   2.83672065e-01  -3.97223793e-02   1.29864657e+00
   -1.53525007e+00  -1.96601689e-01  -5.32274187e-01  -8.62932950e-02
   -2.56761938e-01  -1.75245628e-01  -1.73489094e-01   1.09452724e+00
   -2.10231900e+00   9.34990197e-02   5.66391408e-01   1.52447624e-02
    1.98283687e-01   5.35636902e-01  -1.58961606e+00   1.34753370e+00
   -6.22358501e-01  -1.10230178e-01  -7.12687731e-01   1.26092553e+00
    4.78616476e-01  -1.01657353e-01   1.67116690e+00  -6.32982373e-01
   -6.05528295e-01   1.12921417e+00  -4.77863461e-01   2.22557735e+00
    7.78243765e-02  -2.41862342e-01   1.21472991e+00  -1.29339600e+00
   -1.57186532e+00  -2.23927045e+00  -5.13880610e-01   1.03269362e+00
    6.37164593e-01  -6.97899461e-01  -3.80517185e-01   2.31859431e-01
   -1.77173388e+00  -8.21233511e-01   1.28695413e-01   1.17819691e+00
   -1.22679591e+00  -8.75843048e-01  -9.46929276e-01  -1.34775198e+00
   -1.43202138e+00   1.87309933e+00   1.03939259e+00  -7.78011501e-01
   -1.93622959e+00   2.64181584e-01   2.41839569e-02  -3.13665599e-01
   -1.16080117e+00  -5.62219203e-01   2.39773721e-01  -6.99320063e-02
   -7.52304375e-01  -1.13076448e+00  -3.50309730e-01  -1.13679588e-01
    9.50120687e-01   1.22103953e+00  -1.70848346e+00   1.40392363e+00
    1.52385485e+00   2.21214786e-01  -3.92701834e-01  -7.85776004e-02
    4.32734936e-01   1.10407341e+00   8.17755461e-01  -1.77033150e+00
   -1.12333754e-02  -8.08571815e-01   1.19294643e+00   1.72984511e-01
   -1.52342010e+00   3.38916332e-01  -6.88336790e-02  -2.21559691e+00
    8.48871529e-01   4.03121680e-01  -7.52657533e-01  -1.23903024e+00
    1.83420825e+00   1.19960618e+00  -1.48036814e+00   1.64858067e+00
   -5.98390281e-01  -3.55532676e-01  -5.67937016e-01   2.03986377e-01
   -2.21985722e+00  -9.87241864e-01  -7.61849999e-01  -1.06838596e+00
   -3.29028189e-01  -1.93973756e+00   1.34772110e+00  -1.72209287e+00
    5.59635341e-01  -3.85288030e-01   6.39823735e-01  -1.79384792e+00
   -1.33670425e+00   1.14898694e+00   1.84063852e-01  -1.68544686e+00
   -2.77880907e-01  -4.99557108e-01  -2.62861109e+00  -5.66234469e-01
    9.57778275e-01  -2.92313665e-01   3.64686728e-01   1.31342873e-01
    5.58942616e-01   2.16736287e-01  -6.14472091e-01  -5.48952296e-02
    1.55301332e+00   5.42924941e-01   3.32692474e-01  -1.08177900e+00
    3.96435231e-01   7.72578955e-01   4.57871109e-02   1.75766158e+00
    1.30357242e+00  -2.41301870e+00  -2.16690570e-01   4.78147715e-01
   -4.60732371e-01   1.23615906e-01  -3.24530780e-01  -1.08160877e+00
   -2.48810962e-01   5.59691429e-01  -2.91027814e-01   2.28383228e-01
    1.43386984e+00   1.18779373e+00  -2.03417754e+00  -1.60978889e+00
   -8.75197232e-01  -9.70025420e-01  -9.69314933e-01  -1.03663310e-01
    6.01382613e-01   1.45609498e+00   3.38279009e-01  -8.98711264e-01
   -1.20992088e+00  -1.25077713e+00   2.27601543e-01  -7.78468490e-01
    2.24843836e+00  -5.92031956e-01   7.84426570e-01   1.71089303e+00
    8.35486889e-01   2.42371723e-01  -5.83186150e-01  -6.33563221e-01
   -2.74496555e-01   3.22926521e-01   1.27523422e+00   7.17508912e-01
    1.08114922e+00  -1.10195327e+00   6.20969534e-01  -1.31549358e+00
    8.04200113e-01  -2.60197893e-02   3.69054198e-01  -1.38398945e+00
   -4.73452300e-01   1.95770442e-01  -6.84411108e-01   7.55558670e-01
    6.27525389e-01   9.98322308e-01   4.79680635e-02   1.92288005e+00
   -1.09877622e+00  -4.06973451e-01  -1.63202479e-01  -1.03563333e+00
    1.19033408e+00   5.96965671e-01   1.06091723e-02  -1.42728710e+00
   -5.08497596e-01   1.93767560e+00   8.81349146e-01   2.70055294e+00
   -1.27380168e+00   1.14612039e-02  -4.25424278e-01   1.27746212e+00
   -1.50843441e+00  -1.20008439e-01   1.26842034e+00   4.45533812e-01
   -6.65841639e-01   1.19970167e+00   1.03680992e+00  -4.65009540e-01
   -3.05051118e-01  -2.08496976e+00   4.05419588e-01   6.36133373e-01
   -2.22210956e+00  -3.45498830e-01  -1.56391472e-01   1.01665735e+00
   -5.88944435e-01  -3.44734251e-01   2.98679322e-01   6.41739428e-01
   -4.48196322e-01  -2.23126173e-01   1.75105315e-02   1.80342329e+00
   -1.15060878e+00  -5.59375063e-03   1.37136030e+00   6.73151672e-01
    1.76925123e-01   6.34015024e-01   1.21928787e+00  -3.11973006e-01
    9.71393764e-01   1.09255326e+00   2.46799946e+00  -1.34275854e+00
    4.50951099e-01  -1.26466453e+00   1.42771351e+00   8.66796494e-01
   -1.04894102e+00   2.05111337e+00  -2.07905746e+00  -4.21344459e-01
    1.23188093e-01  -1.70013940e+00   3.35117340e-01  -2.51449203e+00
   -3.18447679e-01  -4.87160116e-01  -7.41021382e-03   8.85074258e-01
    1.60499561e+00  -1.29779398e+00  -8.41947123e-02  -1.86760449e+00
    1.53356776e-01   1.05414703e-01  -4.05963212e-01   2.56303042e-01
   -7.80612901e-02  -8.49613845e-01  -6.89458251e-02   3.38862181e-01
   -9.40280706e-02  -1.42505693e+00  -1.76098913e-01   2.56516058e-02
   -6.15384996e-01   1.10935879e+00   7.80368447e-01   8.04025471e-01
    3.61637384e-01   3.86384696e-01   2.83466673e+00   3.44073743e-01
    9.84504938e-01   3.01107496e-01   3.47656369e-01   4.89020288e-01
   -1.23355639e+00  -5.85598886e-01   2.60671284e-02   1.39098275e+00
    1.64859045e+00   1.45816278e+00  -4.16494697e-01   2.89981831e-02
   -1.29922450e+00   8.78983021e-01  -9.19549704e-01   6.73652580e-03
    1.77640533e+00  -1.24245417e+00   1.39130080e+00   7.92596996e-01
   -1.19820178e+00  -2.78979130e-02  -1.38624406e+00   6.94750726e-01
    1.89659566e-01   2.23866686e-01  -7.74683833e-01  -8.47452283e-01
    1.16902220e+00   2.54315615e+00   6.98873580e-01   2.38318875e-01
   -3.06232065e-01   4.61165428e-01  -5.68011165e-01  -1.04813337e+00
   -1.23008966e-01  -4.19328749e-01  -1.77260411e+00   1.99406624e+00
   -1.40740609e+00  -2.33185935e+00  -1.24494565e+00   1.51436165e-01
    3.61530095e-01   1.24551105e+00  -9.09799058e-03  -2.16577142e-01
    3.10155571e-01   5.83327115e-01   5.54391265e-01   3.50789011e-01
   -1.58246291e+00   7.84653187e-01  -2.23196197e+00  -1.68528628e+00
    8.73030603e-01   2.45850754e+00   3.53281021e-01   5.21494687e-01
   -6.83742389e-02   5.89236431e-02  -3.55153680e-01   4.55269188e-01
   -5.60928583e-01  -3.65460426e-01   5.56570232e-01  -4.45325643e-01
   -4.57381219e-01  -1.24963439e+00   5.59431054e-02   1.81200102e-01
   -1.18838072e+00   6.22600257e-01   4.43183124e-01  -4.99870718e-01
   -1.46920311e+00   7.43459880e-01  -1.00532860e-01   1.36475217e+00
    5.08502185e-01  -2.53105491e-01   1.14306843e+00   1.09517932e-01
   -1.76559174e+00  -9.14425552e-01  -7.85900474e-01  -1.89230084e+00
   -8.50159109e-01  -6.25538945e-01   6.53586149e-01   2.37938553e-01
    1.49073792e+00  -1.28608584e+00   2.21622847e-02  -1.43127239e+00
    1.18439436e+00  -3.88469808e-02  -1.12379956e+00  -1.58764482e+00
    1.74604261e+00   1.17292428e+00  -2.03509593e+00  -2.71528751e-01
    8.66867900e-02   3.31684530e-01  -1.63236439e-01   7.46020079e-02
   -1.31545281e+00  -7.02758670e-01  -1.19960856e+00  -1.52944577e+00
   -2.87934303e-01  -1.94235876e-01   1.02040863e+00   6.04626894e-01
    2.46270204e+00   2.31482431e-01  -1.28001440e+00  -1.96042025e+00
    9.23652053e-02   6.82691693e-01  -5.70523024e-01  -1.39669788e+00
    4.37529743e-01   5.96667901e-02   8.70812237e-01   3.66155207e-01
    1.00900137e+00  -1.57670796e+00   1.91699255e+00   6.70828998e-01
   -9.30783451e-01  -1.18274568e-02   6.16166472e-01  -8.52633595e-01
    2.06633568e-01  -1.03014612e+00  -2.34333301e+00   1.31361020e+00
   -1.92170620e-01  -2.80005395e-01  -3.63082290e-01   1.04127300e+00
    9.15028214e-01   3.66179757e-02  -1.97273946e+00  -5.81931353e-01
    6.41764402e-01  -2.61429548e-01   5.53070866e-02   1.66933668e+00
   -1.16979694e+00  -9.24075693e-02   1.90135634e+00   1.31764448e+00
   -1.11534417e+00   1.09893882e+00  -1.85519707e+00   7.34695554e-01
    1.60167074e+00  -4.41082478e-01  -2.74322772e+00  -7.89455891e-01
   -1.74499989e+00  -6.51832283e-01   5.12614906e-01  -6.60104275e-01
    2.14733696e+00  -1.22681916e+00   2.08882645e-01  -4.67032790e-01
    3.55763614e-01   2.32607269e+00  -1.34776339e-01  -5.32728910e-01
    5.92617989e-02   1.29603493e+00  -1.90711272e+00  -3.02019507e-01
   -2.54861325e-01  -4.29149091e-01   3.43497992e-01  -4.03501660e-01
   -1.33522928e+00   5.29197037e-01   9.48196828e-01   3.19217414e-01
   -9.22027588e-01  -5.53127706e-01  -2.66453177e-01  -6.95267498e-01
   -6.78286076e-01  -1.37710869e+00  -7.60260001e-02   4.64630187e-01
   -1.78577936e+00  -8.41566801e-01  -3.22643444e-02   1.29362226e-01
   -8.40864629e-02  -4.08517390e-01  -8.52180481e-01  -1.85734645e-01
   -9.72559974e-02   1.16977847e+00   2.53517091e-01  -1.42893338e+00
   -8.58312920e-02  -1.86708093e+00  -1.00002849e+00  -5.99968374e-01
    1.75215697e+00   1.50113642e+00  -1.41769516e+00   1.03046358e+00
    2.55784631e-01  -9.41205680e-01   8.14081967e-01   1.94955075e+00
   -3.86697888e-01   1.47267818e+00   4.65918928e-01  -2.12715149e-01
    1.21126664e+00   4.02089506e-01   8.24718654e-01   3.78231853e-01
   -3.66802156e-01   1.82684124e+00   1.24967718e+00   7.62107909e-01
   -1.35396242e-01  -3.82403135e-01  -1.50218844e+00  -1.24910963e+00
   -4.31357712e-01  -1.21275783e+00   9.53947961e-01   5.94379961e-01
   -5.69269240e-01   2.88540334e-01   4.92323995e-01   4.49773401e-01
    1.13840353e+00   3.83698881e-01   1.10044375e-01  -8.43837857e-01
    1.13213420e+00   1.43524456e+00  -5.88745952e-01   1.03052449e+00
    6.11947954e-01   1.03610241e+00  -2.19119713e-01   1.04268044e-01
    1.04535186e+00   9.61277127e-01   5.54783762e-01   8.56781542e-01
    1.03072596e+00  -1.41341045e-01  -8.93483981e-02  -9.98984516e-01
    9.55964625e-01  -1.71056175e+00  -2.37319887e-01  -1.31602228e+00
   -2.00682402e+00   1.31128085e+00  -6.53746843e-01  -2.95631409e-01
    1.35319066e+00  -1.20381430e-01  -1.61048436e+00   5.66319823e-01
    1.03308117e+00  -2.73078585e+00  -5.57727635e-01  -1.56865731e-01
    5.35520539e-02  -7.47394383e-01   4.34186220e-01   8.50244880e-01
   -8.93005192e-01  -3.40358019e-01  -1.08509159e+00   1.41766024e+00
    1.36033309e+00  -9.21859384e-01   2.53200650e-01   1.93676412e+00
   -4.97153923e-02  -1.89057961e-01   1.70714188e+00  -4.00672644e-01
    7.96745420e-02  -1.38721156e+00   5.52269280e-01  -7.60526240e-01
    8.22125137e-01  -2.36602116e+00  -8.75230193e-01  -1.07614541e+00
   -8.49720359e-01  -7.22381651e-01   5.29820740e-01   1.03319228e+00
   -7.32143521e-01   5.64967573e-01  -1.08667135e+00  -1.16171014e+00
   -5.67170322e-01  -7.16654539e-01   2.29629144e-01   8.32879007e-01
   -1.72593105e+00  -2.64180374e+00  -2.05768332e-01   1.05346251e+00
   -1.47891223e+00   2.69314826e-01  -2.87133861e+00   7.86052704e-01
    4.93849754e-01   7.34990984e-02   9.53833103e-01   3.74054581e-01
    1.40671778e+00  -9.07646775e-01   1.86051846e+00  -1.19826353e+00
    2.20362172e-02  -1.02857006e+00  -6.42156661e-01  -8.61500204e-01
    9.01187435e-02   9.43772972e-01   2.50083089e-01   1.07421112e+00
    1.59357637e-01   1.48636281e+00   3.11881244e-01  -6.15084231e-01
   -5.89653790e-01  -1.98386288e+00  -1.46042669e+00  -6.71357095e-01
    3.14937204e-01  -8.26778650e-01  -6.58733785e-01   4.00699377e-01
   -6.98701888e-02   3.74365658e-01   9.05734420e-01   1.42350531e+00
    3.09196323e-01  -7.39878714e-02  -1.69613433e+00  -8.03765118e-01
   -5.78225851e-01   9.79735315e-01   3.43475729e-01  -4.28079933e-01
    1.17463374e+00   6.44951403e-01  -7.78582811e-01   5.09809136e-01
   -1.65700078e+00   8.40902925e-01   1.17141116e+00  -1.16631836e-01
   -1.19024599e+00   7.17070758e-01   1.88071225e-02   4.73554224e-01
   -1.02711892e+00   1.33177805e+00  -1.89420998e-01  -8.05804312e-01
   -6.08308554e-01  -3.06211323e-01   1.60754108e+00  -3.47215049e-02
   -2.31621608e-01  -4.01677459e-01   4.67036813e-01   5.74072361e-01
   -2.68776941e+00  -2.75660492e-03  -7.69864321e-01  -1.44191429e-01
   -4.32676166e-01  -6.05154753e-01  -1.24647784e+00   1.41841912e+00
   -4.31705356e-01   8.78223538e-01   1.71784341e+00  -8.38329196e-01
   -5.44774294e-01   2.56177306e-01   7.44132042e-01   9.72387552e-01
    1.24680363e-01  -4.08337384e-01  -1.03533924e+00   8.10974121e-01
    1.00474858e+00  -2.48528570e-02  -5.45717001e-01  -2.09180021e+00
   -1.72924519e-01  -4.03778940e-01   1.27075493e+00  -2.05903006e+00
   -1.54236257e+00  -7.68479526e-01   1.05895412e+00  -6.67219043e-01
    4.92292345e-01  -1.30806491e-01   3.27694625e-01  -1.45468116e+00
   -6.71864972e-02  -7.29027808e-01  -1.62647140e+00  -1.93327770e-01
    5.32810032e-01   5.16704917e-01   2.40353847e+00   2.54246294e-01]
 [ -1.50373608e-01   4.84531403e-01   1.52455699e+00   5.77934980e-01
   -3.07294458e-01   4.12172049e-01   5.49269795e-01  -3.75532210e-01
   -4.55585957e-01   7.68694758e-01  -2.72622323e+00  -6.20368242e-01
    6.41680837e-01  -3.15148711e-01  -2.19916582e+00  -4.14733201e-01
    1.27093184e+00   6.39863219e-03   8.22403550e-01   1.80020177e+00
    1.33675933e+00   8.07998538e-01   1.67421544e+00  -7.14576006e-01
   -1.45732033e+00   2.08968449e+00   7.05321014e-01   1.27779496e+00
    3.61172825e-01   5.15776813e-01  -1.68678403e+00  -8.21293816e-02
    8.48440349e-01  -6.26742661e-01  -4.58489478e-01  -6.17674470e-01
   -1.09909868e+00   5.87958515e-01   2.85950691e-01  -3.30009282e-01
    1.14714146e+00   9.07509863e-01   1.95015121e+00  -5.83482265e-01
   -1.65184939e+00   1.37260485e+00  -2.27848604e-01   1.15379643e+00
    8.55649412e-01   4.53272641e-01  -7.44067609e-01   8.20899487e-01
   -1.31657124e+00  -1.03401601e+00   2.54380673e-01  -1.13933492e+00
    3.47159982e-01  -1.68114030e+00   2.21675500e-01   1.49401462e+00
    4.01078850e-01  -1.10184622e+00   7.72960544e-01   1.37262547e+00
    7.03777611e-01  -1.89491689e+00  -4.21318442e-01  -2.46304452e-01
    3.38596523e-01  -9.31522310e-01   4.68751937e-01  -3.74737591e-01
   -8.54660198e-02   2.15931559e+00   1.23367190e+00   5.04409671e-01
    1.10186708e+00  -4.01457250e-01   1.51722229e+00   2.32371062e-01
    4.34949279e-01   1.81164965e-01  -1.20923966e-01   1.49775136e+00
    1.63872790e+00   1.10439312e+00  -8.63577783e-01   1.39058828e-01
    2.14159414e-01  -2.92210579e-01  -1.42149496e+00  -9.25597072e-01
   -3.79611909e-01   4.23646152e-01  -3.33434343e-01   5.85944295e-01
    1.10746765e+00  -6.24573648e-01   1.10297036e+00  -1.13652241e+00
   -3.72385681e-01  -1.30605744e-02  -2.32341141e-01   1.29236412e+00
    3.66407514e-01   1.37128174e+00  -9.31968868e-01   5.28873086e-01
   -3.51542354e-01   1.16873181e+00   1.99596357e+00  -2.90039062e-01
    3.32582295e-01  -7.28546977e-02  -8.88508916e-01  -8.37988183e-02
   -3.36650163e-01  -3.68996143e-01   6.60978183e-02   9.15897369e-01
    4.36341584e-01   3.75556916e-01  -6.03416383e-01  -1.15111434e+00
   -6.06451869e-01  -2.32047196e-02  -4.14322734e-01   7.76724517e-01
    1.93050063e+00  -4.95620817e-02   7.55388856e-01  -4.66087013e-02
   -2.69054317e+00  -2.01374590e-01   8.47201288e-01   1.00486290e+00
   -1.08902442e+00   3.32245779e+00  -9.15209725e-02  -7.65844643e-01
    8.97134304e-01  -8.01809371e-01  -1.00206256e+00   1.00289202e+00
   -1.42465496e+00  -1.57121170e+00  -1.16112664e-01  -1.44950759e+00
    4.83696312e-02   1.46316484e-01  -1.56575465e+00   1.41087210e+00
   -5.35434306e-01  -1.64271963e+00  -3.07745457e-01   3.02764177e+00
   -1.75405934e-01  -9.61093605e-01  -1.16704202e+00  -1.56603456e+00
    8.07831466e-01   1.08378315e-02   9.27719057e-01  -8.66068959e-01
   -7.56774843e-01   6.08913362e-01  -1.05605341e-01  -7.85268068e-01
    6.71277881e-01  -5.00733793e-01   1.16870403e+00   1.27454686e+00
   -1.11794686e+00   3.40770781e-02  -7.25938082e-01  -1.40578866e+00
   -7.48649895e-01  -5.67912459e-01  -4.01543587e-01  -6.62431479e-01
   -3.30737019e+00  -4.37342584e-01  -1.23724377e+00   2.09108397e-01
    1.78777009e-01   1.11094356e+00  -1.36231792e+00   8.81161273e-01
   -1.18930757e+00   1.14982426e+00   1.13048613e+00   1.79814280e-03
    7.32776999e-01  -7.13454902e-01   4.26300198e-01   1.68232536e+00
   -1.63533664e+00   9.80796158e-01  -1.62463605e-01  -5.08031547e-01
   -8.79221797e-01  -2.31380370e-02  -8.22489142e-01   3.78616631e-01
    1.18860662e-01   1.02069616e+00   7.28317738e-01  -5.17022550e-01
   -3.02860618e+00   1.03105116e+00  -7.39539444e-01   1.44302094e+00
    1.01016253e-01  -3.48128259e-01   5.28193489e-02  -1.13434838e-02
    2.69446790e-01  -1.26550257e+00  -7.19544530e-01  -6.10432804e-01
    2.31514716e+00  -9.63398397e-01   1.77189386e+00   8.63016188e-01
    5.43066338e-02  -1.98665082e+00   3.55602533e-01  -2.15029806e-01
    1.51731825e+00   2.54789770e-01  -7.39727855e-01  -5.75987518e-01
    1.75431633e+00  -8.56646836e-01   1.79874878e-02   1.51911736e+00
   -2.04612231e+00   3.91963214e-01   1.42343855e+00   1.25492465e+00
    4.68885779e-01  -1.51822329e+00   1.35543370e+00  -3.04015517e-01
    8.45666409e-01  -5.15970886e-01   2.59632021e-01   4.98074591e-01
   -1.50274634e-01   1.23356748e+00  -1.26072192e+00   5.55220783e-01
    8.83078516e-01   1.84271663e-01   1.11398947e+00  -8.76852795e-02
    5.81179321e-01  -9.28295612e-01  -8.25139642e-01  -2.08846480e-01
   -1.32418013e+00   4.21422899e-01   4.58481908e-01   9.16663229e-01
   -7.17006028e-01   1.61747789e+00   2.09266096e-02   8.88220847e-01
   -2.65020400e-01   1.32546593e-02   6.60820723e-01  -6.86205745e-01
    7.91254342e-01  -6.03999197e-01   1.68400788e+00  -1.27381945e+00
    8.05785000e-01   1.34645641e-01  -7.79631197e-01  -2.85249591e-01
    1.14585829e+00  -1.12105048e+00  -5.36220908e-01   9.70318139e-01
   -1.60848379e+00   2.69640493e+00   4.44375694e-01   2.19175792e+00
   -5.09911895e-01   1.11799705e+00  -1.41558334e-01   5.81836760e-01
   -9.16679621e-01   3.61574680e-01   5.46152443e-02   1.67559195e+00
    1.13850403e+00   2.66438156e-01   5.27853072e-01   7.64554203e-01
   -1.78503180e+00   4.54341054e-01   1.49619758e+00   6.86790943e-01
    3.79136764e-02  -1.07221889e+00  -4.78733510e-01  -3.02290976e-01
   -1.84352958e+00   4.33234610e-02   7.20282555e-01   1.10804117e+00
    9.75505888e-01  -8.98381546e-02  -5.04813313e-01  -1.06014633e+00
   -1.06938742e-01  -2.04082417e+00  -9.92525041e-01  -1.38986158e+00
   -3.28595698e-01   4.56929347e-03   2.14163899e+00   1.17844856e+00
    6.81729376e-01   1.90846384e-01   1.35303104e+00   7.48376131e-01
   -8.02523911e-01  -8.27491939e-01   8.79688323e-01   8.11150968e-01
   -4.40190524e-01  -9.55731511e-01  -1.12163983e-01   6.99353993e-01
    4.51281101e-01  -4.33895528e-01   7.69827724e-01  -3.42550129e-01
    1.10060787e+00  -2.07356915e-01  -1.89422393e+00   1.47238588e+00
   -4.82910275e-02   4.80041951e-01  -1.72885215e+00   2.53477001e+00
    1.24738979e+00  -4.87439901e-01  -1.19114912e+00  -2.58817530e+00
   -1.55214453e+00  -5.59039414e-01   1.89719462e+00   5.16140014e-02
    3.80029738e-01   1.46077931e+00  -8.54266167e-01   5.52137077e-01
   -3.30488652e-01  -9.86957550e-01   3.50865990e-01   1.02866805e+00
    4.09365118e-01   1.41986206e-01   1.59472466e+00  -2.38904625e-01
   -6.64073288e-01  -7.94678152e-01   1.21075487e+00   2.34925613e-01
   -5.01513898e-01   4.35946435e-01   8.23001444e-01  -4.99860853e-01
    1.09874761e+00  -1.28837204e+00  -1.24873316e+00   5.80864847e-01
   -1.53154361e+00   1.59927213e+00   8.84544075e-01  -1.90934515e+00
   -1.97140381e-01  -3.23241055e-01   1.17606974e+00   2.17899039e-01
    1.78704873e-01  -1.32333052e+00  -6.43858373e-01   1.24581981e+00
   -3.13066542e-01  -1.95654273e-01  -1.18237531e+00   1.99017763e-01
    3.66917670e-01  -6.16494060e-01  -1.26713908e+00   1.45221829e-01
    8.15409899e-01  -6.91230118e-01  -9.50481594e-01  -1.93557128e-01
   -1.55720150e+00  -1.74775517e+00  -9.46942065e-03   4.56686437e-01
   -1.28118002e+00  -7.11920917e-01  -1.65736723e+00   7.23981202e-01
    1.04652964e-01  -1.51566386e+00   3.02602172e-01   8.01122904e-01
    1.46343577e+00  -2.54423857e+00   4.49725091e-02   1.03931975e+00
    1.26516855e+00  -1.58445561e+00   9.02175128e-01  -5.79182208e-01
   -1.67149350e-01  -2.85639733e-01  -4.78295654e-01   1.91246763e-01
    1.15455019e+00   4.47576016e-01  -9.24582899e-01   4.82351631e-01
    1.16556466e+00   3.15265387e-01   1.43312573e+00   1.79526001e-01
    4.81762826e-01   1.75342512e+00   2.44661227e-01   2.54253596e-01
    7.16973603e-01  -1.93390489e+00  -7.01868176e-01   1.27707841e-02
   -8.83110344e-01   1.34285092e+00   6.98207974e-01  -6.36137962e-01
    4.16496933e-01   2.11515737e+00  -1.44731000e-01  -2.52982706e-01
    1.07308841e+00  -2.02925563e-01  -1.22329021e+00  -9.69648540e-01
   -5.26706278e-01   4.08319890e-01   2.28236270e+00   3.62305306e-02
    4.65057462e-01   1.05120075e+00  -8.65695715e-01  -9.07281518e-01
    8.16004574e-01  -8.26814622e-02   2.21322346e+00   4.33557183e-01
    1.36107790e+00  -1.78998303e+00  -1.16669320e-01   9.99357760e-01
   -1.57315803e+00  -8.08298171e-01   9.28833544e-01  -1.83377773e-01
   -8.16794634e-01  -1.13143277e+00   9.65846956e-01  -1.37158704e+00
    9.22150791e-01   8.38893503e-02  -1.67823881e-01   2.54686952e-01
    3.49080294e-01  -7.58145094e-01  -6.75690651e-01  -2.02965069e+00
    6.35715723e-01   2.31285214e+00   5.78474700e-01  -1.00836253e+00
    1.50078966e-04  -6.48976862e-01   2.26194334e+00  -4.58964109e-01
   -6.92209229e-02   1.96001660e-02   7.52078071e-02   6.59158081e-02
    1.60937679e+00  -6.70357645e-01   3.66887242e-01  -3.28840047e-01
    1.58105767e+00  -9.09485698e-01  -3.37710470e-01  -2.35965073e-01
    4.26468164e-01  -1.26679659e+00  -6.00533068e-01   4.21910375e-01
