[[ -1.67988643e-01  -2.28357747e-01  -3.15711796e-01  -2.29147077e-01
   -2.12173486e+00  -8.75381708e-01  -1.24902284e+00   5.47146916e-01
    7.18056321e-01   6.52999043e-01]
 [ -8.03103507e-01   2.93924183e-01   9.07607853e-01   1.10153353e+00
    4.10932124e-01  -7.08112597e-01   1.15265250e+00   2.57012773e+00
   -2.24131085e-02  -9.86713886e-01]
 [  1.00968231e-03   7.76461661e-02   1.54116049e-01  -5.27704619e-02
   -2.09830356e+00   7.60677278e-01  -1.19572973e+00   1.10009468e+00
   -4.71515387e-01   1.59612283e-01]
 [  1.81035841e+00  -6.11388199e-02   9.27151263e-01  -1.57676268e+00
    5.95256507e-01   5.75062692e-01   1.10234642e+00   5.88455439e-01
   -8.54131699e-01  -2.83475041e-01]
 [ -7.92824268e-01  -8.48322883e-02  -1.48207450e+00   4.06722486e-01
   -4.50681031e-01  -1.08606398e+00   1.02824199e+00  -3.20079118e-01
   -2.57473409e-01   2.54415363e-01]
 [  9.65419114e-01   2.52428079e+00  -4.15560573e-01  -1.05523694e+00
    1.69136405e+00   6.60967052e-01   3.33357185e-01  -1.13348281e+00
    7.29317963e-01   1.86024189e+00]
 [  3.59257758e-01  -3.27507406e-02   6.53549969e-01   1.08707452e+00
    2.97751474e+00   3.72344255e-01  -2.64220070e-02  -1.74356723e+00
    5.83130047e-02   5.43507814e-01]
 [  8.04581106e-01  -4.41870242e-01   3.23516440e+00  -8.41591433e-02
   -5.88950217e-01  -2.34301146e-02   1.72233629e+00  -7.47222453e-02
   -6.78932130e-01   3.72739702e-01]
 [ -8.70140176e-03   6.59648597e-01  -4.37590748e-01   3.57124150e-01
    1.27185535e+00  -4.27299142e-01   5.14863491e-01  -2.16422632e-01
    1.97340178e+00  -5.02903998e-01]
 [  1.47444463e+00   1.84538767e-01  -1.32004762e+00  -7.32745767e-01
   -4.21434999e-01   8.05081069e-01   8.40455890e-01   1.69789642e-01
   -1.06528032e+00  -3.27440292e-01]
 [ -2.52154469e+00  -1.04935682e+00   9.47739743e-03   4.87004500e-03
    7.42085099e-01  -1.81205344e+00  -1.22550046e+00  -1.29384744e+00
    2.51696587e+00  -3.90604049e-01]
 [  8.99741019e-04   2.63631850e-01  -1.00023520e+00   7.33896434e-01
    3.39812160e-01   6.56703174e-01   1.31753814e+00  -3.20250779e-01
    8.22144926e-01  -1.45135379e+00]
 [ -4.50957775e-01  -4.09785867e-01  -1.19637823e+00  -4.74306524e-01
    7.97009230e-01  -1.67567694e+00  -1.62022007e+00   5.20593703e-01
   -1.46754146e+00   5.90694427e-01]
 [ -6.51115954e-01  -7.20802665e-01  -6.83072805e-01  -1.48721802e+00
   -8.41163218e-01   2.73906446e+00  -1.27841878e+00  -1.01952088e+00
    3.73531938e-01  -8.19585323e-02]
 [ -1.24986269e-01  -6.34090602e-02  -4.43459004e-02  -1.18108690e+00
    1.80310935e-01   3.40897024e-01  -4.35977131e-01  -7.11609483e-01
   -9.42924201e-01   6.94826841e-01]
 [  7.26628780e-01  -3.93408954e-01   6.23840034e-01  -9.36139345e-01
    1.81520367e+00  -9.12976563e-02  -7.25210011e-01  -2.30985612e-01
    5.53712666e-01   1.42536855e+00]
 [ -2.62837791e+00   1.84266940e-01  -6.80234551e-01   5.45620453e-03
   -7.79047608e-01   8.04399133e-01   8.29545319e-01   4.46677692e-02
    1.53075770e-01   1.26781493e-01]
 [ -2.08842373e+00   2.16949010e+00   1.01994085e+00   3.44965458e-01
   -8.84434581e-01  -3.11138213e-01  -5.41702844e-02   1.49921024e+00
    5.89889228e-01   1.23936844e+00]
 [ -3.29044424e-02  -1.20496237e+00   8.78991961e-01   4.62697178e-01
    6.46494687e-01   5.52192926e-01  -6.75666988e-01  -1.28178060e-01
    2.33486518e-01   1.26508617e+00]
 [  6.29691601e-01  -6.19009554e-01  -1.36315870e+00  -1.35068800e-02
    9.84929919e-01   1.24556708e+00   1.47141230e+00   2.63140708e-01
   -1.02532327e+00  -1.33166540e+00]
 [ -1.11391199e+00   1.67739892e+00   2.82635480e-01  -1.86029506e+00
   -6.17741227e-01  -1.71475828e+00   1.14085698e+00  -1.23237264e+00
   -1.26299515e-01   1.34057271e+00]
 [ -9.05381203e-01   9.81371924e-02  -5.35895348e-01  -2.17569852e+00
    1.36734390e+00  -6.48740351e-01  -8.18464756e-01   3.34743977e-01
    1.11529768e+00  -1.45471478e+00]
 [ -1.84604311e+00   1.45629621e+00  -9.22853768e-01   1.26100123e+00
    4.03751701e-01  -8.44139278e-01  -1.30226767e+00  -1.31059253e+00
   -1.84005916e+00  -1.22799182e+00]
 [ -1.60573334e-01  -1.42098212e+00  -1.95212752e-01   4.63909894e-01
    1.45190215e+00  -2.32384109e+00  -7.60331750e-01  -6.29644156e-01
   -2.94350117e-01   1.20091653e+00]
 [  2.75547504e-01   3.38923484e-01   6.88986182e-01  -5.82234681e-01
   -9.36321735e-01   2.99739838e-01  -9.27988112e-01   1.89160025e+00
    1.29735237e-03   1.85634232e+00]
 [  5.84647477e-01  -2.17772889e+00  -6.30047441e-01   1.64072013e+00
   -1.26146281e+00   1.35690272e+00  -2.74511278e-01   2.04896522e+00
   -1.23857953e-01  -1.23088074e+00]
 [ -1.54767975e-01   8.50127041e-01   2.16280627e+00  -1.27144742e+00
   -2.18085855e-01  -4.77355778e-01  -1.03282487e+00  -2.26801217e-01
   -1.02208793e+00  -1.02649760e+00]
 [  3.63580644e-01   3.13167423e-01  -6.72403812e-01  -6.48798883e-01
   -5.32065511e-01   1.05369163e+00  -2.84057856e-01   1.52810633e+00
    6.07559979e-01   3.37331593e-01]
 [  1.02804172e+00  -3.69368732e-01   1.74427879e+00   5.69622636e-01
    3.12546760e-01   1.13507822e-01   1.51171994e+00  -1.33761954e+00
    4.41946805e-01  -6.23555720e-01]
 [ -1.99207217e-01   1.16398804e-01  -9.56666589e-01  -7.67528892e-01
    1.82836950e+00   3.71943116e-01   1.08863044e+00   3.11032832e-01
   -1.65033674e+00   8.85899544e-01]
 [  5.50493240e-01   4.52390224e-01   2.15469584e-01   4.68666898e-04
   -1.42036259e+00   8.97469759e-01  -3.52497816e-01  -1.97651124e+00
   -6.10271931e-01  -5.65129161e-01]
 [ -1.89381635e+00  -3.12221706e-01  -8.96425307e-01  -1.91658223e+00
    3.65915924e-01  -1.86508838e-02   1.40973377e+00  -8.95677149e-01
   -1.17736435e+00   1.25265336e+00]
 [  1.59182847e+00  -1.58218384e+00  -9.72382188e-01  -8.32756042e-01
   -9.33763385e-01   4.01558250e-01  -1.62704694e+00  -3.58105600e-02
    7.10713685e-01   8.50079298e-01]
 [  6.46894157e-01  -5.15531301e-02  -2.16733003e+00   1.84528100e+00
    1.09597409e+00   7.35018313e-01   9.64898109e-01  -4.24967736e-01
   -2.12427163e+00   9.29672241e-01]
 [ -4.60041851e-01  -5.87158859e-01   2.09286243e-01  -8.36895823e-01
   -9.02733147e-01  -6.22838199e-01   1.26036310e+00  -1.28763247e+00
   -2.37134242e+00   8.93333435e-01]
 [  1.70622742e+00  -4.94686872e-01   6.20254993e-01  -2.48369098e+00
   -1.55777168e+00  -9.91202950e-01  -5.59764028e-01  -2.63402104e-01
    1.54183507e+00   5.11398673e-01]
 [ -7.92264700e-01   4.18572634e-01  -9.06144261e-01  -8.15107465e-01
    3.41581613e-01   3.71307552e-01   5.18304348e-01   4.79281932e-01
    2.05254957e-01   7.32483685e-01]
 [  1.77022147e+00  -9.97377396e-01  -6.88080907e-01   5.28895184e-02
   -2.49448523e-01   1.29159875e-02  -1.61084640e+00   2.12206766e-01
   -1.41818717e-01  -1.70143044e+00]
 [ -1.61675084e+00  -1.08526833e-01  -5.68122491e-02   2.07144785e+00
    1.94338635e-01  -7.81540275e-01  -1.39760983e+00  -1.28164411e+00
   -8.82402718e-01   4.91501272e-01]
 [ -1.55675307e-01  -1.14243293e+00   6.53894767e-02  -1.91931331e+00
   -9.27924886e-02  -1.19001496e+00  -6.16097867e-01   1.14755265e-01
   -4.96743381e-01  -5.69952130e-01]
 [ -2.54257619e-01   1.29845762e+00   1.77835703e+00   3.82677078e-01
    6.28714740e-01  -3.69910091e-01  -3.81047912e-02   7.57401705e-01
    1.23930991e+00   1.75269711e+00]
 [  1.13485418e-01  -8.52962673e-01  -2.81338096e-01   1.01626408e+00
   -8.59302580e-01   1.56563294e+00   1.14299917e+00   1.21398985e+00
   -3.38547826e-01   1.51881352e-01]
 [  7.10068829e-03  -7.95550108e-01   3.22102197e-03  -1.55818152e+00
   -6.18533313e-01  -1.72435915e+00   2.15999985e+00  -2.92035818e-01
   -8.14957142e-01   8.01238492e-02]
 [ -1.28822553e+00  -6.67457655e-02   1.05040884e+00   7.87040234e-01
   -9.47073996e-01  -2.65338093e-01  -1.58414459e+00  -1.17922330e+00
    3.89045089e-01   6.56024158e-01]
 [  5.61966658e-01   5.59598625e-01  -3.17066193e-01  -4.67033051e-02
   -3.53600681e-01   3.26870173e-01  -1.62912354e-01  -6.70563579e-01
    1.84786725e+00   9.25736070e-01]
 [  8.97070944e-01  -8.02644551e-01  -1.87119544e-01   1.67071164e+00
    4.97190773e-01   7.60142744e-01  -1.18468916e+00   5.88898242e-01
    9.74820554e-01  -5.25265992e-01]
 [  1.93175781e+00  -5.73595226e-01  -1.37062836e+00   5.20385087e-01
    4.01602060e-01   6.52718663e-01   2.10471183e-01  -1.31152129e+00
   -1.76956445e-01  -1.12000024e+00]
 [ -1.59289539e+00   1.67854476e+00  -6.91084802e-01   2.05866408e+00
    2.48556018e+00   1.39848661e+00   2.13764572e+00  -3.11378706e-02
    4.78680879e-01  -1.03002954e+00]
 [ -1.58497095e+00  -5.69510937e-01   3.54340449e-02  -5.65468073e-01
   -1.66692591e+00   4.41178113e-01   4.93678600e-01   1.16157091e+00
    6.32406846e-02   8.17296445e-01]
 [ -4.61731642e-01   1.68815389e-01  -3.02134067e-01   7.61101723e-01
   -6.76002681e-01  -6.17213510e-02  -9.29864526e-01  -2.52529502e+00
    2.06458598e-01   1.60335124e-01]
 [  3.78047317e-01  -5.74615955e-01  -5.95976174e-01   1.53473592e+00
   -8.91461492e-01   1.03823923e-01   3.36757362e-01   2.18615770e+00
   -5.58886647e-01  -1.37341273e+00]
 [  7.36878216e-01  -5.55217147e-01   8.28043222e-01  -1.29552042e+00
    1.10195029e+00   4.39593434e-01  -1.12243199e+00   2.95827836e-01
   -4.80581462e-01   2.08929613e-01]
 [  2.75419855e+00  -8.72017145e-01  -9.65046763e-01   1.02555311e+00
   -9.42693949e-01   1.91130906e-01  -1.34737462e-01   4.64087218e-01
   -1.98490113e-01  -4.27668095e-01]
 [ -5.18927455e-01   2.44576588e-01   3.84539992e-01   1.48850530e-01
   -1.69057155e+00  -1.09900162e-01   2.07807332e-01   1.18110406e+00
   -2.91958475e+00  -1.19114864e+00]
 [  1.74045694e+00  -1.41104579e+00   1.05842221e+00   5.41925728e-01
    1.65655756e+00  -1.23108518e+00   7.44368732e-01   1.09404348e-01
   -8.37391496e-01   1.03758359e+00]
 [ -5.94691455e-01  -2.00840163e+00   1.36519492e+00   2.12841821e+00
   -2.27582440e-01  -2.95367867e-01   2.77414024e-01   2.41140559e-01
   -1.78573108e+00   2.77445205e-02]
 [ -5.87566555e-01  -1.13557327e+00   1.08592439e+00  -1.69978961e-01
    6.11216724e-01   8.98236334e-02   2.07956600e+00  -2.38128945e-01
   -1.51973099e-01   1.72626150e+00]
 [  9.42790657e-02   1.86837912e+00   4.89442289e-01   1.01391745e+00
   -1.66024339e+00   1.27491677e+00  -2.72414863e-01  -1.44710749e-01
   -4.35659945e-01  -5.72045565e-01]
 [  2.93033749e-01  -4.27088350e-01  -4.47699487e-01  -9.51928675e-01
   -1.01943254e+00  -1.18556309e+00  -8.61231983e-01   6.41586125e-01
    2.00038314e-01  -1.90713733e-01]
 [  3.67916167e-01   1.01043768e-01   1.16996789e+00   6.12988114e-01
    6.34662867e-01   1.55252230e+00  -8.52234781e-01  -1.27573752e+00
    8.55216861e-01  -9.87061977e-01]
 [ -3.50095242e-01  -2.81171590e-01   2.04886699e+00  -2.87448317e-01
   -6.97653949e-01   5.30994058e-01   1.89750105e-01   8.90970707e-01
   -2.72266865e-01  -1.85937613e-01]
 [  9.53184590e-02  -8.89165998e-01   1.10712814e+00  -3.26080956e-02
    5.73723316e-01   2.80925441e+00   1.20268142e+00   8.42085034e-02
    5.71285665e-01  -2.16878963e+00]
 [  9.62382793e-01   8.48525405e-01  -1.14861059e+00   7.51618370e-02
   -8.70996833e-01   1.65791643e+00   4.68738019e-01   6.93685889e-01
    3.72581333e-01  -1.26397395e+00]
 [  5.59392750e-01   5.61559081e-01   1.59398139e+00   8.00155580e-01
   -5.46014726e-01   1.74262583e+00  -8.16515028e-01  -1.49197960e+00
    1.08832940e-01  -2.99397081e-01]
 [ -7.02299893e-01  -7.25655079e-01   3.04921512e-02   9.03705060e-01
   -7.53100634e-01  -2.51466811e-01   1.89724791e+00  -8.80100369e-01
    3.41952980e-01   6.06758744e-02]
 [  7.47980833e-01   1.11796796e+00   1.27157614e-01   1.32217276e+00
    3.02866846e-01  -9.09105718e-01   2.11526775e+00  -3.10406566e-01
   -9.38711703e-01   4.39473450e-01]
 [  5.32764792e-01   3.33874047e-01  -1.24764085e+00   7.28860378e-01
   -2.70605803e-01  -1.74949491e+00   1.07743895e+00  -7.95718133e-01
    6.98701918e-01  -3.66687447e-01]
 [ -9.13357548e-03  -3.60386044e-01  -3.10532451e+00   3.00197810e-01
   -8.68963003e-01   5.75629771e-02  -1.38037634e+00  -1.48635983e+00
   -8.75539720e-01   1.93351269e+00]
 [  9.51289535e-01   4.02798414e-01  -3.71466994e-01   1.10321574e-01
   -4.34732199e-01   2.23505974e+00   6.79007709e-01   1.60160589e+00
    3.03042293e-01  -1.34950161e+00]
 [  8.50142360e-01   1.77333212e+00  -2.67201394e-01   1.67087138e+00
   -1.60300374e+00  -1.33821332e+00  -3.75256270e-01  -8.79196823e-01
   -1.57138097e+00  -1.76080036e+00]
 [  1.25086975e+00   1.53334334e-01  -1.40664887e+00  -4.30357784e-01
    6.90534413e-01  -2.24689081e-01   9.67717946e-01  -7.17941642e-01
   -6.62098169e-01  -1.93104565e-01]
 [  7.73202721e-03  -3.09221983e-01  -1.34199187e-01  -2.14136553e+00
   -7.15477616e-02  -1.71439755e+00  -3.43914419e-01   1.34355664e+00
    4.93954390e-01  -9.46864843e-01]
 [  8.55608210e-02   2.38216162e-01   4.88478482e-01   7.66186476e-01
   -1.02165258e+00   1.33107209e+00  -4.42162395e-01   1.43003833e+00
    1.32007134e+00   7.96612352e-02]
 [  8.40678573e-01  -1.62121356e+00   1.72308576e+00  -6.27894044e-01
   -1.92089781e-01  -2.41136599e+00   6.64707541e-01   1.30646729e+00
    2.70707583e+00   2.04512432e-01]
 [ -2.21578717e+00  -6.60361707e-01   4.09597069e-01  -7.99536407e-02
   -2.37982899e-01   3.10599040e-02  -7.93759525e-01  -3.62911731e-01
   -1.73650825e+00   1.74446285e-01]
 [ -6.16054773e-01   5.43941021e-01  -8.34568679e-01  -1.47041476e+00
   -6.04222059e-01  -6.03470325e-01  -2.71440029e-01   1.92381620e+00
   -7.32245967e-02  -4.09732401e-01]
 [ -8.60106051e-02  -7.28118002e-01  -3.03959679e-02   9.64312673e-01
    2.41231871e+00  -1.63515306e+00   1.60797954e+00   9.64599401e-02
    1.27012217e+00   1.28443003e+00]
 [ -1.03454299e-01   2.98152357e-01   6.28671646e-01  -6.36514425e-01
   -1.88272846e+00   4.45007861e-01   1.25379753e+00   2.92467415e-01
    7.29154170e-01  -1.04492748e+00]
 [  6.06889606e-01  -8.32537353e-01   1.39158741e-01   1.09478617e+00
    2.52207088e+00  -1.25173712e+00  -5.90968728e-02  -2.98727453e-01
   -4.14471060e-01   3.93378615e-01]
 [ -5.14774680e-01   7.49036372e-01   1.84222221e+00   7.73736954e-01
    1.09946394e+00   5.15432119e-01  -1.18150318e+00   9.11388636e-01
    1.60809684e+00   7.45946541e-02]
 [  1.11029780e+00  -4.59546745e-01  -7.78303325e-01  -1.06408276e-01
    8.10866117e-01   1.28420210e+00   7.89152265e-01  -1.09455258e-01
    1.07817912e+00  -7.07442820e-01]
 [  1.05816531e+00  -3.63634408e-01   4.22671974e-01  -9.89671588e-01
   -1.81639299e-01   5.13850510e-01   3.02485764e-01   2.60310739e-01
   -2.42381230e-01   3.49840730e-01]
 [  2.63894230e-01   1.31528795e+00  -3.66702497e-01  -4.63924110e-01
   -1.23799407e+00  -8.71803164e-02   7.68762112e-01   1.34604490e+00
   -2.39092872e-01  -9.80567038e-01]
 [ -7.52739549e-01   2.02766731e-01  -2.62513429e-01   6.38637185e-01
   -1.45058346e+00   8.16259533e-02  -1.93231270e-01   7.73177743e-01
    5.70772827e-01  -1.45641577e+00]
 [  6.54525995e-01  -9.78133261e-01   1.01495171e+00   6.24438524e-01
    1.20190847e+00  -6.52996302e-01   4.44151580e-01   7.29823768e-01
    1.89755216e-01   9.72737849e-01]
 [ -2.11469579e+00   1.29190356e-01   6.53139770e-01   4.18030947e-01
    2.16437674e+00   3.09468448e-01  -9.97679770e-01  -8.83665144e-01
   -5.28030813e-01   4.55899894e-01]
 [ -1.35449797e-01   2.23809466e-01  -9.15025651e-01   1.25989366e+00
    1.74851525e+00  -8.24172378e-01   1.35341227e+00   1.24771154e+00
    1.12558246e+00  -3.02312374e-01]
 [  1.05817151e+00   9.73965228e-01   1.42147255e+00  -4.18190688e-01
   -1.05646014e+00   1.57013428e+00  -2.21978378e+00   1.43625283e+00
   -1.72977281e+00  -7.85136104e-01]
 [  7.73811817e-01   1.64072543e-01   7.83014297e-01  -1.06630814e+00
   -4.79749858e-01   5.55436648e-02  -5.93635142e-01   4.90474284e-01
   -8.39825392e-01  -3.97330046e-01]
 [ -3.98716241e-01   2.90723830e-01   1.09994853e+00  -4.89967108e-01
   -9.34538424e-01   6.39146388e-01  -5.72414398e-01   7.15751290e-01
    4.98401791e-01  -6.09557293e-02]
 [ -9.56420302e-02  -1.01748645e+00   1.02384162e+00  -1.52303064e+00
    7.86596816e-03   1.37613010e+00  -7.85376132e-01  -4.45210129e-01
   -1.96613595e-01  -6.77404881e-01]
 [  9.72894549e-01   5.96873760e-01   1.29294461e-02  -2.69772649e-01
    5.40924728e-01   1.54175490e-01  -7.61966288e-01  -1.41816509e+00
   -1.23005927e+00  -2.08553389e-01]
 [  5.55202127e-01   4.07631278e-01  -5.48913404e-02   1.41792488e+00
   -1.33073404e-01  -3.10840547e-01   9.30683792e-01   7.25430250e-02
   -1.10603797e+00   4.39794868e-01]
 [ -3.83787364e-01   1.19049378e-01   1.90948427e+00   3.14831495e-01
   -2.06856251e+00  -7.51013219e-01   2.81985939e-01  -1.57403541e+00
    3.29271913e-01   4.11963701e-01]
 [ -1.04343486e+00   6.34281754e-01   1.80857444e+00  -9.54928637e-01
   -3.69234025e-01  -8.36158276e-01   3.16001773e-01  -6.29765034e-01
   -6.58097327e-01   1.80920017e+00]
 [  6.38262212e-01   5.73981881e-01   5.18835261e-02   2.86914647e-01
   -3.20278585e-01   3.12747359e-01   1.58001101e+00  -6.51982963e-01
    1.61872625e+00  -1.28918901e-01]
 [  7.90215373e-01  -1.42639577e+00   1.48319805e+00   5.74795902e-01
    2.18314052e-01  -8.40852141e-01   5.95972538e-01   1.09161949e+00
    3.32140803e-01  -5.90476871e-01]
 [  6.06426358e-01   1.07797945e+00  -8.54730546e-01   4.85799521e-01
    1.78324509e+00  -6.46865601e-03   1.20574974e-01   9.70116913e-01
   -3.50498021e-01   7.91650116e-02]
 [  4.72976714e-01   5.80572963e-01  -1.02575672e+00  -9.34401453e-01
   -5.08162260e-01  -3.75658125e-01   1.97184038e+00  -7.68565357e-01
    5.06138325e-01  -5.20783067e-01]
 [ -1.80847013e+00  -7.07248628e-01  -1.40878722e-01   5.52933335e-01
    4.18731838e-01   3.04131776e-01   1.73435426e+00  -1.45174325e+00
   -9.82340813e-01   1.26898265e+00]
 [ -2.14968181e+00  -2.16978979e+00  -2.44730449e+00   1.67251611e+00
    1.10604398e-01  -1.46514773e+00   1.03302693e+00  -8.56660068e-01
   -3.92370701e-01   1.97861239e-01]
 [  8.69502425e-01  -1.84988463e+00   1.52965799e-01   3.41920346e-01
    2.96838671e-01  -1.79952681e-01  -1.13138092e+00   1.22797453e+00
   -1.01429403e+00  -9.84019279e-01]
 [ -2.38022849e-01   1.72803712e+00   3.08614373e+00   2.90816247e-01
    2.95101255e-01   7.81095624e-01   6.96258962e-01   1.76017340e-02
   -1.18015492e+00  -5.33296824e-01]
 [  6.76814973e-01  -8.10549632e-02  -1.45657218e+00   8.08027148e-01
    2.62796134e-01   4.46397997e-02   7.92066008e-02   2.89456174e-02
    2.40661740e+00  -7.11804092e-01]
 [  1.23552418e+00  -1.75688237e-01   9.78726149e-02   1.60296714e+00
    1.81324363e-01   4.73533243e-01  -1.46905720e-01  -8.52633536e-01
    6.89122677e-01   1.68754339e-01]
 [  1.13287365e+00  -1.05888855e+00  -4.84160990e-01   8.65578830e-01
   -5.76325841e-02   2.16734469e-01  -1.56955957e+00   4.24009770e-01
   -9.19465959e-01   1.68030453e+00]
 [ -4.95309889e-01   1.07272148e+00   2.09216905e+00   1.10426986e+00
    1.74895916e-02   7.74247348e-01  -1.68861079e+00   1.98588836e+00
   -8.58052373e-01  -9.84797180e-01]
 [  3.20873410e-01   1.47603059e+00  -3.54418814e-01  -7.57285237e-01
    1.14613521e+00   6.73582673e-01   7.22878218e-01   1.75391579e+00
   -1.10649943e+00  -1.76865423e+00]
 [ -4.63937789e-01   4.08356488e-01   8.06231499e-02  -1.48594275e-01
    4.30090092e-02   9.15043592e-01   1.35141516e+00  -1.17059910e+00
    1.39552462e+00  -2.41215277e+00]
 [ -4.36427854e-02  -5.65367281e-01  -4.44619864e-01  -1.02830601e+00
    1.15895462e+00   4.65291321e-01   6.20468497e-01  -1.06563425e+00
   -8.45186234e-01  -1.13162346e-01]
 [ -4.05224204e-01   1.38725448e+00   1.28305864e+00  -4.20183420e-01
   -3.80530238e-01   1.81244969e+00  -4.71092820e-01   2.64928430e-01
    2.51658797e+00   2.26175332e+00]
 [ -2.39158201e+00   4.18364070e-02  -5.50964117e-01   8.85657430e-01
   -6.27722815e-02  -7.00189471e-01  -1.68916845e+00   2.29589891e+00
    8.20092142e-01   5.84702134e-01]
 [ -4.27286536e-01   3.13832760e-01   5.19111276e-01  -7.12989867e-01
    1.09386051e+00  -4.18931693e-01  -2.16385312e-02  -4.96384799e-01
   -1.54205453e+00  -1.01382127e-02]
 [  1.41167134e-01  -1.00827909e+00   9.96420562e-01   8.68115425e-01
   -5.40995300e-01  -1.68058574e+00   4.65703785e-01  -3.45454633e-01
    7.32312024e-01   9.53452885e-01]
 [ -1.19179177e+00   1.25612557e-01   2.40078330e-01  -4.12009597e-01
    1.70012131e-01   3.86858761e-01   7.46031761e-01   3.06229174e-01
   -7.63627708e-01   1.32380515e-01]
 [  1.60966679e-01  -5.63661098e-01  -3.56104344e-01  -2.62536019e-01
    8.27755153e-01   2.53313088e+00   5.47491550e-01  -3.45533252e-01
   -9.99809444e-01  -4.18504059e-01]
 [ -1.25793174e-01  -8.91505837e-01   1.58686414e-01  -1.32081479e-01
   -1.06061757e+00  -6.98245764e-01  -8.10843706e-01  -2.38004613e+00
    1.07321464e-01   1.64003985e-03]
 [ -1.70904681e-01  -1.30908310e-01  -1.58233389e-01  -1.24382794e+00
    5.08679330e-01  -1.31548762e+00  -1.66915870e+00  -6.97468877e-01
    6.57843649e-01   1.49590206e+00]
 [ -9.39535260e-01   6.40106082e-01  -1.02299082e+00   5.35674155e-01
   -1.04498625e+00   4.28775758e-01  -3.13832790e-01   1.17740536e+00
    1.14039969e+00   2.67998219e-01]
 [ -2.09404969e+00   6.23328626e-01  -5.60817897e-01   8.74419212e-01
    1.58753932e+00  -1.80492818e+00  -1.23054945e+00  -1.77860165e+00
   -7.13591054e-02   1.71368015e+00]
 [  1.29973900e+00  -6.67127788e-01   6.36253715e-01  -1.16883647e+00
    1.69176650e+00   4.21065122e-01  -4.61377591e-01  -1.36868209e-01
    1.11151624e+00  -2.35104990e+00]
 [ -1.14427602e+00  -4.50817496e-02   1.63170767e+00   1.35224223e+00
   -1.69047832e-01  -9.46665168e-01  -9.77458060e-01   5.13599291e-02
   -6.16406381e-01   1.18303514e+00]
 [  5.13335705e-01   3.58746290e-01   4.56008077e-01  -5.03966846e-02
    6.42924964e-01   2.47483015e-01   1.97334123e+00  -3.58982772e-01
    1.03725970e+00   4.63322669e-01]
 [  8.29854250e-01   7.76371434e-02  -7.20026612e-01   1.30954039e+00
   -1.52764201e-01   1.56160146e-01   5.83681047e-01  -5.65021932e-01
    1.18778765e+00   4.86128330e-01]
 [  1.80756897e-01  -1.79783851e-01  -2.72883654e-01  -1.51302028e+00
   -9.73340690e-01  -7.68320560e-02  -7.84686327e-01   5.37802987e-02
    5.23577929e-02   9.14243579e-01]
 [ -4.70714539e-01   2.43576705e-01   7.33313896e-03   3.10154498e-01
    4.03269351e-01  -2.23984018e-01  -9.37679410e-01  -9.87087011e-01
    5.21784842e-01  -1.35862422e+00]
 [  1.71591580e+00   4.20395792e-01  -2.09837899e-01  -8.16277117e-02
   -1.47228730e+00   1.39613092e+00  -7.48494267e-01   5.01261279e-02
    1.20095961e-01  -3.77604842e-01]
 [  1.72333193e+00  -1.45353854e+00   5.94580770e-01  -3.99668306e-01
    1.45636833e+00  -2.47061849e-01   7.08232939e-01  -1.39096272e+00
    1.44064641e+00   6.66954637e-01]
 [ -6.99576586e-02  -8.41947734e-01   6.33402288e-01   1.51360258e-01
   -2.62781382e-01   1.38801014e+00   8.62880111e-01  -1.64783216e+00
   -2.72487476e-02  -1.20357907e+00]
 [  2.67278790e-01   9.78158414e-01   1.50335896e+00  -2.31366158e+00
    1.74930036e-01  -3.08532506e-01   2.99926400e-01   4.40251887e-01
   -1.13379204e+00  -1.26759320e-01]
 [  8.14146161e-01  -6.69828892e-01  -3.12452197e-01   6.46495461e-01
   -1.66876459e+00   9.46425676e-01  -3.12305987e-01  -2.52070785e-01
    1.24738705e+00  -1.34437299e+00]
 [  9.32477117e-01  -8.93720388e-01   1.48970159e-02  -3.97966027e-01
   -4.17504422e-02   7.38368392e-01   3.35799909e+00   3.89844388e-01
    1.26088572e+00   6.95640981e-01]
 [  4.69354838e-01  -1.61027098e+00  -1.79105151e+00  -2.05244851e+00
    5.56302905e-01   3.08658611e-02  -4.05073911e-01   1.19446242e+00
   -2.98798621e-01   2.00879765e+00]
 [ -1.30969310e+00  -2.32753292e-01   2.08224952e-01  -2.16774869e+00
   -1.42340660e+00   1.23512089e+00  -1.29290447e-01   1.32801604e+00
    1.13203061e+00  -2.34965652e-01]
 [  6.82213485e-01   8.10094118e-01  -1.71569735e-01  -1.74292684e+00
    1.74471319e+00  -1.26418924e+00   1.76381326e+00  -1.29466951e-01
    1.31417418e+00  -1.28504264e+00]
 [ -4.63440627e-01  -2.60696006e+00  -1.10909247e+00  -5.30274808e-01
    8.75334203e-01  -1.34210861e+00   2.21744508e-01   6.47328869e-02
   -1.88560203e-01   2.25085402e+00]
 [ -1.64619267e+00   1.77416861e+00  -2.49803138e+00   1.33728790e+00
    1.24168444e+00  -8.71380031e-01  -3.37512434e-01   5.83123028e-01
    9.70151499e-02   1.37897134e-01]
 [ -1.34446710e-01  -1.39775686e-03  -3.61192942e-01   6.68847203e-01
   -1.12955928e+00   9.63163435e-01  -3.35958630e-01   6.11076772e-01
   -4.81139243e-01   8.91183257e-01]
 [  1.15060639e+00  -8.91601562e-01  -1.43287152e-01   9.60999846e-01
   -7.48345017e-01   5.13103485e-01  -1.65475786e-01   4.99778420e-01
   -2.86041170e-01   3.17119956e-01]
 [ -2.83026487e-01  -1.09680831e+00   5.66860437e-01  -1.51912367e+00
   -3.56109977e-01   3.54900867e-01   3.19717169e-01   1.70829737e+00
    3.02102305e-02  -3.68036956e-01]
 [ -6.04371309e-01   4.77466792e-01   1.52981198e+00   8.92837048e-01
    6.39745653e-01   2.93834656e-01   8.81244600e-01   7.09434506e-03
   -1.33437663e-01  -2.05002964e-01]
 [ -2.02504277e+00  -1.42715955e+00  -1.00829387e-02  -4.37058285e-02
   -1.17419052e+00   3.79456133e-01  -1.01705265e+00  -1.70626974e+00
   -1.92668271e+00  -1.45865083e+00]
 [ -8.99443507e-01  -2.14937866e-01   2.33763922e-02   1.23558211e+00
    4.18051571e-01  -7.00897157e-01  -5.54613709e-01   5.59816241e-01
   -7.71284103e-01  -1.70931423e+00]
 [  9.25474644e-01   7.50745475e-01  -1.42511517e-01   8.18143010e-01
   -3.22649807e-01   3.68806690e-01  -5.37175417e-01  -3.62120360e-01
    1.40085280e+00  -9.07719374e-01]
 [ -1.48179603e+00  -4.55479741e-01  -8.98276716e-02   5.02998054e-01
    1.10541439e+00   5.82580984e-01  -8.94917607e-01   1.37494188e-02
    7.97347188e-01   4.76661831e-01]
 [  1.65874556e-01   3.49929661e-01   1.38106607e-02   1.32407498e+00
    3.28231114e-03   1.15219951e-01  -4.86581549e-02   1.57048786e+00
   -2.03978643e-01   3.58867124e-02]
 [ -7.39830852e-01   7.99838126e-01  -1.80111921e+00  -1.50887191e+00
   -3.15955490e-01   1.39694786e+00  -1.13037634e+00   2.92050540e-01
   -3.47269922e-01  -2.06190228e+00]
 [  1.06109750e+00  -1.73107192e-01   1.51393569e+00  -1.01224399e+00
    1.72294509e+00  -1.31972814e+00   9.36347425e-01  -3.56996119e-01
   -9.46525693e-01   1.12392116e+00]
 [  3.71077359e-01   9.55587685e-01   1.69354522e+00  -1.97131395e+00
    6.73854768e-01  -4.47426766e-01  -7.27579713e-01   1.08179462e+00
    2.62184083e-01  -4.10682708e-01]
 [ -2.09401548e-01   1.31697392e+00  -2.03468993e-01   1.46010876e+00
    6.48054600e-01   2.02652454e+00   1.00218201e+00  -6.39848351e-01
   -5.86002886e-01  -1.14882576e+00]
 [  5.40621519e-01   2.31522465e+00  -4.28542882e-01   5.95609844e-02
    1.74427733e-01   6.47487521e-01  -1.16599488e+00  -1.04721427e-01
   -3.37151378e-01   1.61833644e+00]
 [  1.73949033e-01  -5.81440747e-01  -6.80619895e-01  -1.51355994e+00
   -2.68913746e-01   6.40724063e-01  -4.09913927e-01   1.18463504e+00
   -1.31923437e+00  -8.93476009e-01]
 [ -3.40898007e-01  -5.98641098e-01  -1.62825072e+00   1.13033080e+00
    7.87319303e-01   4.96670306e-02   5.34219205e-01   1.40211165e+00
   -4.30116802e-01  -4.28314239e-01]
 [ -1.02521026e+00   2.46976066e+00   8.04333627e-01   2.67975271e-01
    8.83416682e-02  -9.65963960e-01  -1.08588696e+00  -1.68255210e+00
   -4.45326686e-01   7.44537055e-01]
 [  5.57066321e-01  -3.13219845e-01  -7.39117563e-01  -1.94031104e-01
   -4.93948273e-02  -4.96500134e-01  -7.71468401e-01  -4.90636796e-01
    1.05027723e+00   2.92042971e-01]
 [ -2.19693589e+00  -2.50489146e-01   7.37065017e-01  -1.94994521e+00
   -5.44148684e-01  -2.57205200e+00   1.52370572e+00   1.69354093e+00
    1.01115012e+00  -1.98791087e-01]
 [  5.53122640e-01   2.00300622e+00   1.29179502e+00  -1.19433224e+00
    5.00874400e-01   3.61671716e-01  -4.40575480e-02   8.03517997e-01
    1.71225464e+00  -3.44646782e-01]
 [ -7.05453753e-02   8.79617035e-01   3.16275567e-01  -4.45975542e-01
    6.65133834e-01   1.03346026e+00   1.37744367e+00  -6.55360639e-01
    5.61707556e-01   1.60244834e+00]
 [  1.91825891e+00   4.57805306e-01  -1.65691686e+00   1.11902738e+00
    1.70876801e+00  -1.30918801e-01   1.30451059e+00   1.35676312e+00
    8.82039428e-01  -2.33963639e-01]
 [ -8.43383223e-02  -4.21477318e-01   9.17045474e-01  -4.13156658e-01
   -7.65070975e-01  -7.89122164e-01  -1.38251530e-03  -8.14423800e-01
   -2.43197680e-02   8.05992708e-02]
 [ -3.35180283e-01  -6.50424302e-01   9.41459596e-01   1.26398921e+00
    6.99315071e-01  -1.00701916e+00   2.19986305e-01   6.39029264e-01
    3.83603007e-01   3.51644367e-01]
 [  8.41983795e-01   6.37197420e-02  -2.41345406e+00   1.65117669e+00
    7.29394034e-02   1.25222528e+00  -2.55708955e-02  -3.04152995e-01
    3.01609218e-01   3.07482481e-01]
 [  1.14175105e+00   2.58839905e-01   6.31334186e-01   3.26886487e+00
   -6.52923822e-01   2.96796918e-01   1.02299983e-02  -6.30135596e-01
   -1.33974195e+00   8.21058452e-02]
 [  1.24708378e+00  -9.74214733e-01   1.16206586e+00  -5.50564408e-01
    3.51552308e-01  -6.14001095e-01  -8.16321135e-01   1.00830281e+00
    7.97833264e-01   3.00961256e-01]
 [ -7.20166266e-01  -6.78132117e-01  -1.80574584e+00   5.01892030e-01
   -1.83866739e-01   8.04084644e-04   2.68576503e-01   2.26895738e+00
    1.78464293e+00   8.76380801e-01]
 [  6.84920132e-01   9.24194977e-02   1.28092492e+00  -3.39899063e-01
    1.42847434e-01   1.61289489e+00   1.75772607e+00   5.84205031e-01
    2.56235480e-01  -9.01988268e-01]
 [ -4.91113394e-01  -1.33691812e+00   1.03179848e+00  -2.18627259e-01
   -2.47447446e-01   2.35005170e-02  -1.81343842e+00  -6.76253319e-01
    5.42059362e-01  -8.31824660e-01]
 [ -3.15456361e-01  -4.91903871e-01  -1.20800948e+00   8.32934201e-01
    5.66304505e-01  -1.07649362e+00   1.63319564e+00  -3.65497798e-01
   -1.42336011e+00  -6.18636906e-01]
 [  8.94865572e-01   9.92164850e-01  -1.30573317e-01  -1.00810472e-02
   -5.07002950e-01  -2.66820699e-01  -5.64849198e-01   4.43823159e-01
   -1.85864329e-01  -2.54081171e-02]
 [ -1.39280498e-01  -3.10234457e-01  -1.42741919e+00  -5.39985262e-02
   -6.69075072e-01   2.16713142e+00  -2.75642604e-01  -1.72382224e+00
   -1.20118451e+00  -7.67557144e-01]
 [  1.03133035e+00   1.52676797e+00  -1.63756144e+00  -9.00370777e-01
    3.83073352e-02  -3.49613905e-01   7.34938264e-01   7.20222473e-01
    3.07738364e-01  -1.79203439e+00]
 [ -1.35601151e+00  -1.95705378e+00   2.52970076e+00  -2.11888433e+00
    1.64362204e+00   7.59849772e-02   7.39635050e-01   1.00567389e+00
    4.74155098e-01  -1.35786772e+00]
 [ -2.15846688e-01   1.64164051e-01   4.93278235e-01   1.21194072e-01
   -2.97913879e-01   3.73991519e-01  -6.29142299e-02  -1.03684163e+00
   -2.77504116e-01  -7.65815198e-01]
 [ -1.92110300e+00   2.12287411e-01  -1.12037790e+00   1.29205287e+00
    1.55443215e+00  -4.22244340e-01   6.90672994e-01  -6.03124619e-01
    2.82524109e+00   1.76060483e-01]
 [  1.45944738e+00   9.68849659e-01   2.14118004e+00   3.96267384e-01
    5.18238306e-01  -5.85930824e-01  -1.25445855e+00  -7.02392578e-01
    2.65217751e-01  -9.15874422e-01]
 [  1.35127902e+00  -7.64919758e-01   1.16416883e+00  -2.66168147e-01
    7.43128881e-02  -4.40381080e-01  -3.97179760e-02   6.91889048e-01
    1.27534580e+00   4.49528307e-01]
 [ -3.64334315e-01   8.08344126e-01   9.80144978e-01  -1.04511344e+00
    7.79203415e-01   4.48968321e-01  -5.96362233e-01  -1.67866766e+00
    2.91508615e-01  -2.06410378e-01]
 [  3.98736417e-01  -1.67361331e+00   8.28659058e-01  -6.94257259e-01
    5.20841241e-01   6.77687585e-01  -8.41595888e-01   7.47931242e-01
    1.19659150e+00   7.23106205e-01]
 [  7.19945014e-01  -7.10562646e-01   3.32800955e-01   1.57480168e+00
   -7.58548379e-01   4.23307270e-01  -3.15826088e-01   1.61166096e+00
    1.58817029e+00  -4.55709904e-01]
 [ -8.95053566e-01  -1.44687951e+00   7.57540345e-01   5.84527910e-01
    5.23358919e-02  -8.18685770e-01   2.71706152e+00   7.54645526e-01
   -8.06054711e-01   2.47455764e+00]
 [  1.96648574e+00   6.01120234e-01  -8.47481608e-01   8.79372060e-02
    1.10234702e+00   1.24983394e+00   1.71861160e+00  -5.03590524e-01
    1.26041019e+00  -4.46449876e-01]
 [  5.94216943e-01  -1.01356041e+00  -2.41461325e+00  -5.96698821e-01
   -2.88058460e-01   3.63609701e-01  -1.24391758e+00   7.94740498e-01
    2.70480096e-01   7.80777812e-01]
 [  1.18302298e+00  -2.27890939e-01  -1.35798979e+00  -6.52061403e-01
    3.58420461e-01  -4.13925529e-01  -1.16791165e+00  -1.89966828e-01
   -1.96773097e-01   3.60156655e-01]
 [  1.46163273e+00  -1.01892829e+00  -3.79265785e-01   1.27339616e-01
   -3.39191929e-02  -1.21731974e-01   6.08456314e-01  -1.03549850e+00
    1.80767250e+00   2.46673083e+00]
 [  1.83627462e+00  -7.00745761e-01  -8.01630437e-01   6.18873417e-01
   -1.20854402e+00  -9.73876059e-01  -1.69793117e+00  -8.92160833e-01
    1.04336560e+00   5.82559288e-01]
 [  7.50779986e-01  -4.45950836e-01  -8.64142835e-01   9.47020292e-01
   -1.34961951e+00   2.48332158e-01   9.54917550e-01   4.98475760e-01
   -9.14991796e-01   9.33657825e-01]
 [ -1.66019881e+00   5.32781005e-01  -4.08593938e-02   2.68383741e+00
   -7.82847881e-01  -9.10426080e-01  -1.33340165e-01  -2.41124320e+00
    1.18998039e+00  -8.15429628e-01]
 [ -2.70601004e-01   6.95396364e-01  -1.26089609e+00  -2.08200186e-01
   -5.99690080e-01   3.02068889e-01  -8.45761597e-02   1.17657042e+00
    4.51390415e-01   3.88157129e-01]
 [ -2.49615121e+00  -7.39366472e-01  -1.63444147e-01   2.54046351e-01
   -1.59945893e+00  -8.58668685e-01  -3.44408572e-01  -4.85823512e-01
   -4.56097811e-01   7.65587747e-01]
 [  9.37384844e-01  -3.20657074e-01  -1.12186313e+00  -1.23295760e+00
    1.03961289e+00   1.19012797e+00  -1.24620914e-01  -5.76025546e-01
    8.30016255e-01  -2.69995540e-01]
 [  9.62993130e-02  -2.34075099e-01   7.90413618e-01  -2.03762579e+00
    5.54889441e-01  -1.69848293e-01  -1.92436194e+00   2.32298422e+00
   -1.67886448e+00  -2.17825174e+00]
 [ -4.28229719e-01   1.30697966e+00  -1.01430213e+00  -9.37463045e-01
   -2.26365328e+00  -2.08255267e+00   2.72105575e-01   7.67165199e-02
    1.87412369e+00  -2.45732501e-01]
 [  1.16922975e+00   1.76195502e+00   1.42974198e+00   8.73259783e-01
    9.75666463e-01  -3.03259492e-01  -1.91134858e+00   4.24078465e-01
    1.32610351e-01   4.40128058e-01]
 [  9.05209720e-01  -2.21727920e+00   3.95045817e-01  -5.50544225e-02
    6.74264133e-01  -5.11832476e-01   5.09346545e-01   3.17716300e-01
    6.32972240e-01  -4.75705981e-01]
 [  1.51476720e-02   1.33394313e+00   5.40136039e-01   9.57989022e-02
   -7.98660696e-01  -3.14843059e-01  -1.73618531e+00   5.88776290e-01
   -7.18584180e-01   1.01868522e+00]
 [  5.27790308e-01  -3.09651881e-01   2.05386496e+00  -7.32967436e-01
    5.16820252e-01  -3.37315619e-01   2.23729894e-01   6.33255363e-01
    1.22172201e+00   1.10053360e+00]
 [ -4.01136488e-01  -1.53501296e+00  -1.14112985e+00   6.44537985e-01
    4.60551471e-01  -4.79106992e-01  -1.05931151e+00   2.81131119e-01
    3.12381029e-01   6.34212971e-01]
 [  8.31275523e-01   1.76406658e+00  -3.65238160e-01  -1.14626980e+00
   -2.35729814e+00   7.18304753e-01   2.30830336e+00  -1.37430644e+00
    8.71300936e-01  -1.02324343e+00]
 [  1.10390043e+00   1.03687882e+00   4.58024234e-01  -3.06385569e-02
   -5.86131215e-01  -8.14359963e-01   1.20680726e+00  -1.21578050e+00
    2.47878041e-02  -2.90627301e-01]
 [  5.67136228e-01  -1.24337351e+00   5.19295692e-01   1.40606070e+00
   -3.07933509e-01  -1.22412336e+00   4.98073965e-01  -3.50122392e-01
    1.04107463e+00  -3.33440840e-01]
 [ -1.69704095e-01   4.79251742e-01   6.47439241e-01   4.65097129e-01
    1.12639499e+00   2.36066692e-02  -1.82259429e+00  -4.42547113e-01
   -1.18267560e+00  -6.63410008e-01]
 [  2.98423946e-01  -1.84598565e+00   1.24788068e-01  -3.15597475e-01
   -1.56363344e+00   5.14407158e-01  -5.16894460e-01   7.51850367e-01
   -1.12810290e+00   8.49930048e-02]
 [  1.65363893e-01  -1.57727826e+00   5.73600352e-01  -8.87609959e-01
    1.63021576e+00  -6.27218187e-01  -8.19377184e-01   1.06657708e+00
    6.33702338e-01   1.50651681e+00]
 [  6.81358635e-01   2.23105931e+00   1.48233831e+00   1.39361370e+00
    3.28564435e-01   7.52466261e-01  -4.05919850e-01   1.70025289e+00
    4.15934950e-01  -1.17404751e-01]
 [ -4.27248120e-01  -3.47624123e-01  -7.89501131e-01   1.86760187e-01
    1.11910671e-01   6.42575324e-01  -6.34040892e-01  -4.56473798e-01
   -4.65427674e-02   2.39387679e+00]
 [ -6.93754971e-01  -5.85463822e-01  -6.02126777e-01  -1.13911319e+00
   -2.25842446e-01   7.45530188e-01  -7.67087758e-01   5.27381837e-01
   -4.19103742e-01  -6.64209187e-01]
 [ -2.16169691e+00   2.04172521e-03   1.31929684e+00   1.06386185e+00
   -3.91676664e-01  -1.42110005e-01   2.16275072e+00   1.35081494e+00
   -4.31666583e-01   5.98447658e-02]
 [ -5.30315101e-01  -6.97002590e-01   8.42199683e-01  -1.21607935e+00
   -2.84971744e-01  -1.02878475e+00   4.91634160e-01  -8.46401334e-01
    2.64885239e-02  -1.28490655e-02]
 [ -1.46878913e-01  -3.25124741e-01  -1.03253448e+00   2.02838108e-01
   -1.33043182e+00  -2.99934894e-01   3.24487597e-01  -8.06271493e-01
   -7.68254459e-01  -4.80253935e-01]
 [ -3.40854190e-02   6.30890191e-01   1.88469219e+00   1.09432542e+00
    1.20237327e+00  -1.11279798e+00  -4.55660611e-01  -1.14167190e+00
    3.80121559e-01  -2.20508017e-02]
 [  8.59230340e-01   1.68384314e-01  -3.30512017e-01  -1.25424385e+00
   -4.22407269e-01  -3.53654957e+00   4.09644656e-02   1.41698942e-01
    1.06290770e+00   2.46821240e-01]
 [ -1.57083184e-01  -6.85238361e-01  -5.74581563e-01  -2.44486070e+00
    1.02339423e+00  -2.08606434e+00  -7.49060065e-02  -1.56474090e+00
   -8.37643683e-01  -3.36324275e-01]
 [  7.73185730e-01   8.11892629e-01   1.43896890e+00   1.31558180e+00
   -1.07429504e+00  -2.50693142e-01   8.32615793e-01  -4.61597145e-01
   -4.46103334e-01  -1.06493354e+00]
 [ -4.48130280e-01  -3.17365766e-01   5.52840948e-01  -1.09533775e+00
    2.17980053e-02   1.89324066e-01  -1.71706796e+00  -1.19580066e+00
    8.91291857e-01  -8.12319696e-01]
 [  2.35748696e+00   2.18465790e-01  -5.10538757e-01  -1.25116134e+00
    8.17155838e-01   1.10823226e+00  -1.55148578e+00  -1.56436741e+00
    1.07973433e+00  -2.02062726e-01]
 [ -1.26156294e+00  -3.54337320e-02   3.91597152e-02  -6.75244927e-01
    1.57643521e+00  -1.30063403e+00  -7.09054351e-01  -4.76132870e-01
    1.36593568e+00   5.24673939e-01]
 [  1.22736275e+00   2.01969609e-01   5.66762090e-01  -1.14804459e+00
   -2.32051551e-01  -5.83139062e-01   2.61782128e-02  -7.61195719e-01
   -5.99171817e-02  -8.33697081e-01]
 [ -1.11782706e+00   4.44460846e-02  -9.61298198e-02  -1.08521795e+00
   -1.98317498e-01  -1.07401502e+00   1.18572339e-01   5.75981617e-01
    9.67681587e-01  -2.88730055e-01]
 [  6.72456622e-01  -7.93627858e-01   1.01150215e+00   1.04866338e+00
   -1.43867874e+00  -3.93729389e-01  -1.68604076e-01  -1.86163330e+00
   -9.82054695e-02  -4.68038082e-01]
 [ -1.49192798e+00   5.91873825e-01   5.34936264e-02   3.03598613e-01
   -2.47631401e-01   1.86401951e+00   3.22316766e-01  -3.54645222e-01
    1.94996759e-01  -1.70156077e-01]
 [ -1.29577816e-01   2.75145173e-01   8.68791282e-01   8.17081630e-01
   -2.26728663e-01  -4.31951106e-01  -1.71916521e+00  -6.03347778e-01
    1.58035409e+00   3.09229302e+00]
 [  2.21704796e-01  -7.24861860e-01   4.98917133e-01  -1.79759040e-01
   -7.05843747e-01  -2.05329204e+00  -1.12602758e+00   1.92396551e-01
   -5.12962639e-01  -1.30003154e+00]
 [  5.48683822e-01   1.04356968e+00   1.22427726e+00   9.14974928e-01
   -5.83298564e-01   3.47205698e-01  -5.96076667e-01   9.24953997e-01
    1.20992959e+00   1.67442846e+00]
 [ -5.42144060e-01   4.07978028e-01   6.45112336e-01  -4.50126946e-01
   -1.16028380e+00  -1.29723594e-01  -3.65626509e-03  -8.63975212e-02
    1.34372666e-01   7.28148937e-01]
 [  4.90652502e-01  -4.97147769e-01   2.74918616e-01   9.71145272e-01
    4.88271505e-01  -5.66904187e-01  -5.92388101e-02  -1.15337700e-01
    1.37783241e+00  -1.40469566e-01]
 [ -5.13440430e-01  -6.37953281e-01   6.38785601e-01   4.64217484e-01
   -2.74008274e-01   1.69846296e+00  -5.75217962e-01  -3.15648198e+00
   -9.25591230e-01  -4.20408636e-01]
 [ -9.47184205e-01  -2.31892037e+00  -5.34362912e-01   1.53998649e+00
    5.49291134e-01   3.11830729e-01   1.01153195e-01   6.87012672e-01
    9.97269750e-01  -1.10394299e+00]
 [  2.45403361e+00  -4.67495799e-01   3.95418495e-01  -1.50511018e-03
   -1.35762975e-01  -9.87144649e-01   9.89139080e-01  -8.47520158e-02
   -3.07465047e-01  -6.43733144e-03]
 [  3.95917296e-01  -3.11278999e-01  -1.20545197e+00   4.27592725e-01
    1.72228253e+00  -1.55751157e+00  -2.37174183e-01  -1.69878125e-01
   -1.48325884e+00   6.60148501e-01]
 [ -1.20596039e+00  -4.63714957e-01   2.05034351e+00  -7.24678516e-01
    1.60539675e+00  -8.56718197e-02  -4.30000544e-01   8.46751511e-01
    1.72086239e-01  -1.32105201e-01]
 [ -1.55743706e+00  -2.84899116e-01  -2.61501122e+00   1.75574195e+00
   -9.42777991e-02   1.18420386e+00   1.35458648e-01   1.08254910e+00
    1.74478650e-01  -5.05053587e-02]
 [ -4.12414849e-01   1.77113581e+00   2.89049268e-01   1.20979056e-01
   -1.32937670e+00   6.93698227e-01   5.99456549e-01   1.60494554e+00
   -7.74788335e-02  -3.12987357e-01]
 [ -5.28443217e-01   1.18582360e-01   7.29177594e-02  -1.15162358e-01
   -7.09055901e-01  -4.34788048e-01  -1.10346234e+00  -6.60468042e-01
    4.70528603e-01  -5.22453606e-01]
 [  5.40698618e-02   7.81790793e-01  -1.92697585e+00  -1.22622252e+00
    3.17195296e-01   6.10549629e-01   3.60253394e-01  -6.79799736e-01
   -1.61913514e+00   1.35131037e+00]
 [ -1.89530045e-01  -1.38479733e+00   8.48209202e-01   1.55875385e+00
   -8.44898045e-01   1.09661341e+00   7.20678866e-01  -1.51954174e+00
   -2.05735862e-01  -5.16739070e-01]
 [  1.85263205e+00  -1.76924348e+00   1.18756509e+00   5.45417130e-01
   -2.07374144e+00   2.17147902e-01  -1.93303242e-01   3.73169005e-01
    1.34272742e+00  -1.42964756e+00]
 [  1.43250000e+00   1.27365887e-01   7.74816051e-02   9.73494172e-01
    3.75722110e-01  -1.29705346e+00  -1.19211769e+00   1.64212897e-01
   -7.37413466e-01  -2.23813915e+00]
 [  1.22237718e+00  -1.28125131e+00  -1.01362133e+00  -1.75972894e-01
    1.03569496e+00  -4.43630695e-01  -8.47923696e-01  -6.07088745e-01
    1.22569704e+00   1.51438022e+00]
 [  2.45240241e-01  -1.61586320e+00  -5.07564127e-01  -6.21233046e-01
   -2.44291231e-01   9.58159626e-01   2.60141826e+00  -9.08133164e-02
    1.05384660e+00  -3.64556491e-01]
 [ -1.14864624e+00  -1.54501390e+00   5.97998023e-01  -1.83371735e+00
   -8.62072766e-01   7.45635211e-01  -4.55472678e-01   1.09904873e+00
    4.85266715e-01  -1.03075087e+00]
 [ -8.28531623e-01   2.55638421e-01   7.61654675e-01   7.31318474e-01
    2.58779931e+00  -8.32120851e-02   6.13264978e-01   7.21036255e-01
   -1.24900925e+00  -1.15229261e+00]
 [ -1.07563102e+00   1.16978455e+00   2.94966102e-01   1.30962229e+00
   -7.68579721e-01  -3.91221941e-01  -1.00615311e+00   2.39207482e+00
   -1.80807449e-02  -8.55688751e-01]
 [  9.57113266e-01  -5.51317371e-02   2.71532625e-01   2.63535643e+00
   -1.46552134e+00  -1.13074422e+00  -3.77494335e-01  -1.90246511e+00
   -1.53525996e+00   7.68528104e-01]
 [ -2.06424762e-02  -1.86901271e+00  -1.97860467e+00   1.03446186e+00
    6.32196903e-01  -2.65349280e-02   1.15997970e-01   2.74490744e-01
   -1.15015602e+00  -1.19201228e-01]
 [  3.90371591e-01   3.25192064e-01   6.74897671e-01  -3.44132446e-02
    1.50437784e+00   6.62838936e-01  -1.25625217e+00   4.86682922e-01
   -8.90007988e-02   1.33920833e-01]
 [  2.84237415e-01  -5.24023652e-01  -1.26936460e+00  -1.86217591e-01
    1.04198623e+00  -1.38903213e+00   2.74767548e-01   8.59292924e-01
    5.69343507e-01  -7.27513790e-01]
 [  2.00500894e+00   1.45903456e+00   5.44683337e-01   1.69509351e+00
   -3.79159302e-01  -1.20581496e+00  -4.54508841e-01   8.07803690e-01
   -2.01336718e+00  -8.62104237e-01]
 [  3.40923816e-01   8.09935331e-01   1.78622782e-01   7.99104348e-02
   -8.79635453e-01   1.03042865e+00   1.07747602e+00  -2.46854067e-01
    1.54659843e+00  -4.15490896e-01]
 [ -4.63987410e-01   5.22092879e-02   2.91763127e-01   1.99764416e-01
   -8.77162635e-01   1.42986703e+00  -5.23029029e-01  -3.75003427e-01
    1.24248052e+00  -1.05975878e+00]
 [  1.07418120e+00  -1.20927656e+00   4.66658533e-01   2.07968757e-01
    1.52721941e-01   1.94527078e+00   1.14525236e-01  -2.80536503e-01
    6.76793873e-01  -2.38938928e-01]
 [  2.52468079e-01  -8.00078332e-01  -7.94815660e-01  -1.14998102e+00
    3.01845878e-01   6.29134536e-01   1.15394759e+00   6.92875862e-01
    2.28673387e+00   7.64653265e-01]
 [  5.88747501e-01   2.08341926e-01   4.77609843e-01   1.24587619e+00
    2.50913948e-01  -1.94628286e+00   9.68680859e-01  -4.94494170e-01
    8.94929528e-01  -1.79066455e+00]
 [  9.02170181e-01   7.54622102e-01   5.00307441e-01   8.43618929e-01
   -2.83951998e-01  -1.64110017e+00  -1.67755055e+00  -7.65721649e-02
   -5.30336082e-01  -2.60399055e+00]
 [ -1.55674115e-01   2.13123098e-01  -9.02873814e-01   1.50879309e-01
   -5.12046851e-02  -1.51907229e+00  -7.22429872e-01   1.93983543e+00
    5.62201478e-02  -1.14634001e+00]
 [  1.05646408e+00   1.20283377e+00   9.82548177e-01   9.43109393e-01
    7.25775063e-01  -1.59291399e+00   1.36550975e+00   9.91336524e-01
   -1.12680304e+00   5.48748113e-02]
 [  1.38694310e+00   2.88233757e-01  -2.54973263e-01  -1.46914685e+00
   -1.89496234e-01   2.15358585e-01  -2.08458281e+00   1.09093392e+00
    5.03171384e-01  -2.23982024e+00]
 [  1.39255786e+00  -5.74005723e-01  -1.25694299e+00  -7.87355542e-01
    1.91729796e+00  -1.75361187e-04  -7.28236973e-01   1.70984387e+00
   -2.15186405e+00   1.29276395e+00]
 [ -1.17778754e+00  -1.08678854e+00   3.51246357e-01  -6.38662815e-01
    7.43290782e-01  -1.19087923e+00  -4.48168337e-01   3.54567081e-01
    2.01478553e+00   1.89041823e-01]
 [  7.89928138e-01  -4.84731644e-01  -2.75999248e-01   1.38715403e-02
   -1.61160564e+00  -5.76618135e-01  -5.22927009e-02   4.12557542e-01
   -1.19721687e+00  -3.37493390e-01]
 [  2.17623687e+00  -1.51971644e-02   7.43004024e-01   3.56255203e-01
   -2.25167304e-01   6.16275489e-01  -4.92452264e-01  -8.64974856e-01
    1.32777944e-01   1.18391246e-01]
 [  1.36720970e-01   1.03351057e+00   4.00193036e-01   1.29979774e-01
    1.09787905e+00  -3.46491247e-01  -4.94498014e-01  -8.31370771e-01
   -1.27307081e+00   1.53729534e+00]
 [ -3.18552762e-01  -1.98967731e+00   3.86731505e-01  -7.33149827e-01
   -8.90996516e-01   8.52059007e-01   1.50768548e-01  -1.07018054e+00
   -5.47227979e-01  -9.63934183e-01]
 [ -5.39878488e-01  -4.08160388e-01   4.98689920e-01  -1.47488609e-01
    1.32212412e+00   1.06406546e+00  -8.78299952e-01   1.32116187e+00
    1.23164184e-01  -1.32268584e+00]
 [  5.12988806e-01  -4.15587693e-01   3.91802460e-01   1.59066021e-01
   -6.37522817e-01  -7.33338952e-01  -1.92718178e-01  -2.47425869e-01
    7.23803416e-02   3.39007318e-01]
 [  1.76683211e+00   1.53688073e+00  -4.91846949e-01  -1.54097688e+00
    4.69471365e-01   2.25956008e-01  -6.46738172e-01   1.05964148e+00
   -3.43902022e-01   4.15894270e-01]
 [ -1.02131915e+00  -9.82673764e-01  -6.96104646e-01  -2.00654173e+00
    6.93873763e-01   1.29568601e+00  -6.40986562e-01  -1.73198506e-01
    6.18897498e-01   6.68342292e-01]
 [ -9.49260175e-01   5.68207681e-01   4.22456145e-01  -1.27573478e+00
   -1.34285808e+00   1.23155884e-01  -9.36846018e-01  -4.66679960e-01
    6.90006852e-01  -1.05231738e+00]
 [ -6.15466312e-02   1.71630430e+00   3.80666912e-01  -1.18596900e+00
   -9.93023276e-01   8.15156043e-01   4.54930067e-01  -1.64212775e+00
    5.93348682e-01   8.87681246e-01]
 [ -1.01009238e+00   1.46384668e+00   3.11401993e-01  -1.78400087e+00
   -1.56965661e+00  -6.14476621e-01  -4.37797099e-01   1.13346791e+00
    1.56252697e-01  -5.93205869e-01]
 [ -6.73047066e-01   1.09600976e-01  -1.90301254e-01  -7.92191446e-01
    1.47684801e+00   7.03954935e-01   1.67077971e+00  -2.52083480e-01
    6.22273326e-01   2.05673739e-01]
 [  1.50623620e+00   1.56613016e+00   1.79110754e+00  -6.94771469e-01
   -7.90652633e-01   1.06644797e+00   3.28025430e-01   1.84600925e+00
   -3.78336757e-01   3.02699476e-01]
 [ -1.11139905e+00  -8.40627849e-01   5.06884873e-01  -8.16431820e-01
   -2.50017375e-01   6.43622994e-01   2.27408037e-01  -1.76123345e+00
   -9.46255445e-01  -8.94528866e-01]
 [  4.92309898e-01   7.96517789e-01   1.24122472e-02  -1.09507859e+00
   -1.25503838e+00  -1.00796473e+00   7.31067598e-01  -7.35371113e-01
   -1.36239862e+00  -2.39530420e+00]
 [ -1.22135019e+00   9.24553052e-02   1.19450057e+00  -1.28706563e+00
    1.11287928e+00  -7.80368686e-01  -7.88393438e-01  -7.53039643e-02
    4.10645157e-02   1.82051063e+00]
 [  3.63952778e-02  -1.26467139e-01   7.99788892e-01   4.54762101e-01
    1.91247606e+00  -8.21256995e-01   6.29649520e-01  -1.53109324e+00
   -4.41452205e-01  -3.19976062e-01]
 [ -1.58707952e+00   6.42599523e-01  -9.36877906e-01   1.51228428e+00
   -5.35895646e-01  -3.80409271e-01   4.09618527e-01  -1.01173723e+00
    4.10179585e-01  -6.29146993e-01]
 [  2.92086303e-01   1.46797597e-01   1.26348719e-01  -1.52285707e+00
   -4.23682630e-01   8.21661651e-01   9.50435817e-01  -1.58434725e+00
   -5.05225539e-01   1.77693069e+00]
 [ -9.22006607e-01  -4.63744067e-02  -2.04368997e+00  -2.60872066e-01
    1.27781141e+00   8.19542930e-02  -5.44522166e-01   7.50602663e-01
   -9.23030019e-01   3.58594328e-01]
 [ -7.03369319e-01   2.05474328e-02   1.65249515e+00  -7.32468367e-01
    1.39018512e+00  -1.16553676e+00  -3.35620522e+00  -3.68082672e-01
   -1.35382581e+00  -1.06871474e+00]
 [  5.81983447e-01  -9.79296148e-01   8.86346459e-01  -2.56304234e-01
   -8.67034554e-01   1.33241928e+00  -1.71479261e+00  -6.75432146e-01
    4.20367002e-01  -1.42757189e+00]
 [  8.85567725e-01   1.52708137e+00   4.89384949e-01   7.27109671e-01
    1.81732267e-01   1.01615310e+00  -1.72521830e+00  -1.86106652e-01
   -1.84295261e+00  -1.87958390e-01]
 [ -3.79137695e-01   9.81809665e-03  -1.03233778e+00   5.91902494e-01
   -1.21589386e+00   1.60001770e-01  -1.10680163e+00   8.83762389e-02
    3.00174892e-01   2.03256562e-01]
 [  5.57368398e-01  -1.56062901e+00   8.54103416e-02  -2.22803712e-01
    1.37161279e+00   4.02323723e-01   8.36076617e-01  -7.21482635e-01
    1.19399381e+00  -6.49273634e-01]
 [  9.25937831e-01  -7.33605504e-01  -7.11982965e-01   1.16209424e+00
    1.45529449e+00  -1.46981338e-02  -3.36880893e-01   4.66119289e-01
   -7.75727093e-01   1.45292997e+00]
 [  1.20946956e+00  -5.95108926e-01  -4.91814584e-01   1.82352078e+00
   -3.96580368e-01  -1.37627745e+00  -1.59131098e+00  -4.24842805e-01
    1.86026478e+00  -9.79622364e-01]
 [  7.09752202e-01   4.21998292e-01   3.63695204e-01   1.78857100e+00
    9.04374957e-01  -5.58665991e-01   5.47400355e-01   8.02847445e-01
   -2.27818396e-02  -1.15918159e+00]
 [ -1.68010807e+00  -1.02779758e+00  -1.04236579e+00   5.97269058e-01
   -1.19020874e-02   6.13263071e-01   6.95689797e-01  -1.26428986e+00
   -5.05502760e-01   3.34037215e-01]
 [  2.27498487e-01  -1.29543018e+00   7.25883484e-01  -4.70922068e-02
    1.43672466e-01  -3.46116573e-01  -7.38213718e-01   5.77464188e-03
    3.91936690e-01   7.44160652e-01]
 [ -1.67391324e+00   6.57657087e-01  -4.85107183e-01   2.96664786e+00
    1.36391759e+00  -2.06580925e+00   1.24825323e+00  -1.63373423e+00
   -7.44212329e-01  -2.62061030e-01]
 [  5.37951350e-01  -4.63693559e-01  -2.56867766e-01  -4.76231575e-01
    2.14886531e-01  -7.76897550e-01   3.30717474e-01   9.03058708e-01
    2.35322192e-01   3.60845000e-01]
 [ -7.99453855e-01  -7.88912028e-02  -3.84938493e-02   1.40290499e+00
    5.05235851e-01  -4.25969750e-01  -6.68303490e-01   1.59791434e+00
   -7.49703586e-01   2.20494103e+00]
 [ -7.56923109e-02   1.03999138e+00  -7.87577093e-01   8.16108644e-01
   -3.71346116e-01  -1.73677874e+00  -5.21794498e-01  -9.16685820e-01
   -3.98661137e-01  -9.75220859e-01]
 [  8.98168206e-01  -1.19758248e+00  -6.94233179e-01   4.92665172e-02
   -1.19403291e+00  -6.26137435e-01  -7.26560533e-01   1.37677360e+00
    7.58428514e-01   7.03643143e-01]
 [ -6.40478551e-01   3.36922884e-01  -8.67043436e-01  -6.82626009e-01
   -1.47122502e+00   2.24430609e+00   1.67985272e+00   9.09978211e-01
   -1.18358666e-03  -5.23077846e-01]
 [  8.97983909e-01  -2.84671988e-02  -1.45758703e-01   1.09643497e-01
    1.63449192e+00   6.49903476e-01   3.51854950e-01  -6.07487261e-01
   -1.99686980e+00   4.41309541e-01]
 [ -9.16547596e-01   5.72075188e-01   1.95919502e+00   4.82699424e-01
   -1.38605571e+00   8.46026361e-01   6.75262868e-01  -7.20576227e-01
   -2.44711295e-01  -1.01427948e+00]
 [ -2.15164471e+00  -5.59205830e-01  -4.38505977e-01  -1.08573817e-01
    1.95863321e-02  -8.85368705e-01   6.28462791e-01   8.25937510e-01
   -4.45540287e-02  -1.08227992e+00]
 [ -8.46769929e-01  -1.24129713e+00  -3.00205737e-01   1.09962916e+00
   -1.74385095e+00   1.45446205e+00   1.20640588e+00  -9.97893631e-01
   -1.36917531e+00   9.20307934e-01]
 [ -8.37417483e-01   3.80882412e-01  -9.98990655e-01   1.02128911e+00
    2.42448187e+00   2.30890155e+00   6.33597136e-01  -6.46052361e-01
   -3.87324154e-01   3.25767964e-01]
 [  4.02528018e-01  -1.06014058e-01  -8.19372475e-01  -3.28756213e-01
    5.36605358e-01  -1.16852820e+00   6.51114404e-01  -8.16415548e-01
    1.27822149e+00   1.87905240e+00]
 [ -5.00476658e-01   4.28859055e-01  -4.92582023e-01  -1.28760040e+00
   -6.97384536e-01  -1.41656905e-01   4.28688288e-01   6.24672370e-03
   -5.17000079e-01   8.76310170e-01]
 [ -5.72883524e-03   1.24671698e+00  -2.26681739e-01   6.90333366e-01
    1.41335928e+00   3.93138438e-01  -5.87932244e-02   7.22430199e-02
    9.47883904e-01   2.63325953e+00]
 [ -1.14124775e+00   9.52453196e-01  -7.49010265e-01   2.69593328e-01
   -2.04715514e+00  -1.23533356e+00  -1.12094551e-01   2.64612049e-01
    8.77991319e-01  -9.63999689e-01]
 [ -8.43777880e-03  -1.29489517e+00  -1.39871764e+00  -1.10404241e+00
    5.91019019e-02   1.29828528e-01   1.81722987e+00   2.23001075e+00
    1.20968032e+00   4.79573876e-01]
 [  2.26652324e-01  -1.82611275e+00  -5.31797647e-01   1.03841972e+00
    1.43937945e+00  -1.85491931e+00  -1.68580249e-01  -1.70717502e+00
   -1.39698482e+00   9.89684761e-01]
 [  7.25777805e-01   1.87166352e-02  -4.20025885e-01  -1.71859121e+00
    1.60727814e-01   6.77910089e-01  -2.81419158e-01   5.70550188e-02
   -2.30097681e-01   6.74959958e-01]
 [ -1.82565421e-01   1.31002402e+00   6.91354334e-01  -1.21560323e+00
    1.04692563e-01  -7.68042088e-01  -1.04746771e+00   1.83856690e+00
    9.87863764e-02   1.05355239e+00]
 [ -1.14291859e+00  -1.78321171e+00   7.78146088e-01   9.64794517e-01
   -6.84632897e-01   1.37411845e+00   1.82578063e+00  -7.30699062e-01
   -2.30694652e+00  -8.04462135e-01]
 [  8.85085285e-01  -1.04014337e+00  -1.80140531e+00  -7.08557963e-01
   -3.27491283e-01  -1.32623553e+00   3.42256308e-01  -7.67059803e-01
   -1.21313918e+00  -1.19871646e-02]
 [  9.12290990e-01  -2.85601437e-01  -5.52445114e-01  -9.96305868e-02
    1.21170066e-01   2.12986052e-01  -1.53398663e-02  -2.52390361e+00
    5.73215187e-01   4.27847862e-01]
 [ -3.25860053e-01  -5.53720534e-01   8.58298659e-01   1.13977051e+00
   -5.95324278e-01   1.21553540e-01   1.28529704e+00   5.50930738e-01
    1.20522760e-01  -1.29679930e+00]
 [ -3.96098709e-03   5.34317136e-01   2.70188034e-01   9.97790515e-01
   -1.51409936e+00  -1.43652737e+00  -1.23892617e+00  -1.02593732e+00
    1.78204015e-01  -4.41693544e-01]
 [  4.43379395e-02   2.03271675e+00  -1.18591177e+00  -1.56793702e+00
    9.54706192e-01  -2.38174051e-01   2.92881876e-01   9.69310760e-01
   -2.30112529e+00   5.51964901e-02]
 [  9.87089396e-01   5.98629229e-02   7.82332897e-01   8.48325193e-01
   -9.31678236e-01  -7.50804305e-01  -8.16345990e-01   9.18068767e-01
   -1.54219937e+00   4.28045183e-01]
 [  2.18230650e-01  -6.04906738e-01  -2.30916238e+00  -7.31513441e-01
    7.50347137e-01  -2.49286485e+00   1.09136963e+00   5.67410421e-03
   -6.20148554e-02  -1.81614935e-01]
 [ -2.19951004e-01   6.84534132e-01   1.32807958e+00   6.32784665e-01
    3.80241781e-01  -8.56451988e-01  -6.37000144e-01   1.16895473e+00
    2.17956737e-01  -6.29045606e-01]
 [ -1.12608977e-01   7.50544071e-01  -1.51563525e+00   2.06724077e-01
   -1.03792369e+00   1.25710994e-01   5.28834522e-01   1.60661840e+00
   -8.00579250e-01   1.57534450e-01]
 [  4.42591935e-01   1.75415230e+00   1.44504619e+00  -7.52750039e-01
   -1.01447570e+00  -1.95496058e+00   1.26422435e-01  -1.02156675e+00
    1.14860004e-02  -1.10314226e+00]
 [ -2.10555792e-02  -2.78064966e-01  -9.69865263e-01  -1.49707332e-01
   -2.28763953e-01   7.09856987e-01   3.70168895e-01  -1.77830055e-01
    7.47205853e-01  -2.77703017e-01]
 [ -1.24125957e+00  -7.73092389e-01   1.06594419e+00   1.02988493e+00
    2.19294357e+00  -1.39776337e+00   1.05264997e+00   9.16040301e-01
   -5.18531501e-01  -9.32919741e-01]
 [ -1.53435636e+00   4.84481096e-01   1.44783652e+00   4.41668898e-01
   -1.39054692e+00  -1.90636837e+00  -3.54562253e-01   1.19239533e+00
   -8.97756875e-01  -5.38207471e-01]
 [ -1.52176887e-01   1.26574039e+00   1.90300152e-01   3.22447091e-01
   -1.45897830e+00   4.85963106e-01   7.21362531e-01   8.10894296e-02
   -6.71038330e-01  -2.29029525e-02]
 [ -1.78971207e+00   1.97794235e+00   1.19771194e+00   3.93386751e-01
    8.19495499e-01  -1.74484149e-01   1.21095288e+00   2.97094315e-01
    7.00237989e-01  -5.13572633e-01]
 [  3.47668529e-01  -1.28627741e+00  -1.07462756e-01   5.73904455e-01
    4.64790255e-01  -1.26727009e+00   4.38989073e-01  -2.37963462e+00
    4.01538193e-01  -1.62034184e-01]
 [ -1.80478501e+00  -3.75164568e-01  -1.20585346e+00   1.17374885e+00
    6.56670749e-01   9.59211588e-01  -9.03318346e-01   3.88386607e-01
   -2.18723154e+00  -5.90562761e-01]
 [ -1.18969321e+00  -8.52794945e-01  -4.25765723e-01  -1.30254495e+00
   -1.05137217e+00   8.30563426e-01   1.62319895e-02  -9.72617567e-01
    1.94496012e+00  -1.77637267e+00]
 [ -2.44270355e-01  -1.08063757e+00  -1.43128502e+00   1.65207013e-01
   -3.93651247e-01  -8.90214860e-01  -1.52467418e+00  -1.94917962e-01
   -2.29708657e-01   2.33363792e-01]
 [  3.77141714e-01  -5.14369071e-01   1.14541352e+00  -9.65632260e-01
    1.28038490e+00  -8.50199163e-01  -1.97886050e+00  -2.71824207e-02
   -9.60353315e-02   6.18209541e-01]
 [ -7.22808719e-01  -2.59839952e-01   8.35148573e-01   1.40017998e+00
   -4.00237024e-01  -3.90861064e-01  -6.28067434e-01   2.16172981e+00
   -6.15189791e-01  -1.27132690e+00]
 [  4.11369592e-01  -5.95377386e-01   2.43376358e-03  -5.80365956e-01
    5.07142879e-02   4.89504308e-01   1.68682444e+00   6.32749498e-01
   -2.79292941e-01  -9.07819450e-01]
 [  6.66811287e-01   4.13916860e-04   1.23170996e+00  -4.42224294e-01
   -3.18000436e-01  -1.44797063e+00   1.72829044e+00  -2.07554340e-01
   -9.80808318e-01   6.83729291e-01]
 [ -3.13115835e-01   7.16748297e-01   1.11708033e+00   1.55350935e+00
    1.29515576e+00   1.50444090e+00  -1.50935292e+00  -2.18329087e-01
   -1.24113023e-01  -9.39424336e-01]
 [  2.47415841e-01   5.67956567e-01  -7.68991768e-01  -1.22863722e+00
   -6.79461241e-01  -1.37150335e+00  -2.81719804e+00  -7.15460181e-01
   -1.29432642e+00  -7.27372915e-02]
 [ -5.13114572e-01  -1.34762511e-01   1.46114647e+00  -8.76697123e-01
    6.20763540e-01   2.13015771e+00  -2.45398208e-01  -3.87277007e-01
   -1.46940005e+00   1.84707475e+00]
 [ -3.38027507e-01   1.84302524e-01  -6.03703380e-01  -1.40768099e+00
   -1.85766184e+00   3.16032678e-01  -1.06783104e+00   2.69888568e+00
    1.50076717e-01  -2.20511243e-01]
 [  2.69054890e-01  -1.07234859e+00   3.02462041e-01  -1.00740588e+00
   -1.46753907e+00  -2.16670334e-01  -2.18380761e+00   7.00204194e-01
   -1.23062837e+00   4.96097863e-01]
 [ -3.58500123e-01   1.08670306e+00   2.20693544e-01  -1.24111938e+00
   -1.75634205e-01   4.91706103e-01   1.02643001e+00  -2.27197552e+00
    9.17417407e-01  -8.76445472e-02]
 [ -5.78754127e-01  -4.70336229e-01  -3.29142123e-01  -4.87842523e-02
    4.15806949e-01  -4.05089892e-02   3.75527889e-01  -1.53623021e+00
   -1.32059884e+00   1.45011628e+00]
 [  1.49194026e+00  -2.01909041e+00  -1.01105165e+00   1.07727420e+00
   -7.39936948e-01  -8.46116245e-01  -1.18140352e+00   6.57891989e-01
    1.05767839e-01  -1.31127074e-01]
 [  1.86823811e-02   1.74047089e+00   2.19262823e-01  -1.27598405e-01
   -5.91307759e-01   6.16880655e-01  -4.92476791e-01  -2.13893875e-01
   -6.19586229e-01  -1.87769639e+00]
 [  1.38900530e+00  -2.43357748e-01  -6.30806923e-01   1.01733065e+00
   -5.04990280e-01  -7.94182062e-01   6.75994933e-01  -3.75155061e-01
   -2.18623117e-01   1.54758883e+00]
 [  1.34337604e+00  -8.58011723e-01   1.53134716e+00  -1.23045361e+00
    5.58997631e-01  -1.94298048e-02  -8.31764400e-01   2.88642168e-01
    5.54189026e-01  -1.21405554e+00]
 [ -2.30134034e+00   1.37942064e+00   1.04590333e+00   7.84278870e-01
   -8.12862039e-01   2.87978113e-01   1.85877815e-01   3.08652103e-01
   -8.14574897e-01  -3.19329321e-01]
 [  1.27172977e-01  -1.43467918e-01  -1.00066352e+00   8.92768204e-01
    1.66225165e-01  -1.25362289e+00  -1.70598352e+00   1.63109159e+00
   -1.40018213e+00  -9.29129124e-01]
 [ -2.97948778e-01  -6.35877311e-01   4.36344922e-01   5.69368780e-01
    2.29976106e+00   1.00796819e+00  -1.51246727e+00   1.69158995e-01
   -9.66626942e-01  -1.65322077e+00]
 [  2.04899120e+00  -1.93149924e-01  -1.24788380e+00  -9.84749913e-01
   -1.87393785e-01   3.15247655e-01   2.88177401e-01  -1.46028543e+00
    4.47937697e-01   6.24680936e-01]
 [ -3.21727276e-01  -1.03100455e+00   1.37584221e+00   7.11792767e-01
   -2.10881805e+00  -9.49382409e-02   1.91123486e+00   4.08845872e-01
    1.05230558e+00   1.79173398e+00]
 [ -7.51219630e-01   6.37638092e-01   3.82031947e-01  -1.84164681e-02
   -2.56527615e+00  -2.44530773e+00  -8.56645167e-01  -1.79476547e+00
   -1.44467950e+00   1.10063240e-01]
 [ -7.32844234e-01  -1.52575994e+00  -8.12932491e-01   3.37767929e-01
   -5.84777713e-01   8.26914668e-01   6.70688272e-01  -4.29473460e-01
   -1.34805799e+00   1.30826223e+00]
 [  3.79247844e-01   3.91911238e-01   5.30033886e-01  -1.78297269e+00
   -5.35898626e-01  -3.58227640e-01   1.50738418e+00   1.70722270e+00
    8.86184752e-01  -1.55667946e-01]
 [ -4.14389431e-01  -3.90103906e-01   2.94166412e-02  -1.35603026e-04
    5.93902580e-02  -1.06047547e+00  -8.54417741e-01  -5.92392981e-01
   -1.01545498e-01   4.28836018e-01]
 [ -7.17886329e-01  -1.18789351e+00  -1.16076267e+00  -9.80819643e-01
   -1.30859590e+00  -9.68996227e-01  -1.51946515e-01  -4.28533316e-01
   -1.36526465e+00  -6.34122610e-01]
 [  8.20841312e-01  -1.13374627e+00   3.77280593e-01   1.92053765e-01
    1.85970211e+00  -7.53744543e-01   8.43682408e-01   3.37218076e-01
   -2.03466630e+00  -2.21539557e-01]
 [ -1.32556647e-01  -2.10394457e-01   3.36784810e-01  -8.87630105e-01
    1.79877388e+00   1.26176095e+00  -2.82984781e+00   4.20366675e-01
    5.21921039e-01   1.19114566e+00]
 [  1.11308062e+00  -2.43712202e-01  -2.46187702e-01  -8.12932968e-01
    7.90938497e-01   6.43177867e-01  -1.03954160e+00   8.81903768e-01
   -2.00398898e+00  -6.36516511e-01]
 [  2.22516251e+00  -7.51821458e-01   8.38902533e-01  -5.63823819e-01
   -1.30706847e-01   1.24472153e+00  -3.40864390e-01   7.40957379e-01
    3.11751574e-01   7.19400346e-02]
 [ -1.10978973e+00   4.73128051e-01  -6.27719641e-01  -1.44477940e+00
   -7.87557483e-01  -9.39847767e-01  -8.18281710e-01  -8.62965822e-01
    2.13016939e+00  -3.87367040e-01]
 [  9.89511073e-01  -3.65842164e-01   3.76249433e-01  -9.22374651e-02
   -7.77685881e-01  -1.46977842e-01   1.77304506e-01  -5.42665243e-01
    6.81923211e-01   4.79937106e-01]
 [ -1.67575791e-01  -7.59716853e-02   2.87915617e-01   3.71839702e-01
    5.46078205e-01  -1.15817904e+00   8.82630050e-01  -8.27515423e-01
   -1.21305811e+00  -5.29200196e-01]
 [ -7.22005516e-02  -8.44223440e-01   3.67193043e-01  -1.16457498e+00
   -1.80396035e-01  -4.74005103e-01  -6.82892859e-01   9.69847441e-01
   -9.94431138e-01   2.12350035e+00]
 [ -5.90430140e-01   1.57582358e-01  -3.95152308e-02   1.44433987e+00
   -1.83587146e+00   1.22824705e+00  -5.77126026e-01   1.30366802e+00
    2.26808047e+00  -1.12469161e+00]
 [  6.24786876e-02   1.22260606e+00  -1.18623221e+00  -1.94690228e-01
    3.96687120e-01  -1.14990819e+00   2.54806781e+00  -7.95567870e-01
    5.50967634e-01  -5.38935125e-01]
 [  1.12030876e+00  -8.98586094e-01  -1.56762850e+00  -2.02730632e+00
   -1.42425275e+00  -3.23202945e-02   1.39346749e-01   2.92791784e-01
    2.33400211e-01  -1.29493725e+00]
 [  2.07266644e-01   1.17980121e-02  -1.69755518e-01  -2.46145415e+00
    1.27338636e+00  -2.28583425e-01   1.98048317e+00   8.39877427e-01
   -1.70365620e+00   1.86482623e-01]
 [  1.84338164e+00   1.88028800e+00   6.26714349e-01  -2.19005674e-01
   -2.58922994e-01   4.40609425e-01  -1.85323262e+00  -9.05909896e-01
    1.18497920e+00   7.37998784e-01]
 [  4.88158524e-01   1.50854814e+00  -1.14923380e-02   3.21789026e-01
    9.22155976e-01   1.65911472e+00  -9.36952353e-01   1.94667244e+00
    2.76756263e-03  -2.27482274e-01]
 [ -4.61625487e-01  -3.89564216e-01  -3.02771717e-01   6.57985687e-01
   -7.98983753e-01  -8.41494143e-01   1.80796146e+00   2.23399729e-01
   -5.40756285e-01  -2.76637220e+00]
 [  7.88045466e-01  -4.76835102e-01   4.14173186e-01   1.78051269e+00
    1.12492287e+00  -5.68070590e-01  -2.06740952e+00  -2.08232546e+00
    1.78786397e-01  -1.00453210e+00]
 [  4.13276136e-01   1.30663979e+00   7.44517088e-01  -4.18832824e-02
   -3.13232839e-01   5.39256394e-01   1.09573984e+00  -1.37772477e+00
   -6.95936382e-01  -1.24272358e+00]
 [  1.15927950e-01  -4.99065267e-03  -8.36264074e-01   2.44583145e-01
   -3.25205117e-01   8.73102129e-01  -4.81741011e-01  -2.83213943e-01
   -5.85024178e-01  -1.26688898e+00]
 [ -1.07884490e+00  -8.14937711e-01  -1.08665347e+00   2.50279814e-01
   -1.70372534e+00   6.69026136e-01   2.30453238e-02   9.04543772e-02
    2.49124199e-01   1.29214069e-02]
 [  1.07025504e+00   9.21234012e-01  -1.19829214e+00   1.10640205e-01
   -2.27540064e+00  -5.71428657e-01  -7.64934421e-02   8.38916659e-01
   -1.07157922e+00  -9.01964664e-01]
 [  4.29645687e-01  -2.94471771e-01  -1.79069221e+00   1.61347318e+00
    7.76036084e-01  -2.70904839e-01  -3.51254851e-01   1.88148129e+00
   -8.90227854e-01  -1.81022108e-01]
 [  4.08138372e-02   3.01305532e-01  -2.80406438e-02   8.68519962e-01
    1.35060561e+00   2.01593328e+00  -1.62715793e+00   2.13607287e+00
   -4.34950411e-01   2.42718413e-01]
 [ -9.93650854e-01  -1.15826941e+00  -1.16525924e+00  -4.54123557e-01
    8.28838110e-01   2.08294368e+00  -5.34678519e-01   1.97139323e-01
   -9.89921987e-02  -1.04209137e+00]
 [  1.49430916e-01   8.14094901e-01  -9.99439597e-01   7.20760047e-01
   -5.04918814e-01   9.44253266e-01  -5.04072547e-01   3.64291877e-01
   -1.53638160e+00  -1.34290171e+00]
 [ -1.00521302e+00  -1.88368607e+00   1.18099369e-01   1.15299988e+00
   -5.68776488e-01   4.99559671e-01   7.78279543e-01  -7.46507585e-01
   -9.40870464e-01   6.42978430e-01]
 [ -1.94012451e+00   1.49050426e+00  -1.29776323e+00   7.40427375e-01
    5.13186872e-01  -1.70477760e+00  -7.12822318e-01   4.90676105e-01
   -7.55345643e-01   9.76649225e-01]
 [ -8.30326378e-02   1.44018483e+00  -1.47770596e+00   4.59642053e-01
    3.79332662e-01   6.50791228e-01   1.04305673e+00  -3.73256266e-01
    7.58964181e-01  -1.84796974e-01]
 [  1.85381413e-01   9.34513092e-01  -2.76380569e-01  -1.00644566e-01
   -4.98754382e-01   5.60735345e-01  -1.70744047e-01   1.92901090e-01
   -3.73900986e+00  -9.46375802e-02]
 [ -8.36562097e-01   1.29853451e+00   1.56552124e+00  -8.72763157e-01
   -2.84619719e-01   9.05986726e-01  -2.25645110e-01   6.74877942e-01
    8.33304748e-02  -3.75816584e-01]
 [  2.52588534e+00  -1.10185337e+00  -1.53127646e+00  -5.96333385e-01
    9.47326958e-01   1.69160438e+00   4.32389408e-01  -7.50625273e-03
    5.49890161e-01  -1.06953526e+00]
 [ -8.98887873e-01  -3.92065287e-01  -1.01683259e+00   3.10819656e-01
   -1.15577936e-01   2.15146852e+00  -1.31835848e-01  -1.41363680e+00
   -2.14851610e-02   6.99510634e-01]
 [  4.04763371e-01  -3.81561100e-01   6.90965414e-01  -1.90461838e+00
   -4.94357288e-01  -9.91991401e-01  -1.31453538e+00   1.80019870e-01
    8.24252050e-03   7.45401978e-01]
 [  9.72014666e-01  -4.28854257e-01   1.93964076e+00   1.90215325e+00
   -6.58704758e-01   3.06041270e-01   1.29466605e+00   8.90411437e-01
   -1.57244131e-01  -4.80061352e-01]
 [ -1.49845409e+00  -6.61230922e-01   8.99481416e-01  -9.47743952e-01
   -2.20662212e+00   2.61786222e-01   3.40371341e-01  -1.34179920e-01
   -2.44461939e-01  -5.72279215e-01]
 [  2.48062998e-01   1.42106748e+00  -4.38469827e-01  -2.68262416e-01
    1.01460028e+00  -6.61403000e-01  -9.52880740e-01  -2.30411053e+00
    3.75531048e-01   9.14243981e-02]
 [ -1.88022658e-01  -7.30905607e-02  -1.96526122e+00   1.25236988e+00
   -1.12614250e+00  -9.38038170e-01  -1.50023293e+00  -2.31276527e-01
    5.95010638e-01  -1.06443322e+00]
 [ -5.38844049e-01  -7.43180573e-01  -1.18246868e-01   6.49741411e-01
    2.24910811e-01   1.97110906e-01  -3.15198898e-02  -2.62582600e-01
   -3.88157696e-01  -4.11576688e-01]
 [ -1.34615123e-01  -7.59695590e-01   5.44788003e-01   4.24235582e-01
   -2.68900126e-01  -8.89867783e-01   1.10604689e-02  -3.13736051e-01
   -1.71531594e+00  -1.11023855e+00]
 [  2.46728398e-02   1.11295927e+00  -1.20754421e+00   1.41269732e+00
   -4.39152196e-02  -9.94146287e-01   7.74793923e-01   3.87952924e-01
    1.99124181e+00   2.03160957e-01]
 [  8.66738319e-01   1.88503277e+00  -1.43799275e-01  -4.49697226e-01
    3.22770886e-02  -2.95081186e+00   5.62044799e-01  -3.40182126e-01
   -2.13990569e+00  -2.11780921e-01]
 [ -1.21691954e+00   3.03476751e-01  -1.58650219e-01  -4.90762293e-01
   -9.78802919e-01  -8.00190389e-01   4.98726606e-01   2.92536736e+00
   -3.18173736e-01   6.94347322e-01]
 [  5.02275944e-01  -1.17446434e+00   2.19538164e+00   1.46478796e+00
    5.61219752e-01   1.96621612e-01   1.04079521e+00   2.09109497e+00
    4.39643681e-01  -5.07193506e-01]
 [ -1.27089238e+00   8.95948350e-01   3.14334363e-01  -6.50626957e-01
    3.29314440e-01   1.99425504e-01  -1.46747720e+00  -2.76476860e-01
    1.36766863e+00  -7.98505470e-02]
 [  8.27439666e-01   3.32132727e-01  -5.86079732e-02   2.84966469e+00
   -9.19371665e-01  -1.83381748e+00   2.74970174e-01   3.76792371e-01
   -3.79593045e-01  -1.92796278e+00]
 [  1.56732118e+00   1.74591076e+00  -2.62357742e-01   1.91849852e+00
    1.39292586e+00   2.21801549e-01   4.98236477e-01  -8.69689524e-01
    2.99510539e-01  -9.18136418e-01]
 [ -4.61480409e-01   4.21721071e-01   1.25676942e+00  -1.08923662e+00
   -1.75543034e+00  -8.29662383e-01   8.06742907e-01  -7.16942012e-01
   -1.19254565e+00   3.79046977e-01]
 [ -1.45249510e+00   1.15189552e-01  -5.99305332e-01  -8.82499456e-01
    9.64851379e-01  -1.59481600e-01   1.63889885e+00  -3.19280684e-01
    2.52561301e-01  -6.70034468e-01]
 [ -1.07916641e+00   4.18754458e-01  -2.37452507e-01  -8.66627693e-01
   -1.82611361e-01  -1.87127864e+00  -5.04545629e-01   1.31353569e+00
    2.11831003e-01  -1.64523542e+00]
 [  1.67509294e+00   3.56677502e-01   1.93622220e+00  -9.04576242e-01
    1.59880471e+00   5.88341296e-01   1.98660743e+00  -9.64227438e-01
    1.13026667e+00  -2.50495911e+00]
 [  1.30997431e+00  -2.53175586e-01  -4.50306088e-01   4.80569959e-01
   -1.40825287e-01  -3.32551777e-01   1.34418702e+00   4.53716874e-01
    1.13094103e+00   7.70570993e-01]
 [ -2.45552152e-01   3.77645582e-01   1.68851420e-01   5.84652424e-01
    5.54634690e-01  -1.68758762e+00   4.09391910e-01   1.23721397e+00
    2.24210367e-01  -8.06551456e-01]
 [  6.88973442e-02  -2.95367765e+00   4.30915892e-01  -1.37129784e-01
    1.85842311e+00   7.92482316e-01   5.68014383e-01   1.12239826e+00
    7.26758718e-01   1.30824125e+00]
 [ -2.41860539e-01   5.00841022e-01  -7.08607674e-01   7.31408074e-02
   -4.13072318e-01   2.96259594e+00   1.07370913e+00  -8.97506177e-01
   -1.63552141e+00   8.46919835e-01]
 [  3.47316712e-02  -2.86644459e-01  -1.01760268e+00   5.56223094e-01
   -6.62956834e-01  -1.36461341e+00   3.34276819e+00  -9.17734206e-02
    1.58832401e-01  -4.99542177e-01]
 [  1.72394145e+00  -2.27569962e+00  -1.38033164e+00  -9.76290345e-01
   -8.28326941e-01  -5.90010658e-02  -9.70155060e-01   3.81058574e-01
   -3.50207776e-01   1.82057965e+00]
 [ -8.62197697e-01   8.43359251e-03   2.70870507e-01  -7.31317997e-01
    3.84835422e-01  -4.03084159e-01   2.69015956e+00  -6.26360297e-01
   -9.23154771e-01   4.97679085e-01]
 [ -1.16038740e+00  -1.68929845e-02   1.54400325e+00   1.18805635e+00
   -1.28849256e+00   6.17274165e-01   4.61998768e-02   4.17298168e-01
   -5.61762214e-01  -7.89814472e-01]
 [  8.16951632e-01   2.13043690e+00   4.94054943e-01  -3.92939031e-01
    5.10034561e-01  -3.02686002e-02  -5.53299440e-03  -1.81342518e+00
   -1.23249292e+00   1.08720994e+00]
 [ -2.10021250e-02   8.35614264e-01   2.11597824e+00   7.50026405e-02
   -1.26086247e+00   8.33085358e-01   6.52165115e-01   2.70795643e-01
   -1.80256593e+00   7.01373816e-01]
 [  3.25558454e-01  -3.50827187e-01   1.34403396e+00   4.60631073e-01
    2.38752246e+00  -3.21878046e-01   5.31879477e-02   1.57097840e+00
   -5.60066819e-01   6.30528480e-02]
 [  5.21755278e-01  -4.62894291e-01   1.85523599e-01  -8.41299951e-01
   -2.85689663e-02   4.89396423e-01   3.35550725e-01  -9.75945234e-01
    1.28227365e+00   3.70967895e-01]
 [ -1.49947420e-01  -4.47751880e-01   5.47126941e-02   5.64092398e-01
   -5.67972839e-01   8.58669803e-02  -1.15863454e+00   1.32876050e+00
   -3.22072208e-01   1.01802535e-01]
 [ -4.40641612e-01  -1.05104148e+00  -8.34243417e-01  -1.58347189e+00
    2.93761492e-01   2.21206307e-01  -5.23541152e-01   6.79446578e-01
    5.66722378e-02   4.43349816e-02]
 [ -8.10936153e-01   2.73343801e-01   8.44134271e-01   1.30178058e+00
    2.23012233e+00  -3.62730622e-01   1.64960027e+00   3.05003285e+00
    4.21289355e-02   3.26112628e-01]
 [ -4.24433559e-01  -2.62574029e+00   4.95679826e-01  -2.40838945e-01
   -3.03737849e-01   3.13825995e-01   9.78739321e-01   6.26995385e-01
   -1.47353280e+00  -3.52388024e-01]
 [  4.02324945e-01   4.16337043e-01   2.89435655e-01  -7.58381784e-01
    6.16553612e-03  -1.92908555e-01  -1.21283209e+00   7.88258195e-01
   -1.51505196e+00  -1.12748456e+00]
 [  3.34586859e-01  -5.93961418e-01  -1.65851474e+00   1.44342625e+00
    1.77006498e-01  -9.86068428e-01   1.09601460e-01   1.06421924e+00
   -2.18453631e-02   5.62823832e-01]
 [ -3.60459656e-01   2.05867499e-01   1.44144797e+00   1.38306897e-02
   -6.85766399e-01   1.27059639e+00   3.40123117e-01   1.36440262e-01
    1.73673725e+00  -1.64520234e-01]
 [  2.50246733e-01  -2.06459239e-01  -3.63621086e-01   1.75396252e+00
   -1.49422669e+00   1.92324653e-01  -8.44180956e-02   4.47483748e-01
    9.01382267e-01   3.06981225e-02]
 [  7.71571338e-01   1.31180599e-01  -1.68712080e+00   4.45340455e-01
   -2.49266282e-01   3.85618538e-01  -1.59785283e+00  -5.18418908e-01
    1.37766898e+00   7.12634444e-01]
 [  4.53008600e-02  -2.16409966e-01  -4.58735466e-01  -5.38583025e-02
    7.02869117e-01   1.40051699e+00  -4.56939489e-01  -7.63716936e-01
   -5.39260864e-01  -1.22654378e+00]
 [  2.06400084e+00  -1.22886741e+00  -1.50121793e-01  -3.82639468e-01
   -4.54338729e-01   2.47442424e-01   1.32309437e-01   1.12141967e+00
   -1.61327589e+00  -7.90728688e-01]
 [  4.14620966e-01  -6.13923550e-01   1.44350246e-01  -9.83408630e-01
   -4.01620537e-01   3.07685230e-02  -1.11204541e+00   1.23446703e+00
   -9.55246925e-01   4.20238823e-01]
 [ -2.29702517e-01  -2.22398877e+00  -8.48441184e-01   1.19362855e+00
   -6.85577750e-01  -9.15763736e-01  -1.19799149e+00  -8.02609563e-01
   -1.03968096e+00   8.10203195e-01]
 [ -1.79481864e+00   1.94270968e-01  -9.11475003e-01   5.26753843e-01
   -2.70457685e-01   5.17833471e-01  -1.62991965e+00   3.85063626e-02
   -1.14092730e-01   7.84648597e-01]
 [  2.17982221e+00   8.13490391e-01   2.87976354e-01  -4.11735892e-01
   -6.93786740e-01   2.01027259e-01  -1.74754572e+00   1.72712043e-01
   -2.68940955e-01  -5.16283453e-01]
 [  7.74293900e-01  -1.70988381e-01   8.43058646e-01  -1.17694759e+00
    3.76974076e-01  -1.03786731e+00   4.90919888e-01   7.38145828e-01
   -6.26569688e-02   7.47505546e-01]
 [ -1.24462605e+00  -1.33066952e-01  -1.85857272e+00  -1.32258272e+00
   -1.71415694e-02   1.68785536e+00  -9.07065392e-01   9.52952385e-01
   -3.44508260e-01  -3.34400177e-01]
 [  1.89362490e+00   4.62844342e-01  -1.29658031e+00   3.92259330e-01
   -4.16343063e-01   5.30384958e-01   8.16615105e-01   1.92570901e+00
    4.68588799e-01   4.92104173e-01]
 [ -7.72724748e-01   2.40342349e-01  -3.01594049e-01   1.23207271e+00
    2.41682440e-01   1.45675611e+00  -1.89308703e-01   6.69674650e-02
   -6.31192982e-01  -6.65237367e-01]
 [  5.37636220e-01  -9.76704359e-01  -1.03275907e+00   5.14780939e-01
    9.25090253e-01   9.47983384e-01   2.52150327e-01   9.64154303e-01
    1.03283681e-01   4.91475135e-01]
 [  5.91915511e-02  -9.76323336e-02   1.40273213e+00   5.52511752e-01
    1.85134256e+00  -8.67835656e-02   2.16943383e-01   7.15587959e-02
   -5.26743352e-01   6.48753703e-01]
 [  2.60859251e-01  -5.00165403e-01   1.47539759e+00  -4.96659070e-01
   -1.04498291e+00  -2.77611446e+00   1.32677650e+00  -1.01612031e+00
    1.20246328e-01   6.13722682e-01]
 [ -1.87819314e+00  -1.05713010e-01  -3.83025259e-01   1.55931249e-01
   -7.16674745e-01  -5.96875489e-01  -2.21145296e+00   2.20475659e-01
    2.73239464e-01   1.15130496e+00]
 [ -7.67754376e-01   1.74623597e+00   1.18925180e-02  -8.36099803e-01
   -1.62325335e+00   4.73060399e-01   9.12771165e-01   1.69099474e+00
   -1.88001782e-01   2.82963753e+00]
 [ -1.65516174e+00   1.04308581e+00  -1.02829015e+00   1.50134850e+00
    1.49973238e+00  -8.16012919e-01  -1.69579244e+00  -1.33793712e+00
   -9.15058181e-02   8.18358511e-02]
 [  4.38334286e-01  -4.86714870e-01   7.35981107e-01  -8.49830449e-01
    3.18985172e-02   1.26592708e+00  -1.87239479e-02   8.37231219e-01
    5.73219717e-01  -1.77104008e+00]
 [  4.49770719e-01  -2.63919085e-01   9.83118713e-01  -4.06235307e-01
    6.62180543e-01   5.56539834e-01   1.72827542e-01  -9.27835882e-01
    8.53208825e-02   5.81603527e-01]
 [ -1.97995007e+00   7.51664042e-01  -6.17284596e-01   5.92262805e-01
    2.64759332e-01  -1.39338100e+00   8.19925547e-01  -7.74143100e-01
   -8.50478470e-01   1.82379568e+00]
 [ -1.40118098e+00   1.11682463e+00  -3.74157757e-01   1.37803340e+00
    1.54169571e+00   1.00370932e+00   7.69985974e-01  -1.00280762e+00
    1.95350111e-01   1.13158533e-02]
 [  1.08526027e+00   3.91718864e-01   1.22203958e+00   1.21321231e-01
   -1.24776095e-01   9.70084131e-01   7.20354080e-01   2.08451056e+00
    3.88797820e-01   1.63379061e+00]
 [  2.82937497e-01  -2.96948135e-01  -3.23079564e-02  -1.02838981e+00
   -1.51404405e+00  -1.52626789e+00   9.19128358e-01   1.55135155e+00
   -1.34085524e+00   1.86952338e-01]
 [  4.52819407e-01  -2.79885948e-01   3.66742045e-01  -3.59076411e-01
   -6.60583854e-01   4.02934641e-01  -1.29966319e-01  -3.90393794e-01
    1.56465447e+00  -3.51128697e-01]
 [  2.60603547e-01   1.59705758e+00   7.80538797e-01   2.19371390e+00
    3.93779606e-01  -2.83111215e-01  -7.86143094e-02  -1.79592088e-01
    9.35507774e-01   9.06277835e-01]
 [  1.72517133e+00   7.02695012e-01  -8.68713617e-01   8.88766587e-01
   -8.79901111e-01   1.77205890e-01   6.45521045e-01  -2.35808659e+00
   -5.77809010e-03   5.80857456e-01]
 [ -4.11382973e-01   1.85479689e+00  -1.14494216e+00   1.31942943e-01
    1.16399848e+00   7.23202005e-02  -2.23190710e-01   7.59681687e-02
   -8.71218920e-01   1.40621051e-01]
 [  2.47374296e-01   1.60416853e+00   7.11433053e-01   2.07088447e+00
    6.44244790e-01   3.01859945e-01   4.19017702e-01   3.36621910e-01
   -1.96033394e+00   8.53939891e-01]
 [ -1.15435421e+00   1.16745579e+00   1.09847319e+00   1.53407919e+00
    2.44163728e+00   3.28922838e-01   8.19868267e-01   6.23698592e-01
    7.82117784e-01   1.08266771e+00]
 [  1.17866147e+00   9.94283378e-01  -6.00706398e-01   1.26415682e+00
   -9.19278502e-01   1.43629205e+00  -9.87846196e-01   1.64503589e-01
   -4.42902297e-01  -8.37050259e-01]
 [ -1.53162643e-01   7.74511024e-02  -5.32106310e-02  -1.06070888e+00
   -8.09112251e-01   3.00317168e-01  -5.78968704e-01   7.69545496e-01
    3.60865921e-01  -1.19278538e+00]
 [  2.34130430e+00   2.79077291e-01  -7.39669740e-01   5.63529789e-01
   -9.08994555e-01   4.81121317e-02  -1.16273835e-02  -1.11599457e+00
   -9.37925100e-01   1.26921022e+00]
 [ -9.96210203e-02   1.06052256e+00  -1.89868546e+00  -5.04080594e-01
   -2.45703310e-01  -2.17198992e+00   1.73104405e+00   2.37192130e+00
   -2.46716633e-01   1.48173618e+00]
 [ -1.02173197e+00  -7.02941120e-01  -1.19076788e+00  -1.22898328e+00
   -2.09299371e-01   2.25091124e+00  -3.27549316e-03   5.34550786e-01
   -1.14000320e+00  -8.14167857e-02]
 [ -3.68735671e-01   6.23980999e-01  -8.18822443e-01  -1.38886464e+00
    4.47027057e-01  -7.66291618e-01  -1.26185983e-01   7.44458079e-01
    4.85570952e-02  -1.31205547e+00]
 [  8.15119624e-01  -3.77804786e-01  -8.57041597e-01   1.67192295e-01
   -1.25548482e+00  -1.87474597e+00  -1.06474936e+00   9.71507490e-01
    1.11750215e-02   2.83408642e+00]
 [ -6.46264672e-01  -1.57317117e-01   5.23128174e-02   1.55051243e+00
    7.36061513e-01   8.18743050e-01  -1.25133502e+00   1.05653465e+00
    5.86595893e-01   1.60946953e+00]
 [  9.86275077e-01  -2.08809209e+00  -1.84581256e+00  -8.50570977e-01
    8.28899741e-01  -5.71880102e-01   6.87633455e-01   7.18524933e-01
   -1.59731317e+00   1.74058664e+00]
 [  2.48864651e+00   6.22333772e-02  -4.46649671e-01   6.25376165e-01
   -1.88692832e+00  -7.19636858e-01   2.36438870e-01   1.26919281e+00
    1.35176480e+00   4.10731286e-01]
 [  4.20936197e-01   7.15464592e-01  -1.21991611e+00   1.25156808e+00
    3.00225878e+00  -2.05357268e-01   4.99284640e-02   1.90636134e+00
    2.48196833e-02  -9.87343639e-02]
 [ -9.34297144e-01   1.28297234e+00   1.05660200e+00   1.63376883e-01
   -3.96022797e-01   5.76736987e-01   1.24709749e+00   8.08276534e-01
    1.20330416e-01  -9.14043009e-01]
 [ -3.51625562e-01  -1.03623614e-01   2.46408963e+00   1.67956680e-01
   -8.46144333e-02  -1.32581449e+00   1.30589712e+00   9.29320872e-01
    6.00857794e-01   5.80098629e-01]
 [  1.15656447e+00  -1.18445504e+00   5.03490567e-01  -7.63913197e-03
    4.14268494e-01   5.49750507e-01  -5.82869709e-01   8.48216593e-01
   -3.15892249e-01   1.42353034e+00]
 [  1.67410344e-01  -4.43615556e-01   6.58799887e-01  -4.50644463e-01
    1.51981127e+00   3.17413539e-01  -6.65681958e-01   7.08072782e-01
   -9.91931617e-01   4.38640565e-01]
 [  2.68713627e-02   9.10315633e-01   1.31483674e+00  -3.53933685e-02
   -1.12824404e+00   1.15600479e+00   1.64288893e-01  -1.40230536e-01
   -1.47972167e-01  -1.41314113e+00]
 [ -6.13134742e-01  -5.05707562e-01   1.55232072e+00   1.86494696e+00
   -8.11226785e-01  -8.44221890e-01   1.10547256e+00  -2.19053403e-01
   -1.58788726e-01  -7.84304440e-01]
 [  3.00221652e-01   1.36910641e+00  -9.39066291e-01  -1.17579484e+00
   -1.42653063e-01  -9.40411866e-01  -8.21952879e-01  -5.06037474e-01
    1.37082195e+00  -7.44349211e-02]
 [ -3.96493644e-01   4.05111313e-01  -1.48152602e+00  -4.56203610e-01
   -4.24384445e-01   1.87203348e+00   1.36051261e+00  -1.22431564e+00
    1.93406165e+00   3.17516536e-01]
 [  1.59483409e+00  -1.25853419e-01   1.42401695e+00   1.66754425e+00
   -4.12064672e-01  -1.85452446e-01   6.28266335e-01   4.94298488e-01
   -7.73995593e-02   7.72037089e-01]
 [ -1.19975197e+00  -8.11038196e-01  -4.08847123e-01  -8.38141322e-01
   -2.72071552e+00  -1.75198984e+00   1.86653152e-01   8.54481936e-01
   -6.68439627e-01  -6.22373343e-01]
 [  1.52525747e+00  -5.12213171e-01   3.77687633e-01  -8.10121536e-01
    8.74693573e-01   5.56165799e-02   1.04266310e+00   1.92157698e+00
    1.58700061e+00  -1.02966034e+00]
 [  3.86928678e-01   3.07038754e-01   6.75489962e-01  -1.16520263e-01
   -8.92655730e-01  -1.96430767e+00   2.09450826e-01   7.11620569e-01
   -2.11212230e+00  -5.74181259e-01]
 [  7.31423730e-04   4.89147544e-01   1.91346228e-01  -6.01839006e-01
    2.08769351e-01  -9.31214273e-01  -5.83242714e-01   2.49832630e-01
   -4.46387470e-01   1.17517090e+00]
 [  5.48903048e-01  -6.48003578e-01  -1.35583448e+00  -3.82094443e-01
    5.87373078e-01  -7.31754780e-01  -6.94611669e-01  -1.41016722e+00
   -1.60675693e+00  -4.82564300e-01]
 [ -1.28066838e+00  -1.84228671e+00  -1.39324218e-01  -1.71601355e-01
    1.44302785e+00   4.51660305e-01   1.20367813e+00   2.99283242e+00
    8.16952705e-01   1.01794314e+00]
 [ -2.60107547e-01   1.87117010e-01   1.06884158e+00  -3.85408878e-01
   -9.04374421e-01  -2.76665151e-01  -4.87362027e-01  -1.81275085e-01
    5.79768308e-02   7.93096244e-01]
 [  1.15983748e+00  -2.19149232e+00  -1.73749685e+00   4.89261866e-01
    3.74061912e-01  -4.79987800e-01  -4.01924580e-01   8.22804689e-01
    1.23263335e+00  -4.50007230e-01]
 [ -4.00578141e-01   6.31402284e-02  -5.08159041e-01  -6.32643163e-01
   -5.27009606e-01   1.15627670e+00  -8.17793906e-01  -2.09635520e+00
   -3.39753419e-01   6.44824922e-01]
 [  6.55854821e-01   2.21367216e+00   1.42737293e+00   5.64835668e-02
    1.06727910e+00   4.63202298e-01   4.96796429e-01  -1.02693832e+00
   -1.83213341e+00   8.23037028e-01]
 [  5.99577427e-01   4.65272069e-01  -7.00938463e-01   8.57992649e-01
    2.54153800e+00   6.43027008e-01  -9.48193192e-01   1.09010816e+00
    1.13178685e-01   8.20725411e-02]
 [ -3.80848318e-01   3.29004794e-01  -2.61553109e-01   1.18013322e+00
    8.51773858e-01   1.79414487e+00   3.80136043e-01  -1.34465647e+00
    2.08282918e-01   2.23628712e+00]
 [ -1.54919446e+00  -9.29298878e-01  -2.24366283e+00   4.47107553e-01
    3.34076381e+00  -5.65047681e-01   2.20923066e+00  -2.76761889e-01
   -1.59007323e+00  -5.75609088e-01]
 [  3.88463080e-01   6.10002160e-01   1.36863959e+00  -3.01516771e-01
   -1.18696404e+00   1.70083493e-02   2.49233872e-01   1.37220931e+00
    1.49468184e+00  -1.35244524e+00]
 [  7.06856668e-01   3.06935072e+00   3.85108322e-01  -9.72386897e-01
   -2.45475248e-01   7.47749507e-02  -3.59420121e-01  -4.30084050e-01
    2.11369604e-01  -5.33099413e-01]
 [  6.65312707e-01   1.28590250e+00  -4.46705103e-01   1.57377267e+00
    4.30991575e-02  -1.19286597e-01  -8.16573977e-01   1.39852262e+00
    2.08805799e+00  -1.69044346e-01]
 [ -1.91107363e-01  -1.17973804e+00   4.30357978e-02   1.90828753e+00
   -9.15891290e-01  -1.53060397e-03   7.58981586e-01  -2.84786463e-01
   -3.78860503e-01   1.20785081e+00]
 [ -8.48582506e-01   1.14565067e-01  -1.38757586e+00  -2.81395137e-01
    6.74338639e-01  -1.73297060e+00   2.00274849e+00  -9.45376337e-01
    8.65848958e-01   1.19597840e+00]
 [ -7.64295876e-01  -6.45884033e-03   8.93386185e-01  -1.01343298e+00
    6.24584079e-01   1.54326069e+00   2.97342360e-01   1.46169436e+00
    7.71505654e-01  -7.00830400e-01]
 [ -5.16616940e-01  -2.14106113e-01  -1.09791875e+00  -1.47126412e+00
   -7.91135430e-02  -8.49107802e-01  -1.12396026e+00   8.49892974e-01
    8.77382040e-01   4.76761490e-01]
 [  1.49055517e+00  -1.56420434e+00  -4.06271487e-01   1.32432401e+00
    1.46213758e+00   1.85272372e+00   8.05887103e-01   1.87699246e+00
    1.17890322e+00  -4.34312314e-01]
 [  1.75163186e+00  -7.61669934e-01   1.37954783e+00   1.14401937e+00
   -5.07521927e-01   8.14712465e-01  -4.16196227e-01   1.40042210e+00
   -5.82866132e-01   1.18357468e+00]
 [ -3.60766470e-01  -1.00700058e-01  -1.58052117e-01   2.02134609e+00
   -4.80626384e-03   1.16654599e+00   1.22412133e+00  -1.10184908e-01
   -6.09102130e-01   3.32633764e-01]
 [  5.06285019e-02   1.17628954e-01  -1.40509522e+00  -1.17860091e+00
    1.18623710e+00  -9.41617489e-01  -1.34967685e+00   1.39157355e+00
    9.28655446e-01   2.82383114e-01]
 [ -3.60577255e-01  -1.34566557e+00  -6.53305352e-02   7.11379290e-01
   -1.49848372e-01   8.36731076e-01  -1.00297958e-01  -9.71206009e-01
    5.49520910e-01  -7.17099667e-01]
 [ -5.99895000e-01   1.09140587e+00  -4.20770258e-01  -8.20467949e-01
   -9.40975249e-01   2.21674728e+00  -2.38593411e+00  -1.15566623e+00
    3.70607764e-01   4.00158018e-01]
 [  1.59479702e+00  -7.27806568e-01  -9.79507744e-01  -6.23074412e-01
   -2.00780249e+00   2.70012200e-01  -2.64662266e-01  -9.68925431e-02
    3.93573493e-01  -2.00278997e+00]
 [ -1.06024945e+00  -3.13427746e-01   1.61554754e+00   8.52122158e-02
   -4.76946443e-01  -3.61253679e-01   4.38327670e-01  -5.73728025e-01
    1.38109732e+00   9.53956604e-01]
 [ -4.78319347e-01   1.74486473e-01   4.81131613e-01   1.40773094e+00
   -5.42844713e-01   5.58006726e-02   1.22920918e+00   9.38679338e-01
   -8.19266796e-01  -1.17113426e-01]
 [ -4.94251996e-01   2.64877558e-01  -8.10942277e-02   4.50566690e-03
    8.13913047e-01   1.61973551e-01   5.92093706e-01   5.97245216e-01
   -2.93561637e-01  -7.91051328e-01]
 [ -3.31266731e-01   1.00922525e+00  -9.78726149e-01  -1.38946927e+00
   -2.42293820e-01  -9.20266509e-02  -1.14218926e+00  -2.10258484e-01
    5.60953021e-01   2.13453159e-01]
 [ -1.22326446e+00  -8.72519433e-01  -1.37249398e+00   1.35725141e+00
   -1.44679689e+00   2.00319197e-02  -6.17255747e-01  -3.24628025e-01
   -2.34120294e-01   4.94698174e-02]
 [  1.30052656e-01  -6.00465119e-01   3.79617065e-01   1.15243169e-02
    2.71351784e-01  -1.02381814e+00  -7.73011684e-01   1.71188438e+00
    2.60831475e-01   3.09404843e-02]
 [ -2.07949185e+00  -6.49602532e-01   1.35706520e+00  -1.16800666e+00
   -2.83237338e+00  -1.83342314e+00   3.93347532e-01   1.23599124e+00
   -1.86157691e+00  -1.11256504e+00]
 [  4.08866346e-01  -2.16906357e+00   4.63248700e-01   1.00113213e+00
   -6.19798005e-01  -3.36822242e-01  -4.67337146e-02   7.66559541e-01
    1.55984914e+00  -1.69535542e+00]
 [  4.40346509e-01   2.34152257e-01   2.13294291e+00  -3.86743516e-01
    1.49128959e-01   3.23039681e-01   5.89370072e-01  -1.88821435e+00
   -4.97005254e-01   4.75018054e-01]
 [ -4.51301336e-01  -1.85490215e+00  -6.89999521e-01  -1.19506709e-01
   -6.70138240e-01  -8.14738095e-01   9.80779886e-01   1.15413868e+00
   -4.53774542e-01  -3.68293941e-01]
 [ -1.14121445e-01  -4.51416254e-01  -5.48060119e-01  -4.64944214e-01
   -3.60254943e-01  -6.36509418e-01   7.58262217e-01   3.85524146e-02
   -3.13576579e-01   3.29387575e-01]
 [  9.60218847e-01  -1.06962264e-01   8.40797052e-02   1.03949475e+00
    2.36817170e-03  -5.56883872e-01   2.80508518e-01  -1.42067289e+00
   -8.71319532e-01  -2.59126991e-01]
 [ -1.22866797e+00  -1.20943630e+00   2.85273612e-01  -9.07417059e-01
   -1.86422801e+00  -8.11334550e-02   7.49918938e-01   2.37110734e-01
   -2.72306025e-01   7.27529228e-01]
 [ -1.78300726e+00   1.98267493e-02  -6.35394096e-01  -5.39380908e-01
    7.41807818e-01   3.26509386e-01  -1.80213004e-01   8.94209027e-01
   -1.94737688e-02   5.96754313e-01]
 [  1.10075378e+00  -6.62569463e-01  -8.98297727e-01  -1.01524317e+00
    3.52146834e-01  -2.42443538e+00  -9.15342033e-01   3.77944022e-01
   -1.16121602e+00   1.71260333e+00]
 [  3.38445753e-01  -1.76669884e+00   4.82347846e-01  -1.83506042e-01
   -2.40505457e-01  -2.22116485e-01  -9.70404595e-02  -8.74912798e-01
    1.00402260e+00  -6.38748184e-02]
 [ -1.05731077e-01  -1.22757149e+00   3.71245027e-01  -1.00423265e+00
    2.27501348e-01  -4.88225937e-01   1.42872892e-02   9.92195308e-01
   -1.05818605e+00  -1.09704399e+00]
 [ -7.27379680e-01   1.15347409e+00   1.15897548e+00   9.41576838e-01
   -2.17944205e-01  -1.37584463e-01   7.76110709e-01  -1.65139222e+00
   -4.81947899e-01   1.10730159e+00]
 [ -1.02451766e+00  -1.45861078e-02   6.14406645e-01   2.26165503e-01
   -3.09587717e-01  -1.37811661e+00  -3.86909038e-01  -1.62635058e-01
   -1.60538971e+00  -1.23058474e+00]
 [  1.26317799e+00   1.04170275e+00   8.59267861e-02   7.84514487e-01
    1.51230264e+00   2.25119424e+00  -1.10041404e+00  -8.45302463e-01
    3.20674956e-01   1.38189816e+00]
 [ -2.29832411e-01  -1.27997303e+00  -8.73640001e-01  -6.01699129e-02
    1.10481727e+00  -2.39251590e+00   6.35268331e-01  -5.38533151e-01
   -4.92406100e-01  -4.58770990e-01]
 [  2.26745233e-01   2.12476277e+00   1.08051205e+00  -1.38702142e+00
   -5.74405119e-02   2.26306528e-01  -1.09092569e+00   8.84689569e-01
    3.55134040e-01  -1.49584770e+00]
 [  4.88587618e-01  -1.78293586e+00  -1.58291805e+00  -1.09310651e+00
    4.34901476e-01   8.91507685e-01   1.10725534e+00   3.93742085e-01
    4.47707623e-01   8.91899168e-01]
 [  9.67834115e-01  -1.06739247e+00  -2.06562683e-01   1.15349674e+00
   -1.04251325e+00   5.20731568e-01   9.11040306e-01   3.25851262e-01
    4.32244241e-01   5.44389009e-01]
 [ -3.31571043e-01  -8.17461610e-01  -1.28659046e+00  -1.28898013e+00
    5.77436268e-01   3.62997830e-01   2.88261533e-01  -7.05335379e-01
    2.12886736e-01  -5.66544771e-01]
 [ -1.00914669e+00  -1.74223199e-01   1.12243974e+00  -1.05312026e+00
    1.41160476e+00   1.92218170e-01   5.66127241e-01  -1.98586178e+00
   -1.62100899e+00  -6.86136067e-01]
 [  1.02103591e+00   1.56025934e+00   6.85091019e-01   7.96294138e-02
    7.59031713e-01  -1.10398507e+00   5.24899244e-01  -1.20460606e+00
    5.95264196e-01  -6.92776442e-01]
 [ -9.14426446e-01   9.83332992e-01  -3.03128595e-03   6.75177276e-01
    1.60847878e+00   5.55969894e-01   1.57668495e+00  -8.64524860e-03
    9.84755307e-02   1.24655759e+00]
 [ -1.49644816e+00  -1.68928850e+00   2.20296249e-01  -3.28718573e-01
   -1.56205475e+00   5.50046086e-01   4.59709093e-02   4.26280946e-01
   -1.14678420e-01   4.63437289e-01]
 [  1.35256147e+00   8.87342870e-01  -3.40198368e-01   9.76679802e-01
    8.12149584e-01  -2.83904940e-01  -3.12623769e-01  -5.49762070e-01
    1.28774598e-01  -1.16582060e+00]
 [  2.91812956e-01   5.17319918e-01  -6.93664730e-01   4.42257166e-01
   -1.87095881e+00   1.68498874e+00   2.88034737e-01   5.14340878e-01
   -2.52182961e-01   1.29130352e+00]
 [  1.48429954e+00  -3.47472966e-01   5.07738292e-01   7.20264018e-01
   -1.07315922e+00   2.54178143e+00  -8.62375498e-01  -1.13851821e+00
   -3.18358898e-01  -2.66906321e-01]
 [ -1.39746845e+00   4.14676279e-01   4.33490366e-01   2.19861865e+00
   -1.06460500e+00   4.56094176e-01  -1.28299904e+00  -5.42326570e-01
   -2.51915189e-03   1.13873243e+00]
 [  9.70991135e-01  -1.14521205e+00   2.12223887e+00  -6.07551098e-01
    2.05211237e-01  -6.14481140e-03   1.30065441e+00  -8.78167391e-01
   -1.07298088e+00   4.74853307e-01]
 [ -4.88763243e-01  -1.15772212e+00   1.46347940e+00  -3.14664990e-01
   -6.63926601e-01   2.14113906e-01  -3.87045205e-01   6.56500399e-01
    3.21168631e-01   3.64848375e-01]
 [  2.16398686e-01   1.24035847e+00   1.87008932e-01   1.03116941e+00
    8.28150451e-01   2.91120768e+00  -1.17555892e+00  -5.04296780e-01
    6.46726966e-01   4.26592439e-01]
 [ -2.55451679e-01  -5.03152013e-01   2.47082487e-01  -3.44764441e-01
    3.97898853e-01  -2.59823799e-01   8.64248753e-01  -3.25797200e-01
    4.30007577e-01   1.51417279e+00]
 [  1.64893448e+00   8.01732600e-01   7.23288119e-01  -1.61967623e+00
   -2.08976054e+00  -8.32998395e-01  -6.07829034e-01   5.83716035e-01
   -8.10939014e-01  -2.43507564e-01]
 [  1.70391011e+00   1.21989870e+00   2.09392887e-02   1.45237541e+00
    9.24112082e-01  -6.85570240e-01  -2.15510298e-02   1.06858039e+00
    6.23399913e-01  -1.07821155e+00]
 [  9.88639444e-02   5.34809947e-01   1.03520429e+00   6.68218255e-01
   -4.32319343e-01   2.05764204e-01   1.89062431e-01  -2.52332062e-01
    9.90093529e-01   5.61901391e-01]
 [ -6.21834219e-01   1.36507785e+00  -3.82441841e-02  -7.03350723e-01
    1.04596269e+00   3.19729835e-01  -3.15001577e-01  -1.31393299e-01
    1.09122288e+00   5.01005575e-02]
 [  2.58373417e-04   1.21823609e+00   3.54201496e-01  -7.41504014e-01
    6.13400564e-02  -6.88434005e-01   4.20608878e-01   6.30290747e-01
    3.16871494e-01   1.70270965e-01]
 [  2.65996277e-01  -5.42459428e-01  -2.23554268e-01   2.62590438e-01
   -1.65932024e+00  -9.46221948e-02  -1.66195408e-02  -1.44998103e-01
    1.10612404e+00  -4.52686071e-01]
 [  2.27853343e-01  -6.14967704e-01  -1.23957586e+00   2.71421582e-01
   -6.87371194e-01  -3.12393486e-01   2.11441302e+00   2.90970534e-01
    1.00680792e+00  -1.10661156e-01]
 [  5.92719257e-01  -2.41197515e+00   1.88425791e+00  -1.43790573e-01
    2.94284552e-01  -9.20751572e-01  -5.20416498e-01  -8.82482648e-01
    6.04537964e-01   1.53562516e-01]
 [ -7.36063659e-01  -8.27860713e-01   8.71307477e-02   1.07204139e+00
    3.83873075e-01  -9.77052748e-01  -8.39647185e-03   1.04745650e+00
    8.97501111e-01  -1.22191966e-01]
 [ -5.09587586e-01   5.74902534e-01   7.64815807e-01   7.57369161e-01
   -1.14347851e+00   1.61713612e+00   1.14673746e+00  -9.07709897e-01
   -1.46764076e+00   4.07385714e-02]
 [  1.68009591e+00   1.85935092e+00  -1.25651371e+00   1.21280861e+00
   -1.52418590e+00  -6.34161830e-01  -1.51662910e+00   2.66373932e-01
    8.24282527e-01   2.73579448e-01]
 [  5.71517825e-01  -1.06403458e+00  -8.85170698e-01   1.90913916e+00
    1.65536165e-01  -8.45127642e-01  -1.88588455e-01  -1.32481515e+00
   -1.85010791e+00   8.25465191e-03]
 [  2.33993545e-01   1.49171710e+00   2.43363008e-02  -2.10289121e+00
    7.19487429e-01   1.88257799e-01  -6.35343418e-02  -1.44524664e-01
    8.66468966e-01  -1.62589633e+00]
 [  1.69556534e+00   1.25752521e+00   1.99223636e-03  -1.55576050e+00
    7.70993233e-01  -2.86482602e-01  -3.83269608e-01  -2.31108606e-01
   -4.51083362e-01   7.35367358e-01]
 [  1.92463470e+00   1.94509462e-01   1.04242277e+00  -2.52327938e-02
   -1.64186037e+00   5.31350791e-01  -4.43744883e-02  -4.40619737e-01
   -2.33050847e+00  -7.24239588e-01]
 [ -1.03787377e-01  -6.07717991e-01   9.99091983e-01  -8.95291805e-01
   -2.48697326e-01   7.12739289e-01  -9.51356530e-01   1.21275437e+00
    1.04743600e+00   1.18879533e+00]
 [  2.11765334e-01  -1.28503156e+00   2.10328862e-01  -5.83004594e-01
    1.33064008e+00   9.58944619e-01   5.22461951e-01  -1.24947000e+00
    5.66982746e-01  -3.39854024e-02]
 [  7.45756865e-01   1.04610312e+00  -7.50109911e-01   1.21632564e+00
   -9.43916440e-02   5.96467912e-01   6.95313513e-01   5.18935204e-01
    7.62654185e-01  -1.40618944e+00]
 [  9.79588270e-01   1.94966435e-01   1.80960409e-02  -8.22367221e-02
    8.76493335e-01   5.23425162e-01  -2.20159497e-02  -1.45378721e+00
   -1.12574148e+00   1.52938759e+00]
 [ -4.88846935e-02   2.60172576e-01  -4.34904397e-01  -5.64657807e-01
    3.71920198e-01   6.28144979e-01   1.04762352e+00  -4.46718484e-01
   -2.28433281e-01  -2.99940258e-01]
 [  1.39347780e+00  -1.92715868e-01  -3.45744081e-02  -1.11577249e+00
   -5.41470885e-01  -8.06407154e-01   5.75595319e-01  -3.26590687e-01
    4.24541712e-01  -8.44129801e-01]
 [ -1.62198305e+00  -2.86231071e-01   4.52644557e-01  -7.04658389e-01
